{"type":"LSTM","options":{"inputSize":20,"inputRange":20,"hiddenSizes":[20,20],"outputSize":20,"learningRate":0.01,"decayRate":0.999,"smoothEps":1e-8,"regc":0.000001,"clipval":5,"json":null,"dataFormatter":null},"input":{"rows":21,"columns":20,"weights":{"0":0.05052952095866203,"1":-0.062440212815999985,"2":0.04403223469853401,"3":-0.022898325696587563,"4":-0.027252279222011566,"5":-0.030333761125802994,"6":0.05542806163430214,"7":0.0207215566188097,"8":0.07746780663728714,"9":-0.06302791088819504,"10":-0.005664207506924868,"11":0.002308290684595704,"12":0.03970129415392876,"13":0.05570146441459656,"14":0.023125506937503815,"15":0.04373863339424133,"16":-0.04740731418132782,"17":0.023288507014513016,"18":0.060498688369989395,"19":0.07776564359664917,"20":-0.07350250333547592,"21":-0.011577232740819454,"22":-0.020452270284295082,"23":0.024043656885623932,"24":0.025450827553868294,"25":-0.053425975143909454,"26":-0.039529211819171906,"27":-0.0462513267993927,"28":0.06595804542303085,"29":-0.04436236247420311,"30":-0.009679844602942467,"31":0.029805975034832954,"32":-0.06353062391281128,"33":0.07629311084747314,"34":-0.05129023268818855,"35":-0.019279194995760918,"36":-0.04955192655324936,"37":-0.043308209627866745,"38":-0.0028836617711931467,"39":-0.028711281716823578,"40":-0.01045601163059473,"41":-0.027998540550470352,"42":0.06407026201486588,"43":0.00807226076722145,"44":-0.021137434989213943,"45":0.00015115427959244698,"46":-0.005635115318000317,"47":0.020411938428878784,"48":-0.011046567000448704,"49":0.042940329760313034,"50":-0.05565878376364708,"51":-0.008239286951720715,"52":-0.06293881684541702,"53":-0.04018379747867584,"54":-0.03890662640333176,"55":0.015322492457926273,"56":0.07969263941049576,"57":-0.013959445990622044,"58":-0.024989815428853035,"59":-0.049541812390089035,"60":-0.007546855602413416,"61":-0.02590959705412388,"62":-0.052101124078035355,"63":0.00032371471752412617,"64":0.016495926305651665,"65":-0.021578356623649597,"66":-0.03700970858335495,"67":0.0019653772469609976,"68":0.025485699996352196,"69":0.04313604533672333,"70":0.03164669871330261,"71":0.03149901703000069,"72":0.03933139145374298,"73":0.012386159971356392,"74":0.030543901026248932,"75":-0.05605439841747284,"76":0.04609564319252968,"77":-0.06270682066679001,"78":-0.029500026255846024,"79":-0.048773668706417084,"80":-0.01993214525282383,"81":-0.020154519006609917,"82":0.05405614525079727,"83":-0.02994857355952263,"84":0.04992486163973808,"85":-0.0031925197690725327,"86":0.06522397696971893,"87":-0.01547775324434042,"88":0.0455387607216835,"89":-0.03878837823867798,"90":0.055504631251096725,"91":-0.021382836624979973,"92":-0.0393502339720726,"93":0.017511755228042603,"94":0.04105522856116295,"95":-0.02213338389992714,"96":0.032652948051691055,"97":0.027486102655529976,"98":-0.0027867795433849096,"99":0.049139901995658875,"100":0.07528720051050186,"101":-0.0164262056350708,"102":0.06507332623004913,"103":-0.03895053267478943,"104":0.046090174466371536,"105":-0.07823149859905243,"106":0.07645704597234726,"107":0.06517978757619858,"108":-0.07383741438388824,"109":-0.07991395890712738,"110":0.06923963874578476,"111":0.00529515091329813,"112":-0.04043273627758026,"113":-0.01635652966797352,"114":-0.006834985222667456,"115":0.056384894996881485,"116":-0.027299920096993446,"117":0.038191474974155426,"118":-0.06024155020713806,"119":-0.002329479902982712,"120":0.046925269067287445,"121":0.050447359681129456,"122":0.015650436282157898,"123":-0.0417635403573513,"124":0.07662421464920044,"125":0.042323917150497437,"126":-0.07756661623716354,"127":0.034802600741386414,"128":-0.042732514441013336,"129":-0.06636182963848114,"130":0.05738706514239311,"131":-0.026275306940078735,"132":-0.0721503421664238,"133":-0.03433069959282875,"134":-0.008240829221904278,"135":-0.0033718810882419348,"136":0.03957226499915123,"137":0.04483181983232498,"138":0.06939388066530228,"139":-0.00853659026324749,"140":0.02565055713057518,"141":-0.06930050253868103,"142":-0.05117060989141464,"143":-0.0074027287773787975,"144":-0.004393537063151598,"145":0.03676629438996315,"146":0.0580330528318882,"147":-0.03849538788199425,"148":0.022692512720823288,"149":-0.02286791242659092,"150":0.046054646372795105,"151":-0.07610928267240524,"152":-0.056472890079021454,"153":-0.05359821394085884,"154":-0.06410957127809525,"155":0.05435585230588913,"156":-0.04959644749760628,"157":0.06714150309562683,"158":-0.0574096217751503,"159":0.057708676904439926,"160":0.03652620315551758,"161":0.013144144788384438,"162":0.048004817217588425,"163":-0.028736591339111328,"164":-0.004447309300303459,"165":0.03825758770108223,"166":0.06855040043592453,"167":-0.0306867565959692,"168":0.013825212605297565,"169":-0.00023086414148565382,"170":-0.010347547940909863,"171":-0.023355266079306602,"172":0.0431072935461998,"173":-0.0403163805603981,"174":-0.059730712324380875,"175":-0.04341570660471916,"176":-0.05706155672669411,"177":0.07279779762029648,"178":0.029868625104427338,"179":0.027528494596481323,"180":0.0621616393327713,"181":0.05472705140709877,"182":-0.029577702283859253,"183":-0.025198763236403465,"184":-0.05960147827863693,"185":0.02985534258186817,"186":-0.05146772041916847,"187":-0.0006127321976236999,"188":-0.04603740572929382,"189":-0.04828730598092079,"190":-0.07505559921264648,"191":0.07887731492519379,"192":-0.06961004436016083,"193":0.0012419974664226174,"194":-0.011624297127127647,"195":-0.011487875133752823,"196":0.06999099254608154,"197":0.031051581725478172,"198":-0.02110530063509941,"199":0.04216541722416878,"200":0.023382898420095444,"201":-0.04253228008747101,"202":-0.07398661971092224,"203":-0.0027518959250301123,"204":-0.019020305946469307,"205":0.016118675470352173,"206":0.06983356922864914,"207":-0.022530972957611084,"208":0.053266096860170364,"209":-0.046844784170389175,"210":-0.03705854341387749,"211":0.06215904280543327,"212":-0.07190711796283722,"213":0.057034000754356384,"214":-0.05185858905315399,"215":0.06836115568876266,"216":-0.020741378888487816,"217":-0.04576990753412247,"218":-0.07574055343866348,"219":0.07388927042484283,"220":-0.026550892740488052,"221":-0.059985049068927765,"222":-0.07732260227203369,"223":0.0070105246268212795,"224":-0.0035013577435165644,"225":-0.0526859313249588,"226":-0.016318103298544884,"227":0.06366796046495438,"228":-0.0467541329562664,"229":-0.06470555067062378,"230":-0.0011560706188902259,"231":0.06914778798818588,"232":-0.029401762410998344,"233":-0.02919100411236286,"234":0.004873952362686396,"235":-0.03689064085483551,"236":0.014574598520994186,"237":0.06022539734840393,"238":-0.0012394327204674482,"239":-0.049584340304136276,"240":-0.03826085850596428,"241":-0.018487965688109398,"242":0.06956405937671661,"243":0.0766414925456047,"244":-0.028887182474136353,"245":-0.006788327824324369,"246":-0.033035892993211746,"247":0.07333862781524658,"248":0.013740231283009052,"249":0.00018170586554333568,"250":-0.03941267728805542,"251":0.032750386744737625,"252":0.0329473651945591,"253":0.043134160339832306,"254":0.0720721185207367,"255":0.01062735915184021,"256":-0.025661293417215347,"257":-0.06912516802549362,"258":0.001757282530888915,"259":0.04339974746108055,"260":0.07106616348028183,"261":-0.03221695125102997,"262":0.07289653271436691,"263":0.024777736514806747,"264":-0.0784989669919014,"265":-0.023195914924144745,"266":0.0554586686193943,"267":-0.05449084937572479,"268":-0.06125887110829353,"269":-0.0753248780965805,"270":-0.03427087143063545,"271":-0.015487181954085827,"272":-0.059160251170396805,"273":-0.04400622472167015,"274":-0.010606616735458374,"275":-0.03432382643222809,"276":0.06674224883317947,"277":-0.057265251874923706,"278":-0.048305779695510864,"279":-0.04910832643508911,"280":-0.05601723864674568,"281":0.031247135251760483,"282":-0.07128188014030457,"283":0.0655171349644661,"284":0.0025264674331992865,"285":-0.06971093267202377,"286":0.07509058713912964,"287":-0.055738966912031174,"288":0.00826252717524767,"289":-0.038021694868803024,"290":0.07994268834590912,"291":-0.024829838424921036,"292":-0.0716998353600502,"293":-0.07944773137569427,"294":-0.01484204176813364,"295":-0.017656974494457245,"296":-0.04150308296084404,"297":-0.06362517923116684,"298":-0.047964125871658325,"299":0.05127955973148346,"300":-0.01834791526198387,"301":0.06112080439925194,"302":0.037846360355615616,"303":-0.018001165241003036,"304":0.019291630014777184,"305":-0.07802391797304153,"306":0.04676000028848648,"307":-0.008661271072924137,"308":0.028077812865376472,"309":0.01792999915778637,"310":0.06835508346557617,"311":-0.009707799181342125,"312":0.06509190797805786,"313":0.0662601962685585,"314":0.06679685413837433,"315":0.03978580981492996,"316":-0.07519122213125229,"317":-0.004342406988143921,"318":-0.0659530758857727,"319":-0.07540686428546906,"320":-0.002302751410752535,"321":0.07928374409675598,"322":-0.02645721100270748,"323":-0.044890519231557846,"324":0.044210758060216904,"325":0.06178020313382149,"326":0.0357133112847805,"327":-0.07431016862392426,"328":0.03302619233727455,"329":0.04963184893131256,"330":0.01867813989520073,"331":-0.07203998416662216,"332":0.031178927049040794,"333":0.04274066165089607,"334":-0.050975535064935684,"335":-0.04929688200354576,"336":-0.02824578247964382,"337":-0.04757697880268097,"338":0.04821418970823288,"339":0.05871343985199928,"340":-0.02491462230682373,"341":-0.033247627317905426,"342":-0.020448340103030205,"343":0.016694994643330574,"344":-0.044102344661951065,"345":-0.07783452421426773,"346":-0.02951253019273281,"347":0.03875565528869629,"348":-0.07867293804883957,"349":0.02874652110040188,"350":0.060118965804576874,"351":-0.05533737689256668,"352":0.0070215254090726376,"353":-0.059027209877967834,"354":-0.010305254720151424,"355":0.061285387724637985,"356":0.04696742445230484,"357":-0.022875318303704262,"358":0.05189131572842598,"359":0.030617911368608475,"360":0.05655790492892265,"361":0.05907372012734413,"362":-0.06347248703241348,"363":-0.07349806278944016,"364":-0.050742603838443756,"365":-0.02213490940630436,"366":-0.058044012635946274,"367":-0.06326837837696075,"368":-0.07238776981830597,"369":0.0008340948261320591,"370":-0.043030526489019394,"371":-0.003651471110060811,"372":0.008692702278494835,"373":-0.06711168587207794,"374":0.0782633125782013,"375":-0.005883344449102879,"376":0.01078073214739561,"377":0.0482647642493248,"378":0.03575810417532921,"379":-0.06599854677915573,"380":-0.0793951004743576,"381":0.04038169980049133,"382":-0.050188224762678146,"383":0.05966220051050186,"384":0.031171001493930817,"385":-0.07761714607477188,"386":-0.014893367886543274,"387":-0.0708002820611,"388":-0.032337822020053864,"389":-0.04923849180340767,"390":-0.06067142263054848,"391":0.02561710774898529,"392":0.006537304259836674,"393":0.05722618103027344,"394":0.05460154637694359,"395":0.06080562248826027,"396":0.0006926063215360045,"397":-0.05661894753575325,"398":0.0770600363612175,"399":-0.034764014184474945,"400":0.06797356903553009,"401":0.07290863990783691,"402":0.013833833858370781,"403":0.003429143223911524,"404":-0.01940096728503704,"405":-0.03131592646241188,"406":-0.0719740092754364,"407":0.06187976151704788,"408":0.053924884647130966,"409":-0.006517534609884024,"410":-0.039088912308216095,"411":0.05941808596253395,"412":-0.07481509447097778,"413":-0.021470628678798676,"414":0.07559815794229507,"415":-0.05271559953689575,"416":0.049539048224687576,"417":-0.07980649918317795,"418":0.07616987824440002,"419":0.04279079660773277}},"hiddenLayers":[{"inputMatrix":{"rows":20,"columns":20,"weights":{"0":-0.019822414964437485,"1":0.07868996262550354,"2":0.029082978144288063,"3":0.07166727632284164,"4":0.006632552947849035,"5":0.011521168053150177,"6":-0.03267376497387886,"7":-0.0017465453129261732,"8":0.009803058579564095,"9":-0.035413824021816254,"10":0.04592538997530937,"11":-0.030657809227705002,"12":-0.007880893535912037,"13":0.03791026398539543,"14":0.011361183598637581,"15":-0.0770035833120346,"16":0.05189443379640579,"17":-0.037238456308841705,"18":0.04198171943426132,"19":-0.04966599494218826,"20":-0.06528253108263016,"21":0.05040312185883522,"22":-0.05651193484663963,"23":-0.050859205424785614,"24":0.07022864371538162,"25":0.0028637931682169437,"26":-0.04080876708030701,"27":-0.07557763904333115,"28":0.06943067163228989,"29":0.0010798188159242272,"30":-0.06038443371653557,"31":-0.028690561652183533,"32":-0.031053883954882622,"33":-0.029537176713347435,"34":0.04231782257556915,"35":0.05779850110411644,"36":-0.02352992631494999,"37":-0.02227792516350746,"38":-0.06266937404870987,"39":0.0739804059267044,"40":0.033192649483680725,"41":-0.06409425288438797,"42":0.043898724019527435,"43":0.06736437976360321,"44":-0.010181034915149212,"45":-0.02630534954369068,"46":-0.065765880048275,"47":-0.021657759323716164,"48":0.0238870307803154,"49":-0.06761226803064346,"50":0.013008917681872845,"51":0.0235470961779356,"52":-0.06179054081439972,"53":-0.06181847304105759,"54":0.005750015843659639,"55":0.05230927839875221,"56":0.057539764791727066,"57":0.07598831504583359,"58":0.03543147072196007,"59":0.05578816682100296,"60":0.051580894738435745,"61":-0.002953538903966546,"62":-0.07109398394823074,"63":0.0137811079621315,"64":-0.07169199734926224,"65":-0.039718784391880035,"66":-0.06715644896030426,"67":0.00826185755431652,"68":-0.022162092849612236,"69":-0.06990840286016464,"70":0.007637699134647846,"71":-0.04930465295910835,"72":0.03490832820534706,"73":0.06729382276535034,"74":0.07130783796310425,"75":-0.0042580110020935535,"76":0.030163848772644997,"77":0.004443934187293053,"78":0.04534122720360756,"79":-0.004611409269273281,"80":-0.05868809297680855,"81":-0.07138173282146454,"82":-0.068565234541893,"83":-0.01088671199977398,"84":-0.020520687103271484,"85":-0.008661966770887375,"86":-0.051509514451026917,"87":0.016992447897791862,"88":-0.06242707744240761,"89":-0.02719939313828945,"90":0.013867423869669437,"91":-0.005768724251538515,"92":-0.05526726320385933,"93":-0.016450541093945503,"94":-0.0364973247051239,"95":0.011660362593829632,"96":-0.056582678109407425,"97":-0.017949091270565987,"98":0.016222884878516197,"99":-0.018343940377235413,"100":-0.05788859724998474,"101":-0.052735812962055206,"102":0.06352155655622482,"103":0.017680775374174118,"104":0.02169160731136799,"105":-0.014154655858874321,"106":-0.06239311397075653,"107":0.049043018370866776,"108":-0.06242411583662033,"109":-0.0711526945233345,"110":0.012129566632211208,"111":0.04033037647604942,"112":-0.031150199472904205,"113":-0.026405969634652138,"114":0.019149787724018097,"115":-0.008216923102736473,"116":0.07095836102962494,"117":-0.0004959677462466061,"118":-0.05217360705137253,"119":0.04144098609685898,"120":-0.03760774806141853,"121":0.03870539367198944,"122":0.044846005737781525,"123":-0.05577380210161209,"124":0.033588722348213196,"125":-0.05603962764143944,"126":-0.014210947789251804,"127":-0.0018652868457138538,"128":-0.04413118585944176,"129":-0.030642252415418625,"130":-0.048265017569065094,"131":-0.049272190779447556,"132":-0.05601424723863602,"133":0.05717523768544197,"134":-0.06614819169044495,"135":-0.041799016296863556,"136":-0.03886054456233978,"137":0.029058163985610008,"138":-0.03413083404302597,"139":0.010558289475739002,"140":-0.05263189226388931,"141":-0.032492756843566895,"142":-0.05633430555462837,"143":-0.015403447672724724,"144":-0.06694433093070984,"145":0.017361916601657867,"146":0.035393692553043365,"147":0.05220172554254532,"148":0.060678545385599136,"149":0.053403742611408234,"150":0.05809764936566353,"151":0.03482801094651222,"152":0.060100384056568146,"153":0.03797747567296028,"154":0.034587688744068146,"155":0.022276053205132484,"156":-0.04387872293591499,"157":0.021047543734312057,"158":-0.01525918859988451,"159":0.028161197900772095,"160":0.050626881420612335,"161":0.04704704508185387,"162":-0.03149769827723503,"163":-0.038039516657590866,"164":0.07610075175762177,"165":-0.03585219383239746,"166":0.03257470205426216,"167":0.007109696976840496,"168":0.005227531306445599,"169":-0.03717188164591789,"170":-0.013625646010041237,"171":-0.012595375068485737,"172":0.07652601599693298,"173":-0.0012398514663800597,"174":-0.02153489924967289,"175":-0.06421132385730743,"176":0.06265223771333694,"177":-0.04132172092795372,"178":0.02586590126156807,"179":0.052723322063684464,"180":0.05535167083144188,"181":0.02231299690902233,"182":0.050359781831502914,"183":-0.05713094770908356,"184":0.05982058495283127,"185":0.017748506739735603,"186":-0.03849482163786888,"187":0.02305099554359913,"188":0.03960845246911049,"189":-0.02870023250579834,"190":-0.028324533253908157,"191":-0.0036709471605718136,"192":0.018209131434559822,"193":0.04543211683630943,"194":0.06399358808994293,"195":0.06911766529083252,"196":-0.005468093324452639,"197":0.06410115212202072,"198":-0.03925521299242973,"199":0.02197491191327572,"200":-0.04131225869059563,"201":0.06917139887809753,"202":-0.07907099276781082,"203":-0.01571011357009411,"204":0.06831572949886322,"205":-0.04152406007051468,"206":0.012484058737754822,"207":0.05321679264307022,"208":0.04216080531477928,"209":0.061168279498815536,"210":0.01888852007687092,"211":-0.027642199769616127,"212":-0.07389272004365921,"213":-0.0018743487307801843,"214":-0.07380959391593933,"215":-0.03847947716712952,"216":0.06639695912599564,"217":-0.0010447605745866895,"218":0.07497981190681458,"219":0.06645028293132782,"220":0.07979806512594223,"221":-0.0252132099121809,"222":0.037174347788095474,"223":0.013354898430407047,"224":0.06867675483226776,"225":0.014582667499780655,"226":0.03655765578150749,"227":0.07099930197000504,"228":-0.028436945751309395,"229":0.017707308754324913,"230":-0.06852292269468307,"231":-0.06583554297685623,"232":0.060929980129003525,"233":0.07820918411016464,"234":0.07919849455356598,"235":0.05934494361281395,"236":0.07749664038419724,"237":-0.07048620283603668,"238":0.0383378304541111,"239":0.058037810027599335,"240":0.0008682506741024554,"241":0.027576275169849396,"242":0.07697522640228271,"243":-0.05972461402416229,"244":-0.021730031818151474,"245":0.039159465581178665,"246":0.03021218627691269,"247":0.06410372257232666,"248":-0.007338547147810459,"249":-0.020622428506612778,"250":-0.0016105571994557977,"251":-0.03371170535683632,"252":-0.004144119098782539,"253":0.06039044260978699,"254":0.017282873392105103,"255":-0.03744450584053993,"256":0.01622632145881653,"257":0.02667885832488537,"258":-0.041843727231025696,"259":0.05137564241886139,"260":0.06493443995714188,"261":-0.05785320699214935,"262":-0.001625706092454493,"263":-0.012086456641554832,"264":0.044234488159418106,"265":-0.0014996689278632402,"266":0.02975805290043354,"267":-0.0018627106910571456,"268":-0.07343345880508423,"269":0.04974212124943733,"270":-0.06946730613708496,"271":-0.07134852558374405,"272":0.0045411004684865475,"273":-0.06256793439388275,"274":-0.039863355457782745,"275":0.053966958075761795,"276":0.056278128176927567,"277":0.017668019980192184,"278":0.07909330725669861,"279":-0.07794831693172455,"280":-0.06978786736726761,"281":0.050487179309129715,"282":-0.04888409376144409,"283":-0.01525384746491909,"284":-0.02625449001789093,"285":0.06562051922082901,"286":-0.01748655177652836,"287":0.022661317139863968,"288":0.003037605667486787,"289":-0.03899392485618591,"290":-0.06981682777404785,"291":0.050568126142024994,"292":-0.042489346116781235,"293":-0.06510787457227707,"294":-0.06595173478126526,"295":0.04834858700633049,"296":-0.03665350750088692,"297":-0.04478769749403,"298":0.05420266091823578,"299":0.046767883002758026,"300":-0.04691958799958229,"301":0.012702163308858871,"302":-0.07491528987884521,"303":0.021693570539355278,"304":0.004682461265474558,"305":-0.003836053889244795,"306":-0.07053133100271225,"307":0.00721649220213294,"308":-0.02626812271773815,"309":-0.03691571205854416,"310":0.04730331525206566,"311":-0.07308857887983322,"312":0.007565990090370178,"313":0.01857585646212101,"314":0.033772993832826614,"315":0.0015110137173905969,"316":0.053858354687690735,"317":0.03227844089269638,"318":0.06337182968854904,"319":0.019505435600876808,"320":-0.05041981488466263,"321":-0.0722765251994133,"322":0.03895673528313637,"323":-0.05153695121407509,"324":0.04673846811056137,"325":-0.026470663025975227,"326":0.06800194829702377,"327":0.029916726052761078,"328":0.04113740846514702,"329":0.012649907730519772,"330":0.01036034058779478,"331":-0.04014330357313156,"332":-0.04123404622077942,"333":-0.020780250430107117,"334":0.07684322446584702,"335":-0.033457137644290924,"336":-0.05923660099506378,"337":-0.011468479409813881,"338":0.011521372012794018,"339":0.023135080933570862,"340":-0.031805869191884995,"341":0.07059240341186523,"342":0.07118680328130722,"343":0.05704168975353241,"344":0.011973817832767963,"345":0.03479839488863945,"346":0.07578614354133606,"347":-0.0665675476193428,"348":0.001423137728124857,"349":0.06379973143339157,"350":-0.006022203713655472,"351":0.007090129889547825,"352":-0.04034336656332016,"353":0.05389464274048805,"354":0.01585557870566845,"355":-0.06217946484684944,"356":-0.005990544334053993,"357":-0.027902567759156227,"358":0.055261362344026566,"359":-0.014711916446685791,"360":-0.042901962995529175,"361":0.03929460421204567,"362":-0.05084744840860367,"363":-0.055361662060022354,"364":-0.014323721639811993,"365":0.014656053856015205,"366":0.060138922184705734,"367":0.06366341561079025,"368":-0.014656403101980686,"369":-0.047638460993766785,"370":0.025739772245287895,"371":-0.0011396987829357386,"372":-0.06635138392448425,"373":0.07340724021196365,"374":-0.011455663479864597,"375":-0.03448629379272461,"376":-0.04487226903438568,"377":0.0520157627761364,"378":0.018489036709070206,"379":0.05421312153339386,"380":-0.0688137337565422,"381":-0.06187202036380768,"382":-0.012679188512265682,"383":0.046669356524944305,"384":0.053751666098833084,"385":0.0017114169895648956,"386":-0.06599698215723038,"387":0.00074207060970366,"388":0.03478375822305679,"389":0.07350651919841766,"390":0.05532307177782059,"391":-0.037354376167058945,"392":0.006360938306897879,"393":0.053894851356744766,"394":-0.05259993299841881,"395":0.0027834069915115833,"396":0.04776221513748169,"397":0.03684411197900772,"398":0.02040502242743969,"399":-0.07888070493936539}},"inputHidden":{"rows":20,"columns":20,"weights":{"0":-0.011936837807297707,"1":-0.02472677081823349,"2":-0.019159041345119476,"3":0.061816442757844925,"4":-0.010720142163336277,"5":0.07392338663339615,"6":-0.007520449813455343,"7":-0.03955455124378204,"8":0.056803055107593536,"9":0.024166852235794067,"10":-0.02442719042301178,"11":-0.009950490668416023,"12":0.03361721709370613,"13":0.004138798452913761,"14":0.055631160736083984,"15":-0.06624355167150497,"16":0.0358709990978241,"17":-0.0016750883078202605,"18":0.0650850459933281,"19":0.054833173751831055,"20":0.019425107166171074,"21":0.04531265050172806,"22":-0.05207223817706108,"23":0.04512450098991394,"24":0.028934171423316002,"25":0.019993217661976814,"26":0.06742723286151886,"27":0.05899115651845932,"28":-0.0352511927485466,"29":-0.04899057745933533,"30":0.04800056293606758,"31":0.07113682478666306,"32":-0.06768590956926346,"33":-0.0318334586918354,"34":0.03321867436170578,"35":-0.05481734871864319,"36":0.03325698524713516,"37":0.05222504213452339,"38":0.0571301132440567,"39":-0.002095651114359498,"40":0.07332848757505417,"41":-0.049567922949790955,"42":0.04733183607459068,"43":0.05729967728257179,"44":-0.01396933849900961,"45":-0.03681042417883873,"46":-0.05869201198220253,"47":-0.060349613428115845,"48":-0.07790648937225342,"49":-0.029793191701173782,"50":-0.010432889685034752,"51":0.0196174718439579,"52":0.04488466680049896,"53":-0.0019805319607257843,"54":0.0505206473171711,"55":-0.07246437668800354,"56":-0.0463222898542881,"57":0.06227098032832146,"58":-0.03522173687815666,"59":-0.04256078600883484,"60":0.05178642272949219,"61":-0.02610229142010212,"62":0.03823245316743851,"63":0.042726680636405945,"64":-0.05016744136810303,"65":-0.05244268849492073,"66":0.022216927260160446,"67":-0.057204365730285645,"68":0.000054359541536541656,"69":0.03816167265176773,"70":0.055718667805194855,"71":-0.0755465030670166,"72":-0.0013051471905782819,"73":-0.045551199465990067,"74":-0.034566089510917664,"75":0.018093695864081383,"76":0.013099217787384987,"77":0.025139516219496727,"78":0.020487722009420395,"79":-0.04916856065392494,"80":-0.011190240271389484,"81":-0.06383340805768967,"82":0.006862943526357412,"83":-0.05522264167666435,"84":-0.06560724973678589,"85":-0.020648598670959473,"86":-0.07125994563102722,"87":0.010465242899954319,"88":0.007559491321444511,"89":0.02218092791736126,"90":-0.05805458128452301,"91":0.013309958390891552,"92":-0.045148853212594986,"93":0.06953125447034836,"94":0.004078422673046589,"95":0.045519862323999405,"96":0.03678741678595543,"97":0.008275759406387806,"98":0.05889755114912987,"99":0.02357676811516285,"100":0.0146888867020607,"101":0.02339846082031727,"102":-0.05815683677792549,"103":-0.07726485282182693,"104":0.05207914486527443,"105":0.017049012705683708,"106":0.005696443375200033,"107":-0.06902019679546356,"108":0.07101575285196304,"109":0.031143195927143097,"110":0.009587417356669903,"111":0.07212051004171371,"112":0.07839035987854004,"113":-0.01241118274629116,"114":0.005226516630500555,"115":-0.03672655671834946,"116":0.027312718331813812,"117":0.020881786942481995,"118":-0.05315481498837471,"119":-0.0784558430314064,"120":-0.05305252596735954,"121":0.023678617551922798,"122":-0.012526057660579681,"123":0.03738202527165413,"124":-0.04897461086511612,"125":0.04190525412559509,"126":0.020876426249742508,"127":-0.059255681931972504,"128":-0.07537280023097992,"129":0.04316925257444382,"130":-0.00602474482730031,"131":0.04070569947361946,"132":0.02948099374771118,"133":0.021321415901184082,"134":0.04855269193649292,"135":0.051149170845746994,"136":-0.07707132399082184,"137":-0.005934053100645542,"138":0.04597703367471695,"139":-0.07198461890220642,"140":0.03857041522860527,"141":-0.0583072192966938,"142":-0.040854208171367645,"143":-0.015404583886265755,"144":-0.06830418109893799,"145":0.018082186579704285,"146":0.002496872330084443,"147":0.05012943595647812,"148":-0.07505857944488525,"149":-0.05033208802342415,"150":-0.06905143707990646,"151":-0.06020202487707138,"152":0.008512984029948711,"153":-0.03378446400165558,"154":-0.048941418528556824,"155":0.05463706701993942,"156":0.07635357230901718,"157":0.018919819965958595,"158":-0.06154569238424301,"159":-0.07961598038673401,"160":-0.02804146707057953,"161":0.02313244342803955,"162":0.016013048589229584,"163":-0.07060033828020096,"164":-0.004290294833481312,"165":0.04408450424671173,"166":0.013518796302378178,"167":-0.025602903217077255,"168":-0.06152528524398804,"169":-0.022938605397939682,"170":0.044230468571186066,"171":-0.07907279580831528,"172":0.006369457580149174,"173":-0.054752517491579056,"174":0.06817111372947693,"175":0.023183824494481087,"176":-0.005127377342432737,"177":0.012164673767983913,"178":-0.037860702723264694,"179":-0.0546964555978775,"180":0.06753741949796677,"181":0.01760188676416874,"182":0.04056228697299957,"183":-0.04398556798696518,"184":-0.07917462289333344,"185":0.035160161554813385,"186":-0.06926478445529938,"187":0.03205396234989166,"188":0.03805284574627876,"189":-0.039919640868902206,"190":-0.07560916244983673,"191":0.023465219885110855,"192":0.05578801780939102,"193":0.06334367394447327,"194":0.02719535119831562,"195":-0.014034254476428032,"196":0.0017068337183445692,"197":0.021050462499260902,"198":0.022423068061470985,"199":0.03024161420762539,"200":0.07681472599506378,"201":-0.030116748064756393,"202":-0.011552426964044571,"203":-0.03957599774003029,"204":-0.07245011627674103,"205":0.04058658704161644,"206":-0.061451803892850876,"207":-0.07079073041677475,"208":0.027342353016138077,"209":-0.026621386408805847,"210":0.041148968040943146,"211":-0.023612936958670616,"212":0.05286403372883797,"213":-0.06617461889982224,"214":0.06535810232162476,"215":-0.03804198279976845,"216":-0.048374999314546585,"217":0.030192770063877106,"218":-0.06752587109804153,"219":0.037018828094005585,"220":-0.04654627665877342,"221":-0.035227321088314056,"222":-0.060645151883363724,"223":-0.06353669613599777,"224":0.06532609462738037,"225":-0.02484237588942051,"226":-0.020611366257071495,"227":-0.022425604984164238,"228":0.03009064309298992,"229":0.01757887378334999,"230":-0.07105647027492523,"231":-0.04792075604200363,"232":0.056216444820165634,"233":0.039487574249506,"234":0.01890786923468113,"235":0.05682206153869629,"236":0.053557444363832474,"237":-0.03294318541884422,"238":0.023209847509860992,"239":0.047606248408555984,"240":-0.06649797409772873,"241":0.006896471604704857,"242":-0.03668069466948509,"243":-0.056682515889406204,"244":0.036822088062763214,"245":-0.07071204483509064,"246":0.06926839798688889,"247":-0.010207398794591427,"248":-0.029139097779989243,"249":-0.04586804658174515,"250":-0.052350081503391266,"251":0.0023768716491758823,"252":-0.040582481771707535,"253":0.07325701415538788,"254":0.06438539177179337,"255":0.06895427405834198,"256":0.03421280160546303,"257":-0.06774619221687317,"258":-0.0011575534008443356,"259":-0.06401095539331436,"260":0.06421114504337311,"261":0.060820359736680984,"262":0.05717090517282486,"263":-0.01741400919854641,"264":-0.029314761981368065,"265":-0.005636683199554682,"266":-0.01523278746753931,"267":-0.07297737151384354,"268":0.05735218524932861,"269":-0.05704423040151596,"270":-0.07879772037267685,"271":0.07579183578491211,"272":0.01242037583142519,"273":0.061866942793130875,"274":-0.018022630363702774,"275":-0.0514349602162838,"276":0.03273426741361618,"277":0.0644819438457489,"278":0.06316767632961273,"279":-0.008317903615534306,"280":-0.04258822277188301,"281":0.023896096274256706,"282":-0.013687667436897755,"283":-0.0720595046877861,"284":-0.004419881850481033,"285":-0.06110162287950516,"286":0.007743451278656721,"287":0.04926949739456177,"288":-0.002897374564781785,"289":-0.01914893463253975,"290":0.0034780811984091997,"291":0.0050707547925412655,"292":0.029827028512954712,"293":-0.07334964722394943,"294":-0.07841658592224121,"295":0.012231930159032345,"296":0.03278244659304619,"297":0.049915414303541183,"298":0.06107156351208687,"299":0.07037036865949631,"300":0.015859974548220634,"301":-0.07429072260856628,"302":-0.04787497967481613,"303":0.032481297850608826,"304":-0.024582529440522194,"305":0.02333950065076351,"306":0.04452590271830559,"307":0.06003221124410629,"308":0.02787928469479084,"309":0.04082605242729187,"310":-0.05258534848690033,"311":0.035725485533475876,"312":0.006270522717386484,"313":0.07053188234567642,"314":0.06359021365642548,"315":0.055520568042993546,"316":0.054372746497392654,"317":-0.06429997086524963,"318":-0.0705658569931984,"319":-0.06779409945011139,"320":0.009877691976726055,"321":-0.030961908400058746,"322":-0.019244540482759476,"323":-0.06296907365322113,"324":-0.0006774190114811063,"325":-0.026978760957717896,"326":0.03598413243889809,"327":-0.04567782208323479,"328":-0.07557492703199387,"329":0.012721830047667027,"330":-0.027864791452884674,"331":0.05710085108876228,"332":0.008172263391315937,"333":-0.028463242575526237,"334":0.07134851068258286,"335":-0.07359015196561813,"336":0.05024205148220062,"337":0.062263716012239456,"338":-0.04998273774981499,"339":0.044185299426317215,"340":0.026242615655064583,"341":-0.013049122877418995,"342":-0.051378488540649414,"343":-0.06563083827495575,"344":-0.038691628724336624,"345":-0.002857547951862216,"346":-0.0451761819422245,"347":0.05707266554236412,"348":-0.07388268411159515,"349":0.0055211130529642105,"350":0.0004350090166553855,"351":0.07623901218175888,"352":-0.02589723840355873,"353":-0.07200688123703003,"354":-0.07868751883506775,"355":-0.021534603089094162,"356":0.03496988117694855,"357":-0.03650907054543495,"358":-0.0033113635145127773,"359":-0.009006818756461143,"360":-0.030666517093777657,"361":0.05495132505893707,"362":0.030498869717121124,"363":0.030740225687623024,"364":-0.035136520862579346,"365":-0.0022057024762034416,"366":0.023741425946354866,"367":-0.004922031424939632,"368":0.008289803750813007,"369":-0.04524942487478256,"370":0.05795833095908165,"371":0.04793363809585571,"372":-0.02924037165939808,"373":0.04681858792901039,"374":0.06563485413789749,"375":-0.03242882341146469,"376":-0.06822875887155533,"377":-0.07871901988983154,"378":-0.06856090575456619,"379":0.061911698430776596,"380":0.06062112748622894,"381":-0.010407746769487858,"382":-0.07445443421602249,"383":0.04712865501642227,"384":0.05445791408419609,"385":-0.014335419982671738,"386":-0.05405692383646965,"387":-0.04723810404539108,"388":0.021675482392311096,"389":-0.05711102485656738,"390":-0.0012572279665619135,"391":-0.02856418490409851,"392":-0.014674118719995022,"393":0.00677340617403388,"394":0.043813370168209076,"395":-0.032564565539360046,"396":0.07816588133573532,"397":-0.013953832909464836,"398":-0.06367768347263336,"399":0.06465592980384827}},"inputBias":{"rows":20,"columns":1,"weights":{"0":0,"1":0,"2":0,"3":0,"4":0,"5":0,"6":0,"7":0,"8":0,"9":0,"10":0,"11":0,"12":0,"13":0,"14":0,"15":0,"16":0,"17":0,"18":0,"19":0}},"forgetMatrix":{"rows":20,"columns":20,"weights":{"0":-0.029607249423861504,"1":0.04591500014066696,"2":-0.05976082384586334,"3":-0.0025570709258317947,"4":-0.04627082496881485,"5":-0.02011283114552498,"6":-0.07821203768253326,"7":0.07245774567127228,"8":0.07531639188528061,"9":-0.04551384598016739,"10":-0.014726177789270878,"11":0.0445387177169323,"12":0.07767627388238907,"13":-0.04600513353943825,"14":0.02584993466734886,"15":0.01925719529390335,"16":0.03861454501748085,"17":-0.02418334409594536,"18":0.053194306790828705,"19":-0.05701032653450966,"20":-0.06138981878757477,"21":0.010772828944027424,"22":-0.013429529033601284,"23":-0.03749631345272064,"24":-0.04665856808423996,"25":-0.05112508311867714,"26":-0.010927706956863403,"27":-0.07644496113061905,"28":-0.01773938722908497,"29":0.04037253186106682,"30":-0.04520203173160553,"31":0.054504815489053726,"32":0.003877697978168726,"33":-0.04587790369987488,"34":0.05232246220111847,"35":0.05652927979826927,"36":-0.030599074438214302,"37":0.036764148622751236,"38":-0.03823937103152275,"39":0.01219051331281662,"40":0.016346808522939682,"41":-0.03710233047604561,"42":-0.04380705580115318,"43":-0.0072080702520906925,"44":-0.01888776384294033,"45":0.010820381343364716,"46":-0.028435571119189262,"47":0.03627168759703636,"48":-0.04596436023712158,"49":0.0019140035146847367,"50":-0.0002704296784941107,"51":-0.07094550877809525,"52":0.07732810080051422,"53":-0.06231620907783508,"54":-0.020130209624767303,"55":0.045365285128355026,"56":-0.013320846483111382,"57":0.0052163307555019855,"58":0.06380854547023773,"59":0.042949941009283066,"60":0.07279409468173981,"61":-0.02751571498811245,"62":0.06259308755397797,"63":-0.012431293725967407,"64":0.04449369013309479,"65":-0.04507989436388016,"66":-0.05719425156712532,"67":-0.04373839497566223,"68":-0.02754388377070427,"69":-0.03275371342897415,"70":0.010469596832990646,"71":-0.056889571249485016,"72":0.051026321947574615,"73":0.06210716813802719,"74":0.02781149558722973,"75":-0.033196400851011276,"76":0.03131117671728134,"77":0.01003481075167656,"78":-0.031632810831069946,"79":-0.01011491846293211,"80":0.012348994612693787,"81":0.03844660520553589,"82":-0.019058281555771828,"83":0.013241962529718876,"84":-0.02848212979733944,"85":0.005416577216237783,"86":0.02167031168937683,"87":-0.030833926051855087,"88":-0.05916135013103485,"89":-0.05782772973179817,"90":-0.03633282706141472,"91":0.044845469295978546,"92":-0.04934665188193321,"93":-0.008325513452291489,"94":0.07130754739046097,"95":0.038712840527296066,"96":-0.02039509080350399,"97":-0.038806330412626266,"98":-0.010674773715436459,"99":-0.009682955220341682,"100":0.0010860345792025328,"101":-0.0198577381670475,"102":-0.04469091817736626,"103":0.030402664095163345,"104":0.04001881182193756,"105":0.07707676291465759,"106":0.01743527688086033,"107":-0.02591852657496929,"108":0.051259759813547134,"109":0.027189096435904503,"110":0.018363719806075096,"111":-0.016290580853819847,"112":-0.054771434515714645,"113":-0.04073764383792877,"114":-0.07203742861747742,"115":-0.0311222355812788,"116":-0.05365544185042381,"117":0.07812964916229248,"118":0.0074838316068053246,"119":0.039590295404195786,"120":-0.043230459094047546,"121":-0.006090469658374786,"122":-0.025520937517285347,"123":-0.03266668692231178,"124":0.02300368621945381,"125":-0.07983499020338058,"126":0.04825104773044586,"127":-0.06924985349178314,"128":0.06307350844144821,"129":-0.04891502484679222,"130":0.029412148520350456,"131":0.04440069571137428,"132":0.07516463845968246,"133":-0.023987099528312683,"134":-0.04637611657381058,"135":-0.039982158690690994,"136":-0.013388107530772686,"137":-0.04565750062465668,"138":-0.07566171139478683,"139":0.04209749028086662,"140":-0.030540134757757187,"141":0.0318157821893692,"142":-0.024277858436107635,"143":-0.06897462159395218,"144":-0.022768478840589523,"145":-0.07294613122940063,"146":0.03804359585046768,"147":-0.039760515093803406,"148":-0.04164224863052368,"149":-0.03411341831088066,"150":-0.01180189847946167,"151":0.03179911524057388,"152":0.05127320438623428,"153":0.014184581115841866,"154":-0.05749514698982239,"155":-0.06964785605669022,"156":-0.05237683653831482,"157":0.05101094767451286,"158":0.027499714866280556,"159":0.009445537813007832,"160":-0.0670793354511261,"161":-0.048731718212366104,"162":-0.055782049894332886,"163":-0.013759899884462357,"164":-0.01050618663430214,"165":-0.02484593540430069,"166":-0.07447122037410736,"167":-0.0799698457121849,"168":-0.06178976222872734,"169":0.004192764405161142,"170":0.05121472105383873,"171":-0.056195586919784546,"172":-0.03333228826522827,"173":-0.006373280193656683,"174":0.05809732899069786,"175":0.04975144937634468,"176":-0.037052221596241,"177":-0.009865855798125267,"178":0.06652714312076569,"179":0.07532944530248642,"180":-0.02330811321735382,"181":0.03177439421415329,"182":-0.004628469701856375,"183":0.04854061082005501,"184":0.03137803450226784,"185":0.03856819123029709,"186":0.0607529953122139,"187":0.004663780331611633,"188":-0.06962121278047562,"189":-0.04152287170290947,"190":-0.051893673837184906,"191":-0.028789494186639786,"192":-0.03530321270227432,"193":-0.0706087127327919,"194":0.05789361894130707,"195":0.020303592085838318,"196":-0.03574357181787491,"197":0.02281763032078743,"198":-0.023491593077778816,"199":-0.0008503490244038403,"200":-0.059503402560949326,"201":0.04370850697159767,"202":-0.0619262233376503,"203":0.027542216703295708,"204":0.0011158953420817852,"205":0.04848400130867958,"206":-0.05490532144904137,"207":-0.0767040029168129,"208":-0.06338100880384445,"209":-0.040633149445056915,"210":0.003061220282688737,"211":0.027960216626524925,"212":-0.008000320754945278,"213":-0.07218966633081436,"214":0.026634331792593002,"215":0.07698509842157364,"216":-0.06139649823307991,"217":0.0022642770782113075,"218":0.0034216661006212234,"219":0.07849197089672089,"220":-0.005910263396799564,"221":0.0764421746134758,"222":0.06812851876020432,"223":0.017186801880598068,"224":-0.0538763701915741,"225":-0.06591524928808212,"226":0.03507959842681885,"227":-0.041906386613845825,"228":0.07610207796096802,"229":-0.002094016643241048,"230":-0.01981639675796032,"231":-0.05963050201535225,"232":-0.07780418545007706,"233":0.061430662870407104,"234":-0.007676188368350267,"235":-0.015526403672993183,"236":0.055944327265024185,"237":0.03393141180276871,"238":-0.06048417463898659,"239":0.04827765375375748,"240":-0.06809569895267487,"241":-0.03671256825327873,"242":-0.07413716614246368,"243":0.0015879485290497541,"244":0.036147743463516235,"245":0.007908185012638569,"246":-0.04166382923722267,"247":-0.07081610709428787,"248":0.06942123174667358,"249":-0.06693796068429947,"250":0.0451817587018013,"251":-0.05915287882089615,"252":-0.032861046493053436,"253":-0.06448663771152496,"254":0.0005052774795331061,"255":0.02098395861685276,"256":0.050299450755119324,"257":-0.003327318001538515,"258":0.010562894865870476,"259":0.008861072361469269,"260":0.06274019926786423,"261":0.04189271107316017,"262":-0.03131222724914551,"263":-0.06215357780456543,"264":-0.06846518814563751,"265":0.07718543708324432,"266":-0.04135947674512863,"267":0.015337578020989895,"268":-0.003937034867703915,"269":-0.012135546654462814,"270":-0.05250357463955879,"271":-0.03771710395812988,"272":-0.05317071080207825,"273":-0.05323476344347,"274":0.040006328374147415,"275":-0.04748966544866562,"276":-0.017739946022629738,"277":-0.06098473072052002,"278":-0.0439547635614872,"279":-0.06193603575229645,"280":0.03220919147133827,"281":0.04100875183939934,"282":-0.05591226741671562,"283":0.030172809958457947,"284":-0.04233042523264885,"285":0.05907480791211128,"286":-0.027617402374744415,"287":-0.07443653792142868,"288":0.0641135647892952,"289":0.04630899429321289,"290":0.026892276480793953,"291":-0.06343719363212585,"292":-0.03312366455793381,"293":-0.017103876918554306,"294":-0.0364442802965641,"295":0.03789079934358597,"296":0.029885850846767426,"297":-0.04325873777270317,"298":0.030242890119552612,"299":-0.0007773764664307237,"300":-0.019518576562404633,"301":0.016671495512127876,"302":0.02988177165389061,"303":0.009916274808347225,"304":-0.06734569370746613,"305":0.03284194692969322,"306":-0.06100180745124817,"307":0.04005461931228638,"308":-0.0037420333828777075,"309":-0.025814373046159744,"310":0.027648545801639557,"311":0.0031792267691344023,"312":0.030291464179754257,"313":-0.0014427128480747342,"314":-0.05422566086053848,"315":0.04559154435992241,"316":-0.03731262683868408,"317":0.058348432183265686,"318":0.02496258169412613,"319":-0.036929044872522354,"320":0.04101957008242607,"321":-0.07698311656713486,"322":0.03373602777719498,"323":-0.058107197284698486,"324":0.06456873565912247,"325":0.06811097264289856,"326":0.01466097217053175,"327":-0.05251757428050041,"328":-0.04598764702677727,"329":-0.018763605505228043,"330":-0.03412008285522461,"331":-0.04815935343503952,"332":-0.05950775370001793,"333":-0.015122365206480026,"334":0.05301610380411148,"335":-0.017702579498291016,"336":-0.04860930144786835,"337":-0.060647912323474884,"338":-0.04112207889556885,"339":-0.06932362169027328,"340":-0.07900499552488327,"341":-0.07702925056219101,"342":-0.06694101542234421,"343":0.008584223687648773,"344":-0.01812436804175377,"345":0.030657023191452026,"346":0.046930838376283646,"347":-0.01556246168911457,"348":0.018004093319177628,"349":-0.036640193313360214,"350":0.0667739138007164,"351":0.07875920832157135,"352":0.07202032208442688,"353":-0.030055716633796692,"354":0.057570621371269226,"355":-0.062110453844070435,"356":0.04612894728779793,"357":0.002586586866527796,"358":-0.04896359145641327,"359":-0.0699705258011818,"360":0.06589306145906448,"361":-0.03805658593773842,"362":-0.019949456676840782,"363":-0.049317456781864166,"364":0.06129598617553711,"365":-0.014473557472229004,"366":0.048352960497140884,"367":-0.06398488581180573,"368":-0.0038405766244977713,"369":0.060737695544958115,"370":0.00736347446218133,"371":0.07042697817087173,"372":-0.0590779073536396,"373":0.05333814024925232,"374":0.05358641967177391,"375":-0.046349551528692245,"376":0.03695552051067352,"377":0.009211678989231586,"378":0.04481508210301399,"379":-0.05179685726761818,"380":-0.07412458956241608,"381":0.06497134268283844,"382":0.057407036423683167,"383":0.05125204846262932,"384":-0.020424090325832367,"385":-0.011681940406560898,"386":-0.07531184703111649,"387":-0.07500370591878891,"388":0.038748420774936676,"389":-0.06846565008163452,"390":-0.00900410395115614,"391":0.06880933046340942,"392":0.07210073620080948,"393":0.038491927087306976,"394":0.05069227144122124,"395":-0.011741668917238712,"396":0.07640017569065094,"397":-0.030579103156924248,"398":0.037954337894916534,"399":-0.006600037217140198}},"forgetHidden":{"rows":20,"columns":20,"weights":{"0":-0.046875160187482834,"1":-0.06712385267019272,"2":-0.023668833076953888,"3":0.04016352817416191,"4":-0.042025573551654816,"5":0.06329952925443649,"6":-0.01847582310438156,"7":-0.02363273873925209,"8":0.03796884045004845,"9":0.049589548259973526,"10":0.05818440020084381,"11":-0.004880454856902361,"12":0.0563104972243309,"13":-0.06766530126333237,"14":0.057575710117816925,"15":-0.02942013554275036,"16":0.026571014896035194,"17":0.07442259788513184,"18":-0.045171108096838,"19":0.027939271181821823,"20":-0.07574223726987839,"21":-0.07663571834564209,"22":0.008473311550915241,"23":0.019585244357585907,"24":-0.0131345484405756,"25":0.04827560484409332,"26":-0.006966532673686743,"27":-0.049635402858257294,"28":-0.07367567718029022,"29":0.03026202879846096,"30":-0.02093992568552494,"31":0.06599894165992737,"32":-0.017581237480044365,"33":-0.05437760055065155,"34":0.074501171708107,"35":0.014165378175675869,"36":-0.05995337665081024,"37":-0.05317835509777069,"38":0.0317319855093956,"39":0.058428049087524414,"40":-0.07046814262866974,"41":0.025353841483592987,"42":0.07629469782114029,"43":0.024966251105070114,"44":-0.05841759964823723,"45":-0.06391733884811401,"46":0.06107785925269127,"47":-0.016556279733777046,"48":-0.03773908317089081,"49":-0.03210999071598053,"50":0.009556076489388943,"51":0.07110682129859924,"52":0.06911031156778336,"53":-0.05156756937503815,"54":-0.03844648227095604,"55":0.058842532336711884,"56":-0.008412910625338554,"57":-0.044746033847332,"58":0.028472058475017548,"59":-0.06634276360273361,"60":-0.05246612802147865,"61":-0.019778283312916756,"62":0.03277968242764473,"63":-0.03814661130309105,"64":0.014644641429185867,"65":-0.042011283338069916,"66":-0.03175600245594978,"67":-0.041517920792102814,"68":0.018801666796207428,"69":0.06950987875461578,"70":-0.04489907994866371,"71":0.04654902592301369,"72":0.05018366500735283,"73":0.04723268002271652,"74":0.032343968749046326,"75":0.015919707715511322,"76":-0.05789341405034065,"77":-0.008197005838155746,"78":0.03224633261561394,"79":-0.027997201308608055,"80":0.0019529607379809022,"81":0.02133605070412159,"82":-0.06334148347377777,"83":-0.009567966684699059,"84":-0.03476888686418533,"85":0.009847473353147507,"86":-0.03395818546414375,"87":-0.05128996819257736,"88":0.04031917825341225,"89":0.07766491919755936,"90":0.02805773913860321,"91":0.06949188560247421,"92":0.0764075517654419,"93":-0.06001697853207588,"94":0.043812211602926254,"95":0.005107386037707329,"96":-0.06151297315955162,"97":-0.06745165586471558,"98":-0.07788442820310593,"99":0.010405451990664005,"100":-0.05101987347006798,"101":0.043875161558389664,"102":0.0029098528902977705,"103":0.020257990807294846,"104":0.07626708596944809,"105":-0.03802228718996048,"106":0.053336773067712784,"107":0.03132650628685951,"108":-0.03836241737008095,"109":-0.06972615420818329,"110":0.034244827926158905,"111":-0.03614969179034233,"112":0.052899766713380814,"113":-0.05172894150018692,"114":-0.058645959943532944,"115":0.055497508496046066,"116":0.013131084851920605,"117":0.0637793093919754,"118":-0.061497148126363754,"119":-0.014172140508890152,"120":-0.07689163833856583,"121":-0.019105829298496246,"122":-0.06873580068349838,"123":-0.005248074885457754,"124":0.020417742431163788,"125":0.05318782851099968,"126":-0.053462203592061996,"127":-0.04099731892347336,"128":-0.062164079397916794,"129":-0.07900296151638031,"130":0.005961327813565731,"131":-0.07822643965482712,"132":-0.0006970399990677834,"133":0.0513744093477726,"134":-0.05247980356216431,"135":0.04410698637366295,"136":-0.0645865723490715,"137":0.07186736166477203,"138":0.04811498522758484,"139":-0.059549976140260696,"140":0.07666387408971786,"141":0.0753089115023613,"142":0.0284788366407156,"143":-0.048213377594947815,"144":0.020551413297653198,"145":0.05110201984643936,"146":0.07262731343507767,"147":-0.07009227573871613,"148":0.07640892267227173,"149":0.07910557091236115,"150":-0.03372309356927872,"151":0.022311227396130562,"152":-0.03798593208193779,"153":-0.036687470972537994,"154":0.04742765054106712,"155":-0.061523810029029846,"156":0.0027388324961066246,"157":-0.052772726863622665,"158":0.03276359662413597,"159":0.023300211876630783,"160":0.04133817180991173,"161":0.004992724861949682,"162":-0.07726002484560013,"163":-0.07111722230911255,"164":-0.06758172810077667,"165":0.015004875138401985,"166":0.07101277261972427,"167":0.06816618889570236,"168":0.07064241170883179,"169":0.03986838087439537,"170":0.003571372712031007,"171":0.060796234756708145,"172":0.056525010615587234,"173":0.04789087921380997,"174":0.060266152024269104,"175":0.049533743411302567,"176":-0.058632731437683105,"177":-0.005629369989037514,"178":0.04944891482591629,"179":0.05302554741501808,"180":0.03597389534115791,"181":0.04759340360760689,"182":-0.002079249592497945,"183":0.07446332275867462,"184":0.040474943816661835,"185":0.02939273975789547,"186":-0.05704991891980171,"187":0.07167802006006241,"188":0.05488944798707962,"189":-0.03620077297091484,"190":-0.060420114547014236,"191":-0.04581167921423912,"192":0.022632187232375145,"193":-0.056722212582826614,"194":-0.019788114354014397,"195":-0.0510665699839592,"196":-0.026973314583301544,"197":-0.003749079303815961,"198":0.040928199887275696,"199":-0.009438765235245228,"200":-0.024696776643395424,"201":0.023951830342411995,"202":0.03826967999339104,"203":0.07016228884458542,"204":-0.023307856172323227,"205":-0.004943808540701866,"206":-0.07287472486495972,"207":-0.00038806747761555016,"208":-0.021949442103505135,"209":-0.06741882860660553,"210":0.05745108053088188,"211":-0.06785953789949417,"212":-0.025768054649233818,"213":-0.05902967229485512,"214":0.0046522472985088825,"215":0.05087685585021973,"216":-0.076959528028965,"217":0.043402526527643204,"218":0.058711934834718704,"219":-0.016082998365163803,"220":0.00004182730845059268,"221":-0.05590261518955231,"222":-0.051329392939805984,"223":0.07184230536222458,"224":0.030656835064291954,"225":0.05626470223069191,"226":0.0011898677330464125,"227":-0.02057214267551899,"228":-0.04895612969994545,"229":-0.04459404572844505,"230":-0.008159549906849861,"231":0.04425081983208656,"232":0.029463069513440132,"233":-0.03321124240756035,"234":-0.056012675166130066,"235":-0.0655364915728569,"236":0.07771207392215729,"237":0.03944090008735657,"238":0.04575088620185852,"239":-0.01942688785493374,"240":-0.07623838633298874,"241":0.051161106675863266,"242":0.07162534445524216,"243":0.07838337123394012,"244":0.03505924716591835,"245":0.011539050377905369,"246":0.04033603519201279,"247":0.03480705991387367,"248":-0.029072511941194534,"249":-0.0661318302154541,"250":-0.02785954438149929,"251":0.02274252660572529,"252":0.06435313820838928,"253":0.07058927416801453,"254":0.053635355085134506,"255":0.03841952234506607,"256":0.047464411705732346,"257":-0.058446381241083145,"258":-0.0766567513346672,"259":-0.07555849105119705,"260":-0.04545919597148895,"261":0.04762433096766472,"262":0.06015176326036453,"263":0.046386972069740295,"264":-0.04159842059016228,"265":-0.026267431676387787,"266":-0.06256778538227081,"267":0.0018169262912124395,"268":0.006425586994737387,"269":-0.025420736521482468,"270":-0.03883831948041916,"271":-0.004906674847006798,"272":-0.003603520570322871,"273":-0.014594122767448425,"274":-0.06623207032680511,"275":-0.06982997059822083,"276":0.006678057834506035,"277":0.01363441627472639,"278":0.02004093863070011,"279":-0.056328415870666504,"280":-0.0356074757874012,"281":0.018554314970970154,"282":0.050650455057621,"283":-0.07927913218736649,"284":-0.06376020610332489,"285":0.01980477385222912,"286":0.020437948405742645,"287":0.06742400676012039,"288":-0.06683917343616486,"289":-0.011587967164814472,"290":-0.013236998580396175,"291":0.004863558802753687,"292":-0.008269031532108784,"293":0.019871031865477562,"294":-0.013865475542843342,"295":0.026050221174955368,"296":0.045852672308683395,"297":0.07231694459915161,"298":-0.05346929654479027,"299":0.025577362626791,"300":0.033483587205410004,"301":0.05073835700750351,"302":-0.008515292778611183,"303":-0.07264051586389542,"304":-0.04630458354949951,"305":0.07270399481058121,"306":0.06052500009536743,"307":0.06967367231845856,"308":0.05051960423588753,"309":-0.0406387522816658,"310":-0.03662114590406418,"311":-0.005796802695840597,"312":0.05143130198121071,"313":-0.03867029398679733,"314":0.011278169229626656,"315":-0.02972482703626156,"316":-0.01363060250878334,"317":-0.07081664353609085,"318":-0.07844258099794388,"319":-0.06657984107732773,"320":0.066054567694664,"321":0.026038510724902153,"322":-0.007540135644376278,"323":0.054313238710165024,"324":-0.03604893013834953,"325":0.03198200464248657,"326":-0.014192849397659302,"327":-0.035916488617658615,"328":0.06145839765667915,"329":-0.01571771688759327,"330":0.015461884438991547,"331":0.006364351604133844,"332":0.0678444504737854,"333":-0.03495149686932564,"334":0.014905514195561409,"335":-0.06706413626670837,"336":0.060835085809230804,"337":0.03122979775071144,"338":0.009135451167821884,"339":0.006283997092396021,"340":0.056582510471343994,"341":-0.01927177608013153,"342":0.06950870901346207,"343":0.03860248252749443,"344":0.04713642597198486,"345":-0.0648956447839737,"346":-0.05619838461279869,"347":-0.026252884417772293,"348":-0.033784348517656326,"349":0.04055709391832352,"350":0.05571361631155014,"351":0.043412450700998306,"352":0.04044995456933975,"353":-0.03674646094441414,"354":0.046940140426158905,"355":-0.04711588844656944,"356":0.03211057186126709,"357":-0.0688934400677681,"358":0.033668152987957,"359":-0.055525559931993484,"360":0.01796569861471653,"361":-0.048996854573488235,"362":-0.04683317244052887,"363":0.013169476762413979,"364":0.07201161235570908,"365":0.04754255712032318,"366":-0.07222001254558563,"367":-0.022617608308792114,"368":0.07867477089166641,"369":-0.057905588299036026,"370":-0.01507942657917738,"371":-0.029926089569926262,"372":-0.027960563078522682,"373":0.03551183268427849,"374":-0.042129311710596085,"375":-0.02907107025384903,"376":0.01535731926560402,"377":0.03903128206729889,"378":-0.06057020276784897,"379":0.03213982284069061,"380":-0.004607226699590683,"381":-0.05651785433292389,"382":-0.04073087498545647,"383":-0.06730737537145615,"384":0.0040512955747544765,"385":0.07926193624734879,"386":0.07967675477266312,"387":-0.006059293169528246,"388":0.013032491318881512,"389":-0.0780785009264946,"390":-0.03235211968421936,"391":-0.014870941638946533,"392":-0.0627945140004158,"393":0.0786760225892067,"394":0.069882832467556,"395":-0.07841027528047562,"396":0.06521076709032059,"397":-0.05879581347107887,"398":0.039870381355285645,"399":0.04214479401707649}},"forgetBias":{"rows":20,"columns":1,"weights":{"0":0,"1":0,"2":0,"3":0,"4":0,"5":0,"6":0,"7":0,"8":0,"9":0,"10":0,"11":0,"12":0,"13":0,"14":0,"15":0,"16":0,"17":0,"18":0,"19":0}},"outputMatrix":{"rows":20,"columns":20,"weights":{"0":0.0059217545203864574,"1":0.04471477493643761,"2":-0.02974746748805046,"3":-0.037825435400009155,"4":0.0544990673661232,"5":-0.03821152448654175,"6":-0.04773741215467453,"7":-0.04299815371632576,"8":0.053703777492046356,"9":-0.005957072135061026,"10":0.04042718559503555,"11":-0.027521267533302307,"12":-0.0388842448592186,"13":0.07173051685094833,"14":-0.03270415589213371,"15":-0.057609133422374725,"16":0.07130461186170578,"17":-0.07483946532011032,"18":0.022371184080839157,"19":-0.001922381459735334,"20":0.04838750883936882,"21":-0.060700081288814545,"22":-0.073518767952919,"23":0.04139511659741402,"24":0.017551975324749947,"25":-0.014697615057229996,"26":-0.0061444067396223545,"27":0.03558245301246643,"28":0.002470516599714756,"29":0.05928672477602959,"30":0.0627242773771286,"31":0.045852333307266235,"32":-0.06819437444210052,"33":-0.0072446661069989204,"34":0.015937216579914093,"35":-0.06287655234336853,"36":-0.04757212474942207,"37":-0.033913224935531616,"38":-0.061468061059713364,"39":0.009836516343057156,"40":-0.059739042073488235,"41":-0.0692928209900856,"42":-0.019638720899820328,"43":0.061804190278053284,"44":-0.048869408667087555,"45":-0.04629911482334137,"46":0.027927424758672714,"47":0.06748972833156586,"48":-0.041317787021398544,"49":0.00009720441448735073,"50":0.05415690317749977,"51":0.054135750979185104,"52":-0.0067253210581839085,"53":-0.013385750353336334,"54":-0.05995320901274681,"55":-0.07500465959310532,"56":-0.020569389685988426,"57":-0.027361679822206497,"58":-0.026434963569045067,"59":0.05215078592300415,"60":0.07373333722352982,"61":0.06726744025945663,"62":-0.030694587156176567,"63":-0.03383355960249901,"64":-0.02990817278623581,"65":-0.03977140784263611,"66":-0.06946942210197449,"67":-0.03668234869837761,"68":-0.01612783782184124,"69":0.04911799356341362,"70":-0.05856512486934662,"71":0.005631698295474052,"72":0.06266085803508759,"73":-0.02278398536145687,"74":0.022796595469117165,"75":0.036722078919410706,"76":-0.0469217523932457,"77":-0.01925528608262539,"78":-0.050942763686180115,"79":-0.056690771132707596,"80":-0.0734783336520195,"81":0.04908684641122818,"82":-0.00860634446144104,"83":-0.03991713747382164,"84":-0.054836977273225784,"85":-0.0008280735346488655,"86":0.01807839795947075,"87":0.07250180840492249,"88":-0.01258220337331295,"89":0.002400227589532733,"90":0.039906010031700134,"91":-0.003925757482647896,"92":-0.0034499885514378548,"93":0.07265640050172806,"94":0.04931075870990753,"95":0.06795214116573334,"96":0.020499354228377342,"97":-0.053821612149477005,"98":-0.0033302176743745804,"99":0.07675039768218994,"100":-0.05294086039066315,"101":0.014842227101325989,"102":-0.03178037703037262,"103":-0.011148590594530106,"104":-0.025431064888834953,"105":-0.06496857851743698,"106":0.05648670345544815,"107":-0.06957054883241653,"108":-0.009923623874783516,"109":-0.05350574478507042,"110":-0.027104226872324944,"111":0.031096642836928368,"112":-0.012632571160793304,"113":0.025944827124476433,"114":0.07303941249847412,"115":-0.059943508356809616,"116":0.07355201244354248,"117":-0.05670757591724396,"118":0.012121360749006271,"119":0.010377995669841766,"120":0.07629892230033875,"121":-0.03721816837787628,"122":0.07218867540359497,"123":0.04906491935253143,"124":0.06561923027038574,"125":-0.009802382439374924,"126":-0.01821025274693966,"127":-0.03102835826575756,"128":0.02017497457563877,"129":-0.07076597958803177,"130":0.04957576096057892,"131":-0.03118344210088253,"132":0.03388374298810959,"133":-0.07463482022285461,"134":0.054249126464128494,"135":0.07557352632284164,"136":0.03477339819073677,"137":0.03655477613210678,"138":-0.05069813132286072,"139":-0.06314104050397873,"140":-0.027650820091366768,"141":-0.06474924832582474,"142":-0.05744025483727455,"143":-0.054042648524045944,"144":-0.07626111805438995,"145":-0.01838151179254055,"146":0.050728216767311096,"147":-0.024142688140273094,"148":0.07919493317604065,"149":0.007588674779981375,"150":0.04959666728973389,"151":0.05224419757723808,"152":-0.024056538939476013,"153":0.02355661615729332,"154":0.04926943778991699,"155":-0.01253686472773552,"156":0.0770011767745018,"157":-0.07572352141141891,"158":0.03466835990548134,"159":0.03165130689740181,"160":0.009913630783557892,"161":-0.06493327766656876,"162":-0.04659567400813103,"163":-0.02662583813071251,"164":0.06880832463502884,"165":0.04506007581949234,"166":-0.022312842309474945,"167":0.010709267109632492,"168":0.004399539902806282,"169":-0.010617570951581001,"170":-0.054302945733070374,"171":0.04316442459821701,"172":0.0471641980111599,"173":0.0688043013215065,"174":-0.011419645510613918,"175":-0.01809600554406643,"176":-0.028837798163294792,"177":0.0778706818819046,"178":-0.05836914852261543,"179":-0.07452311366796494,"180":-0.05993269383907318,"181":0.024948934093117714,"182":-0.036125119775533676,"183":0.05092746391892433,"184":-0.021826542913913727,"185":0.03267223387956619,"186":0.02596346288919449,"187":-0.06953374296426773,"188":0.04483260586857796,"189":0.010852606035768986,"190":-0.02524418756365776,"191":-0.04283102974295616,"192":-0.03276307135820389,"193":-0.06571903079748154,"194":-0.018156899139285088,"195":-0.02298315055668354,"196":0.032162584364414215,"197":0.06519587337970734,"198":0.03910437598824501,"199":0.04306217283010483,"200":-0.03943944349884987,"201":-0.013270452618598938,"202":0.014335662126541138,"203":-0.06554462760686874,"204":0.04794348031282425,"205":0.018873615190386772,"206":-0.038383569568395615,"207":-0.07899003475904465,"208":-0.009065070189535618,"209":-0.0710296779870987,"210":-0.019908998161554337,"211":0.07317357510328293,"212":0.05087968707084656,"213":0.06840110570192337,"214":0.07679002732038498,"215":0.06785966455936432,"216":-0.006921530235558748,"217":0.060441356152296066,"218":0.04833802953362465,"219":0.01334796380251646,"220":0.01867784932255745,"221":-0.03158888593316078,"222":0.021235676482319832,"223":0.060408126562833786,"224":0.04857449606060982,"225":-0.0425771065056324,"226":-0.03154722601175308,"227":-0.07975312322378159,"228":0.0045054093934595585,"229":0.023198220878839493,"230":0.05172814801335335,"231":0.008842304348945618,"232":-0.028951939195394516,"233":-0.0717446431517601,"234":-0.07715850323438644,"235":-0.03102150559425354,"236":0.04174294322729111,"237":0.015609052032232285,"238":-0.008105007000267506,"239":0.06594157963991165,"240":-0.03692527115345001,"241":0.07832089811563492,"242":0.053791750222444534,"243":-0.07117283344268799,"244":0.033274486660957336,"245":0.06606949865818024,"246":-0.03936901316046715,"247":-0.0475313626229763,"248":0.05804361030459404,"249":0.00157058029435575,"250":-0.03353850916028023,"251":0.035091742873191833,"252":0.07057492434978485,"253":0.06680893152952194,"254":0.017848441377282143,"255":-0.02575545199215412,"256":-0.04893433675169945,"257":-0.07880690693855286,"258":0.04241172969341278,"259":-0.03872370719909668,"260":0.010797299444675446,"261":-0.022714631631970406,"262":-0.06938908249139786,"263":-0.06844271719455719,"264":0.0475824810564518,"265":0.06425874680280685,"266":0.02768326923251152,"267":-0.03426205739378929,"268":-0.003713996149599552,"269":-0.011731171980500221,"270":-0.05267828702926636,"271":0.05821201205253601,"272":-0.043814875185489655,"273":-0.02534089796245098,"274":0.03960060328245163,"275":-0.0629437267780304,"276":0.028206566348671913,"277":0.010521546006202698,"278":0.027166230604052544,"279":0.05930280312895775,"280":-0.06202848255634308,"281":0.05279708281159401,"282":-0.010524747893214226,"283":0.05903017520904541,"284":0.05559374392032623,"285":-0.04325825348496437,"286":-0.06494530290365219,"287":-0.04927326738834381,"288":-0.013353618793189526,"289":-0.05288395285606384,"290":0.05521499738097191,"291":-0.0792861357331276,"292":0.02887755259871483,"293":0.045321546494960785,"294":-0.07660795003175735,"295":0.07566142827272415,"296":0.07622954994440079,"297":-0.0351770855486393,"298":-0.019551752135157585,"299":0.01614466682076454,"300":0.042099520564079285,"301":0.05634244531393051,"302":-0.0035251453518867493,"303":-0.049157097935676575,"304":0.028759650886058807,"305":0.013089118525385857,"306":-0.00921684131026268,"307":0.07572736591100693,"308":0.06201276183128357,"309":0.0628168135881424,"310":-0.04306363686919212,"311":0.004173037130385637,"312":0.0319216251373291,"313":-0.002346905879676342,"314":-0.038955528289079666,"315":-0.050889529287815094,"316":0.05097799003124237,"317":0.046905308961868286,"318":0.02358006313443184,"319":0.03901637718081474,"320":0.008319159038364887,"321":-0.021929044276475906,"322":0.06941571831703186,"323":0.0659525915980339,"324":0.025809425860643387,"325":-0.03330925852060318,"326":0.0774432122707367,"327":-0.046409256756305695,"328":0.023800183087587357,"329":-0.06015290692448616,"330":0.019621869549155235,"331":-0.06547367572784424,"332":-0.06397293508052826,"333":-0.013041004538536072,"334":-0.07585050910711288,"335":0.07136616855859756,"336":0.03378043696284294,"337":0.07802300900220871,"338":-0.07097478210926056,"339":-0.056706372648477554,"340":0.04651008918881416,"341":0.0512014776468277,"342":0.004999551922082901,"343":0.01186321396380663,"344":-0.03319079801440239,"345":0.004806210286915302,"346":0.07089631259441376,"347":0.07323937118053436,"348":-0.03686798736453056,"349":-0.0759323313832283,"350":-0.05341259762644768,"351":0.060654934495687485,"352":-0.01808544434607029,"353":-0.026180651038885117,"354":0.014797813259065151,"355":0.059238482266664505,"356":-0.07922790944576263,"357":-0.039345189929008484,"358":-0.07017853111028671,"359":-0.006955711171030998,"360":0.07384616136550903,"361":0.04255397245287895,"362":-0.04065554589033127,"363":0.016831329092383385,"364":0.037484653294086456,"365":0.007215109653770924,"366":-0.0489441379904747,"367":-0.005307010840624571,"368":0.05363084003329277,"369":0.06642300635576248,"370":-0.03440147265791893,"371":-0.03316336125135422,"372":-0.013129860162734985,"373":0.02820529043674469,"374":-0.008669010363519192,"375":0.023000238463282585,"376":-0.01670799031853676,"377":-0.0466095469892025,"378":-0.006275547202676535,"379":0.04427187889814377,"380":0.021674007177352905,"381":-0.04635943844914436,"382":-0.02483871951699257,"383":0.05209070071578026,"384":0.009534873999655247,"385":0.022727567702531815,"386":0.01269642822444439,"387":-0.05929959937930107,"388":-0.07239624857902527,"389":0.05855632573366165,"390":-0.017463160678744316,"391":0.04071059823036194,"392":0.00319981318898499,"393":0.023438381031155586,"394":-0.04303893819451332,"395":0.0668545737862587,"396":0.05917762964963913,"397":0.009118110872805119,"398":0.05734991654753685,"399":0.005145328119397163}},"outputHidden":{"rows":20,"columns":20,"weights":{"0":0.0034746387973427773,"1":0.06264696270227432,"2":0.0036236790474504232,"3":-0.001530053443275392,"4":0.034517768770456314,"5":0.039125796407461166,"6":-0.012909906916320324,"7":-0.06707251816987991,"8":0.03757961466908455,"9":0.03843275085091591,"10":-0.00905484240502119,"11":-0.0339883491396904,"12":0.015454192645847797,"13":-0.0444042831659317,"14":-0.047176238149404526,"15":0.06586271524429321,"16":0.021438974887132645,"17":0.06182056665420532,"18":-0.06439762562513351,"19":0.04296141862869263,"20":0.03287269547581673,"21":-0.0387457013130188,"22":0.006425552535802126,"23":-0.011531655676662922,"24":0.0443664975464344,"25":-0.053514514118433,"26":-0.039989396929740906,"27":-0.05981708690524101,"28":-0.05343134328722954,"29":0.07755549252033234,"30":-0.04222201555967331,"31":0.03511689975857735,"32":0.01608007587492466,"33":-0.0421694815158844,"34":-0.03151513263583183,"35":0.02857264317572117,"36":-0.041389431804418564,"37":0.01673951931297779,"38":0.007853527553379536,"39":-0.034103114157915115,"40":0.03922956436872482,"41":0.006600817199796438,"42":-0.015549656003713608,"43":0.06298013776540756,"44":0.0009010357316583395,"45":-0.015810657292604446,"46":0.0649418830871582,"47":0.056198228150606155,"48":-0.029111720621585846,"49":-0.07948122918605804,"50":0.03577961027622223,"51":0.07893332093954086,"52":0.0399525947868824,"53":0.03520006313920021,"54":-0.03633388131856918,"55":-0.054645564407110214,"56":-0.05837716534733772,"57":0.025227582082152367,"58":-0.047322943806648254,"59":-0.0414719395339489,"60":-0.014582646079361439,"61":0.0682099461555481,"62":0.06696699559688568,"63":-0.0037594528403133154,"64":-0.02771315909922123,"65":0.02832873910665512,"66":-0.04956214502453804,"67":-0.017851365730166435,"68":-0.019453199580311775,"69":0.06058841571211815,"70":0.06960953772068024,"71":0.04478108137845993,"72":-0.07200028002262115,"73":0.001824002480134368,"74":0.07984448224306107,"75":0.05630437284708023,"76":-0.0065172454342246056,"77":-0.012446494773030281,"78":-0.01232563890516758,"79":-0.041879259049892426,"80":-0.05511246249079704,"81":-0.014018011279404163,"82":-0.0782533586025238,"83":0.03851344808936119,"84":0.03817802295088768,"85":-0.04533359035849571,"86":-0.009730069898068905,"87":-0.06687735766172409,"88":-0.07249996811151505,"89":0.006374274380505085,"90":0.07077233493328094,"91":0.04664715379476547,"92":-0.031348858028650284,"93":0.04944780841469765,"94":-0.004084664862602949,"95":0.038675859570503235,"96":0.0234494898468256,"97":-0.003545425133779645,"98":0.07206596434116364,"99":0.016812704503536224,"100":-0.03349652141332626,"101":-0.003589609870687127,"102":0.012728511355817318,"103":0.021155118942260742,"104":-0.04012591764330864,"105":-0.06467863917350769,"106":0.03849729150533676,"107":-0.06472468376159668,"108":-0.05511751398444176,"109":-0.041575975716114044,"110":0.05633869394659996,"111":-0.06471886485815048,"112":-0.05585535615682602,"113":0.010354891419410706,"114":0.07402285188436508,"115":0.044115953147411346,"116":0.05931317061185837,"117":-0.05515226349234581,"118":-0.01624143309891224,"119":0.03362462297081947,"120":-0.006162482779473066,"121":0.03371734544634819,"122":-0.030179135501384735,"123":0.05358923599123955,"124":0.025661975145339966,"125":0.012663855217397213,"126":0.013444795273244381,"127":0.06275051087141037,"128":-0.06656794995069504,"129":0.016488466411828995,"130":-0.05343262478709221,"131":-0.007707522250711918,"132":-0.054079994559288025,"133":-0.019972313195466995,"134":0.03325263038277626,"135":0.07511722296476364,"136":-0.037504177540540695,"137":0.013714850880205631,"138":0.06160712242126465,"139":0.027903011068701744,"140":0.010428356006741524,"141":0.05830680951476097,"142":-0.008123170584440231,"143":0.048564400523900986,"144":0.0752115324139595,"145":-0.026409566402435303,"146":0.05166466906666756,"147":0.057569459080696106,"148":0.07200518250465393,"149":-0.0672101229429245,"150":-0.05869171768426895,"151":-0.07426121085882187,"152":0.014461091719567776,"153":0.039322685450315475,"154":0.0760115459561348,"155":0.05354063957929611,"156":-0.0211037527769804,"157":-0.007981794886291027,"158":-0.005928161088377237,"159":-0.06978845596313477,"160":-0.07814564555883408,"161":0.06818237155675888,"162":-0.017650093883275986,"163":-0.04696762561798096,"164":-0.0029247242491692305,"165":0.023508407175540924,"166":0.03371129184961319,"167":-0.023313166573643684,"168":0.07291242480278015,"169":-0.016067536547780037,"170":0.03610968589782715,"171":0.043526966124773026,"172":0.059796471148729324,"173":0.03166836127638817,"174":-0.07199269533157349,"175":-0.011019152589142323,"176":0.006191084627062082,"177":-0.013036578893661499,"178":0.07733476907014847,"179":-0.023813873529434204,"180":-0.0720200464129448,"181":0.009153196588158607,"182":0.023002469912171364,"183":0.035160258412361145,"184":-0.07418140023946762,"185":0.07540751993656158,"186":-0.001835643663071096,"187":0.05907000973820686,"188":0.061941079795360565,"189":-0.00990420300513506,"190":-0.06706442683935165,"191":-0.033078763633966446,"192":-0.011895423755049706,"193":-0.038620639592409134,"194":-0.0401342436671257,"195":-0.07363826781511307,"196":-0.07818575203418732,"197":0.07833848893642426,"198":-0.07047122716903687,"199":0.06797199696302414,"200":0.011342748068273067,"201":0.07326169312000275,"202":-0.07036131620407104,"203":0.065837062895298,"204":0.005380033981055021,"205":0.07254600524902344,"206":0.033580463379621506,"207":0.04400705173611641,"208":-0.07241573929786682,"209":0.009508777409791946,"210":-0.0029203775338828564,"211":-0.04610132798552513,"212":0.07985449582338333,"213":0.01748999021947384,"214":-0.005957337096333504,"215":0.020442988723516464,"216":0.03485814481973648,"217":-0.05998670682311058,"218":0.05265068635344505,"219":0.056095369160175323,"220":-0.07447297871112823,"221":0.014103367924690247,"222":0.008007488213479519,"223":0.07455549389123917,"224":-0.07476973533630371,"225":-0.07339353859424591,"226":-0.026662543416023254,"227":0.009314065799117088,"228":-0.07792458683252335,"229":0.03936837613582611,"230":0.041511114686727524,"231":-0.0021401122212409973,"232":-0.006359209306538105,"233":-0.005760259460657835,"234":0.040242601186037064,"235":0.029551059007644653,"236":-0.022608214989304543,"237":-0.03626178577542305,"238":-0.07664597034454346,"239":0.06302595138549805,"240":0.019533390179276466,"241":-0.07235108315944672,"242":-0.00692403968423605,"243":-0.07300928980112076,"244":-0.06744662672281265,"245":-0.04194122925400734,"246":0.07679542899131775,"247":-0.05209311470389366,"248":-0.03967950865626335,"249":0.007283545099198818,"250":0.025262806564569473,"251":0.058534447103738785,"252":0.05693710595369339,"253":-0.07415172457695007,"254":-0.011084542609751225,"255":-0.037433281540870667,"256":0.04300963506102562,"257":0.0033826828002929688,"258":-0.06484724581241608,"259":-0.0777391791343689,"260":0.06337536126375198,"261":-0.06153338775038719,"262":0.019807985052466393,"263":-0.04932701960206032,"264":-0.014969457872211933,"265":-0.030500924214720726,"266":0.014999402686953545,"267":0.029057061299681664,"268":0.03217511251568794,"269":-0.0044028484262526035,"270":0.004936328623443842,"271":0.0048427889123559,"272":0.06473768502473831,"273":0.047514088451862335,"274":0.057364996522665024,"275":-0.06807014346122742,"276":0.06543199717998505,"277":-0.02001582272350788,"278":0.004402101971209049,"279":0.06333006173372269,"280":-0.055580735206604004,"281":0.03364429250359535,"282":-0.03060164861381054,"283":-0.05166951194405556,"284":0.010030378587543964,"285":0.07552233338356018,"286":-0.07496731728315353,"287":0.027306891977787018,"288":0.011555861681699753,"289":0.03197755292057991,"290":0.07055693864822388,"291":0.0746467262506485,"292":-0.01949089765548706,"293":0.04516761749982834,"294":-0.007730216719210148,"295":-0.013296209275722504,"296":0.03886635974049568,"297":-0.040968768298625946,"298":0.0694131925702095,"299":0.011378730647265911,"300":0.04391239210963249,"301":0.056420184671878815,"302":-0.005689901765435934,"303":-0.07589976489543915,"304":-0.0746234580874443,"305":-0.028947928920388222,"306":0.04766398295760155,"307":0.05368884280323982,"308":-0.018404467031359673,"309":0.013252180069684982,"310":0.03981867432594299,"311":0.06192036345601082,"312":0.03681002929806709,"313":0.004994140472263098,"314":-0.020631512627005577,"315":-0.061759404838085175,"316":0.02174098789691925,"317":0.038570694625377655,"318":0.0788056030869484,"319":0.03777236118912697,"320":-0.0164768286049366,"321":0.06355723738670349,"322":0.06582357734441757,"323":0.06952743977308273,"324":-0.027775006368756294,"325":-0.007402762304991484,"326":-0.021389087662100792,"327":0.047527700662612915,"328":0.05459382012486458,"329":-0.007979652844369411,"330":0.043431606143713,"331":-0.008130648173391819,"332":-0.06077170372009277,"333":0.016811052337288857,"334":0.054913341999053955,"335":0.031678665429353714,"336":-0.0018280487274751067,"337":0.026379816234111786,"338":0.07296396046876907,"339":-0.013914396986365318,"340":-0.028576968237757683,"341":0.012229470536112785,"342":-0.01334400288760662,"343":0.0619359016418457,"344":-0.039415594190359116,"345":0.07779744267463684,"346":-0.008561928756535053,"347":-0.018971344456076622,"348":0.07889115065336227,"349":-0.03422370180487633,"350":-0.06304457038640976,"351":0.016268547624349594,"352":-0.07199987769126892,"353":-0.015906574204564095,"354":0.02147139422595501,"355":-0.06718291342258453,"356":0.06983373314142227,"357":0.07435022294521332,"358":0.03903438150882721,"359":-0.045109327882528305,"360":0.01168870646506548,"361":-0.03549392521381378,"362":0.004122368525713682,"363":-0.03966190293431282,"364":0.06047072261571884,"365":0.07524484395980835,"366":-0.043554842472076416,"367":0.022722139954566956,"368":0.011356333270668983,"369":-0.03993430361151695,"370":-0.004819088615477085,"371":0.07057119905948639,"372":0.036954618990421295,"373":0.044515952467918396,"374":0.05571635812520981,"375":-0.061165254563093185,"376":0.05741269513964653,"377":-0.0505925677716732,"378":-0.07868202775716782,"379":-0.04485626891255379,"380":-0.013125758618116379,"381":0.015331028029322624,"382":-0.028437668457627296,"383":0.03527456149458885,"384":0.008635141886770725,"385":-0.05221377685666084,"386":0.04455018788576126,"387":0.0665857344865799,"388":-0.014995207078754902,"389":-0.042584482580423355,"390":-0.025581998750567436,"391":0.07725420594215393,"392":-0.060798026621341705,"393":0.022496595978736877,"394":0.03609637916088104,"395":0.06867878884077072,"396":-0.04153497889637947,"397":0.035515740513801575,"398":0.07999388873577118,"399":0.07769667357206345}},"outputBias":{"rows":20,"columns":1,"weights":{"0":0,"1":0,"2":0,"3":0,"4":0,"5":0,"6":0,"7":0,"8":0,"9":0,"10":0,"11":0,"12":0,"13":0,"14":0,"15":0,"16":0,"17":0,"18":0,"19":0}},"cellActivationMatrix":{"rows":20,"columns":20,"weights":{"0":0.07187540084123611,"1":-0.04899977147579193,"2":-0.06832649558782578,"3":0.07128868252038956,"4":0.027438657358288765,"5":0.061574537307024,"6":-0.04007791727781296,"7":0.046833232045173645,"8":0.016595378518104553,"9":-0.0029763781931251287,"10":-0.07909740507602692,"11":0.05036725476384163,"12":-0.06712993234395981,"13":0.07020195573568344,"14":-0.06342960894107819,"15":-0.012891345657408237,"16":0.03516890108585358,"17":-0.023511946201324463,"18":-0.03202538564801216,"19":-0.059744127094745636,"20":-0.0004575999628286809,"21":-0.005575124640017748,"22":0.06593502312898636,"23":0.06932961195707321,"24":0.05506639927625656,"25":-0.07239878922700882,"26":-0.069551981985569,"27":-0.015561357140541077,"28":-0.000175072971615009,"29":0.015318384394049644,"30":-0.009224522858858109,"31":0.02694191038608551,"32":-0.07168763875961304,"33":0.07567392289638519,"34":-0.06851281970739365,"35":-0.010011381469666958,"36":-0.0724540501832962,"37":0.07088635116815567,"38":-0.02787535823881626,"39":-0.02069541998207569,"40":-0.026410309597849846,"41":0.03286372497677803,"42":0.06800715625286102,"43":-0.014060846529901028,"44":-0.008573380298912525,"45":0.06085838004946709,"46":0.07409245520830154,"47":-0.06868505477905273,"48":0.05358360707759857,"49":-0.018841387704014778,"50":-0.05921652540564537,"51":0.07802724093198776,"52":-0.03405506908893585,"53":-0.018947618082165718,"54":0.053892236202955246,"55":-0.05548538640141487,"56":-0.05052090808749199,"57":-0.07527153193950653,"58":-0.028338059782981873,"59":-0.059978555887937546,"60":-0.016101041808724403,"61":-0.03455085679888725,"62":0.0637197494506836,"63":0.056665197014808655,"64":-0.01879304088652134,"65":0.06384731829166412,"66":-0.05056603252887726,"67":-0.07751450687646866,"68":0.026164019480347633,"69":-0.06361792981624603,"70":0.0446249283850193,"71":-0.07487470656633377,"72":0.0008362724911421537,"73":0.03560531139373779,"74":0.07810214906930923,"75":0.017808925360441208,"76":0.0652451366186142,"77":0.07625988870859146,"78":-0.044496119022369385,"79":0.07512679696083069,"80":0.04559997469186783,"81":-0.05130259692668915,"82":-0.04431112855672836,"83":0.010742712765932083,"84":-0.041020870208740234,"85":0.044836632907390594,"86":-0.07986443489789963,"87":0.042345304042100906,"88":0.057043492794036865,"89":0.07280948758125305,"90":0.07116838544607162,"91":-0.048600029200315475,"92":0.01523982360959053,"93":-0.06348900496959686,"94":-0.054713331162929535,"95":-0.039875976741313934,"96":0.01796572655439377,"97":-0.008137265220284462,"98":0.07915974408388138,"99":-0.07510212808847427,"100":0.07737861573696136,"101":0.02621554024517536,"102":0.052768491208553314,"103":0.06559184193611145,"104":0.006522778887301683,"105":-0.02903883531689644,"106":0.06376517564058304,"107":-0.0032757208682596684,"108":-0.024458155035972595,"109":-0.07776928693056107,"110":-0.014958222396671772,"111":0.019651217386126518,"112":-0.01685374602675438,"113":-0.03882809355854988,"114":0.013585047796368599,"115":0.0712774321436882,"116":-0.014432774856686592,"117":0.058409735560417175,"118":-0.038495734333992004,"119":-0.02303054742515087,"120":0.05463463440537453,"121":0.02409522421658039,"122":0.0793539509177208,"123":-0.01628723181784153,"124":0.07871705293655396,"125":0.040783993899822235,"126":-0.0473647341132164,"127":-0.0549001544713974,"128":0.017672063782811165,"129":0.018695984035730362,"130":0.031310949474573135,"131":0.05472521111369133,"132":0.051099251955747604,"133":0.07455386966466904,"134":0.045314569026231766,"135":0.03498721122741699,"136":0.010022085160017014,"137":-0.008495723828673363,"138":-0.04749557748436928,"139":0.07303082197904587,"140":-0.06345520913600922,"141":-0.035648588091135025,"142":-0.07381374388933182,"143":-0.03629811108112335,"144":-0.03279488533735275,"145":-0.062159910798072815,"146":-0.04966454580426216,"147":0.004764431156218052,"148":0.019787631928920746,"149":-0.016803093254566193,"150":0.017158200964331627,"151":-0.04200553894042969,"152":-0.06529787927865982,"153":0.05608980357646942,"154":0.03512977436184883,"155":-0.05385127291083336,"156":-0.01765185408294201,"157":-0.04560510441660881,"158":0.0007112721796147525,"159":-0.017521994188427925,"160":-0.02883186563849449,"161":0.03948534280061722,"162":-0.031803835183382034,"163":-0.041323572397232056,"164":-0.05856965482234955,"165":0.014275690540671349,"166":0.000041352825064677745,"167":-0.00808707345277071,"168":-0.0551568828523159,"169":0.006774828303605318,"170":0.038038719445466995,"171":0.055672794580459595,"172":-0.06293941289186478,"173":-0.0714799091219902,"174":0.0002678354212548584,"175":0.03830436244606972,"176":-0.014252313412725925,"177":-0.03591090068221092,"178":0.06663352996110916,"179":0.0626995712518692,"180":0.0033858006354421377,"181":-0.0664583072066307,"182":0.03655179589986801,"183":0.06054369732737541,"184":-0.00023046658316161484,"185":-0.049625806510448456,"186":-0.05134506896138191,"187":-0.04510728269815445,"188":0.021129276603460312,"189":0.032563310116529465,"190":0.005325178615748882,"191":-0.04152407497167587,"192":-0.06876083463430405,"193":0.045073334127664566,"194":-0.03697114437818527,"195":-0.0051316069439053535,"196":0.013430759310722351,"197":-0.06143594905734062,"198":-0.06658793240785599,"199":-0.03850806877017021,"200":-0.0034951940178871155,"201":0.010603319853544235,"202":-0.021653104573488235,"203":0.06055019050836563,"204":-0.011977257207036018,"205":-0.04427491873502731,"206":-0.06345239281654358,"207":0.07619799673557281,"208":-0.06937014311552048,"209":0.016546469181776047,"210":0.034265369176864624,"211":-0.06713899970054626,"212":-0.035790007561445236,"213":0.011596242897212505,"214":0.04293972626328468,"215":0.06586100906133652,"216":-0.0007899694028310478,"217":-0.05226058140397072,"218":-0.02842923067510128,"219":-0.07864917069673538,"220":-0.03970658406615257,"221":0.03271949663758278,"222":-0.050010256469249725,"223":-0.04328618571162224,"224":-0.03099675662815571,"225":0.0034101668279618025,"226":-0.048750344663858414,"227":0.04424884170293808,"228":-0.00882010255008936,"229":-0.07513722032308578,"230":0.012874392792582512,"231":0.010400297120213509,"232":-0.0758952870965004,"233":0.05687238276004791,"234":-0.01843058131635189,"235":0.07239606231451035,"236":-0.0755753368139267,"237":-0.07257489860057831,"238":0.0375366285443306,"239":-0.0021821632981300354,"240":0.02651279792189598,"241":0.012180717661976814,"242":-0.07318206876516342,"243":-0.028912480920553207,"244":-0.0059706890024244785,"245":-0.042274340987205505,"246":-0.03746829181909561,"247":-0.02543533779680729,"248":0.07460241764783859,"249":-0.05797221511602402,"250":-0.009037909097969532,"251":0.044367991387844086,"252":0.06836530566215515,"253":0.00309829437173903,"254":0.06181163340806961,"255":0.01637100800871849,"256":-0.04913594201207161,"257":0.022786445915699005,"258":-0.05281515792012215,"259":0.025645410642027855,"260":-0.046599261462688446,"261":-0.022826675325632095,"262":-0.0005970459897071123,"263":-0.017382703721523285,"264":-0.04924450442194939,"265":0.008926215581595898,"266":0.00952218659222126,"267":0.05562170594930649,"268":-0.05464347079396248,"269":-0.020440345630049706,"270":0.06450140476226807,"271":0.07254724204540253,"272":0.057917654514312744,"273":-0.03636833652853966,"274":0.03229828178882599,"275":0.011186020448803902,"276":-0.01485182624310255,"277":0.050663061439991,"278":-0.01714359223842621,"279":-0.03173036873340607,"280":0.06124575063586235,"281":0.014657520689070225,"282":-0.007176232524216175,"283":-0.03781731054186821,"284":0.019904904067516327,"285":0.05581130087375641,"286":0.06475143879652023,"287":0.013815089128911495,"288":-0.012698703445494175,"289":0.04003032296895981,"290":0.0028922236524522305,"291":0.03463016450405121,"292":0.0554596483707428,"293":0.029752453789114952,"294":0.014227804727852345,"295":-0.014769162982702255,"296":-0.07845164835453033,"297":0.05342189222574234,"298":-0.0492560975253582,"299":0.030765296891331673,"300":-0.035105280578136444,"301":0.07544992119073868,"302":-0.027941260486841202,"303":-0.02938051149249077,"304":-0.03105079010128975,"305":0.04129660874605179,"306":-0.042606741189956665,"307":-0.04404623433947563,"308":-0.017078446224331856,"309":-0.011339744552969933,"310":0.051014501601457596,"311":-0.04369112104177475,"312":-0.07012517005205154,"313":-0.034130316227674484,"314":-0.0419585257768631,"315":0.04622943326830864,"316":-0.003329735714942217,"317":0.034824617207050323,"318":0.025588618591427803,"319":-0.055010125041007996,"320":0.076869897544384,"321":-0.05567412078380585,"322":-0.03894231095910072,"323":-0.005870345514267683,"324":-0.05211767181754112,"325":-0.03888055682182312,"326":0.03270573541522026,"327":0.009881837293505669,"328":0.0024883667938411236,"329":0.04756757989525795,"330":-0.04870755970478058,"331":-0.050732389092445374,"332":0.008095613680779934,"333":-0.05113951116800308,"334":0.060393739491701126,"335":-0.002540656365454197,"336":0.0694420337677002,"337":-0.019767146557569504,"338":-0.03200614079833031,"339":0.010981614701449871,"340":-0.06990908831357956,"341":0.0453280434012413,"342":-0.006114417687058449,"343":0.039005085825920105,"344":0.008193297311663628,"345":0.0507441908121109,"346":0.07354636490345001,"347":0.008693726733326912,"348":0.023321034386754036,"349":0.06317418813705444,"350":0.06661567836999893,"351":-0.07880126684904099,"352":0.06893669068813324,"353":0.0576908104121685,"354":0.03581557795405388,"355":0.04416949301958084,"356":0.02675345167517662,"357":0.026025548577308655,"358":-0.012544233351945877,"359":0.0563819482922554,"360":0.073785699903965,"361":-0.005986140575259924,"362":-0.01672416925430298,"363":0.07039424777030945,"364":0.0773160308599472,"365":0.04756874591112137,"366":-0.009988644160330296,"367":-0.06636998057365417,"368":0.005068800877779722,"369":0.0011433971812948585,"370":0.042463745921850204,"371":-0.007925810292363167,"372":-0.007742362096905708,"373":0.0557619109749794,"374":0.06160365045070648,"375":-0.01579568162560463,"376":-0.02468244731426239,"377":-0.04287347197532654,"378":0.030038733035326004,"379":-0.011031016707420349,"380":0.04157589003443718,"381":0.013225274160504341,"382":-0.029118452221155167,"383":0.04945040121674538,"384":-0.01733613945543766,"385":0.05628795176744461,"386":-0.008781662210822105,"387":0.06705734878778458,"388":0.02539283223450184,"389":-0.045065738260746,"390":0.024185888469219208,"391":0.039451029151678085,"392":0.050189778208732605,"393":0.04612872377038002,"394":-0.0702478215098381,"395":0.024695083498954773,"396":0.02265130914747715,"397":-0.03576425090432167,"398":-0.028872760012745857,"399":-0.006920769345015287}},"cellActivationHidden":{"rows":20,"columns":20,"weights":{"0":0.03735361620783806,"1":-0.029221920296549797,"2":0.053846705704927444,"3":-0.07810536026954651,"4":0.0787041038274765,"5":-0.059823617339134216,"6":-0.048859503120183945,"7":-0.05798580124974251,"8":-0.03361792117357254,"9":0.025747021660208702,"10":0.05031024292111397,"11":0.06829188019037247,"12":-0.004992284346371889,"13":0.04691914841532707,"14":-0.05860348418354988,"15":-0.03639330342411995,"16":-0.04424494132399559,"17":0.061349716037511826,"18":-0.04077555611729622,"19":0.07492022961378098,"20":-0.03696955740451813,"21":0.03819064795970917,"22":0.058510370552539825,"23":0.06505870819091797,"24":-0.07744660973548889,"25":-0.07493218034505844,"26":0.03416064754128456,"27":-0.0048714433796703815,"28":-0.045411866158246994,"29":-0.07944509387016296,"30":-0.009967568330466747,"31":0.02785344421863556,"32":-0.017036380246281624,"33":0.02367311157286167,"34":-0.05725573003292084,"35":0.04868517443537712,"36":0.006812863051891327,"37":0.06827645748853683,"38":-0.07283074408769608,"39":0.03367239609360695,"40":-0.027235377579927444,"41":0.046397097408771515,"42":-0.005085945129394531,"43":0.03134162724018097,"44":0.06187821552157402,"45":0.028559064492583275,"46":-0.012120106257498264,"47":-0.036113690584897995,"48":-0.0476202666759491,"49":-0.07705419510602951,"50":-0.03125729411840439,"51":0.053565435111522675,"52":-0.0422416515648365,"53":-0.07623124122619629,"54":0.0514155738055706,"55":-0.003347288351505995,"56":-0.003070922801271081,"57":-0.06204874441027641,"58":0.037109795957803726,"59":-0.07820023596286774,"60":-0.058787573128938675,"61":0.07614221423864365,"62":-0.05148279666900635,"63":-0.07875801622867584,"64":-0.0448690690100193,"65":0.032379522919654846,"66":-0.07254088670015335,"67":-0.0710831880569458,"68":-0.06091509014368057,"69":0.054466262459754944,"70":0.032749343663454056,"71":-0.004870021250098944,"72":0.05120929703116417,"73":0.043661776930093765,"74":0.013740099035203457,"75":0.00006474825204350054,"76":-0.056690946221351624,"77":0.014006635174155235,"78":-0.07222012430429459,"79":-0.010060940869152546,"80":-0.004657634999603033,"81":-0.0415862537920475,"82":0.03535919263958931,"83":-0.03537966310977936,"84":0.029069120064377785,"85":-0.0023470527958124876,"86":0.0008877036743797362,"87":0.008870496414601803,"88":-0.07682506740093231,"89":-0.007147693540900946,"90":-0.03611293062567711,"91":-0.03282349556684494,"92":-0.06932680308818817,"93":0.0453232005238533,"94":0.00464572524651885,"95":0.057510945945978165,"96":-0.052766695618629456,"97":0.009493933990597725,"98":0.023657221347093582,"99":0.03395690396428108,"100":0.03452283516526222,"101":0.020574472844600677,"102":-0.0682058334350586,"103":-0.03527847304940224,"104":0.036764174699783325,"105":-0.03689270466566086,"106":0.07151995599269867,"107":0.03074636496603489,"108":0.07713652402162552,"109":0.07025673985481262,"110":-0.0628429427742958,"111":-0.045685138553380966,"112":0.0689067468047142,"113":-0.013367687352001667,"114":0.015716321766376495,"115":-0.06760653108358383,"116":0.03546798229217529,"117":0.029453545808792114,"118":-0.01709538698196411,"119":0.07486875355243683,"120":-0.06503552198410034,"121":-0.05027060583233833,"122":-0.020796028897166252,"123":-0.023652056232094765,"124":0.0604219026863575,"125":0.0024702984374016523,"126":0.05948575586080551,"127":-0.02419326826930046,"128":-0.015677090734243393,"129":-0.037589091807603836,"130":0.004623390734195709,"131":-0.06956010311841965,"132":-0.07279501855373383,"133":-0.05616157874464989,"134":-0.05634836107492447,"135":-0.0627887174487114,"136":-0.07674110680818558,"137":0.023673614487051964,"138":0.07384150475263596,"139":0.06671814620494843,"140":-0.0519014410674572,"141":0.0316370464861393,"142":-0.026960376650094986,"143":-0.03593786433339119,"144":0.06728552281856537,"145":0.05846065655350685,"146":-0.064325250685215,"147":0.05675061419606209,"148":-0.05230462923645973,"149":0.03995621204376221,"150":0.046945054084062576,"151":0.04117366299033165,"152":0.019622571766376495,"153":0.05158261954784393,"154":-0.03469167277216911,"155":0.029849857091903687,"156":0.006591336335986853,"157":0.023765578866004944,"158":-0.046735651791095734,"159":-0.06043929234147072,"160":0.06923574209213257,"161":-0.0774211511015892,"162":0.04591202363371849,"163":-0.02446342632174492,"164":0.02803579531610012,"165":0.04582352936267853,"166":-0.03467187285423279,"167":-0.06339438259601593,"168":-0.022328386083245277,"169":-0.048748888075351715,"170":0.06259498745203018,"171":0.05187789350748062,"172":0.05502235144376755,"173":-0.05689467117190361,"174":-0.02678481675684452,"175":-0.0467618927359581,"176":0.07123192399740219,"177":-0.02587752602994442,"178":-0.07600700855255127,"179":0.011262228712439537,"180":0.058066289871931076,"181":0.06372744590044022,"182":0.010468283668160439,"183":0.017540138214826584,"184":-0.04357166588306427,"185":0.011424333788454533,"186":-0.06743050366640091,"187":0.023868277668952942,"188":0.0675024688243866,"189":-0.0136903440579772,"190":-0.0704994946718216,"191":-0.06781292706727982,"192":-0.04805067181587219,"193":0.05494989827275276,"194":-0.027153044939041138,"195":-0.017841175198554993,"196":0.01133202575147152,"197":-0.07215852290391922,"198":0.042410142719745636,"199":-0.07524485886096954,"200":0.06116295978426933,"201":-0.003239257261157036,"202":0.031012117862701416,"203":0.0007360975723713636,"204":-0.042185962200164795,"205":-0.018281565979123116,"206":0.05912969261407852,"207":-0.06479796022176743,"208":0.005962311290204525,"209":0.026141544803977013,"210":0.054554592818021774,"211":-0.07315614819526672,"212":-0.020367618650197983,"213":-0.034072987735271454,"214":-0.05112944543361664,"215":-0.027720361948013306,"216":-0.013583512045443058,"217":0.043048709630966187,"218":0.028497517108917236,"219":-0.06661581993103027,"220":-0.04629060998558998,"221":-0.00039606838254258037,"222":-0.030094128102064133,"223":0.02081088162958622,"224":-0.012293970212340355,"225":-0.027008410543203354,"226":0.015686048194766045,"227":0.04336525872349739,"228":-0.07642357051372528,"229":0.017252642661333084,"230":-0.03513430058956146,"231":0.07199566811323166,"232":0.07587441802024841,"233":-0.07942632585763931,"234":-0.02370373345911503,"235":-0.008180406875908375,"236":0.029846101999282837,"237":-0.04703623056411743,"238":0.04640774056315422,"239":0.05755724385380745,"240":-0.054620709270238876,"241":-0.07369952648878098,"242":0.05474863201379776,"243":0.010708690620958805,"244":0.008120600134134293,"245":-0.038225866854190826,"246":-0.0783713310956955,"247":-0.014909069985151291,"248":-0.0017606713809072971,"249":0.03519844636321068,"250":0.06031479686498642,"251":-0.043096426874399185,"252":-0.07234962284564972,"253":0.06837157160043716,"254":-0.026000851765275,"255":0.04836588725447655,"256":-0.029034826904535294,"257":0.057508476078510284,"258":0.026178838685154915,"259":0.05540716275572777,"260":0.06779788434505463,"261":-0.056425075978040695,"262":0.04422451928257942,"263":0.06691756099462509,"264":-0.04941961541771889,"265":-0.0004985687555745244,"266":-0.009831564500927925,"267":0.03072027675807476,"268":-0.06742344051599503,"269":0.062403593212366104,"270":0.05596750229597092,"271":-0.07311095297336578,"272":0.05261583998799324,"273":-0.02034602127969265,"274":0.036593567579984665,"275":-0.03007669374346733,"276":0.03943533077836037,"277":-0.010233059525489807,"278":0.07671917974948883,"279":0.07306879758834839,"280":-0.012975684367120266,"281":-0.03491603210568428,"282":0.07452763617038727,"283":-0.029171116650104523,"284":-0.07074093818664551,"285":-0.030494224280118942,"286":0.026503022760152817,"287":0.025711122900247574,"288":0.01973235420882702,"289":0.019893944263458252,"290":-0.009477108716964722,"291":-0.06894633173942566,"292":-0.05722062289714813,"293":0.026675637811422348,"294":-0.058208167552948,"295":0.03446391597390175,"296":-0.019004063680768013,"297":0.02670188993215561,"298":-0.0005845600389875472,"299":0.013109746389091015,"300":-0.02255440130829811,"301":0.07260546088218689,"302":-0.023326391354203224,"303":0.05496951565146446,"304":0.02653524838387966,"305":-0.015315466560423374,"306":0.003002601210027933,"307":-0.07673364132642746,"308":-0.02747279778122902,"309":-0.05443590134382248,"310":0.04476270452141762,"311":-0.061109114438295364,"312":-0.021417906507849693,"313":0.024313054978847504,"314":0.05408567562699318,"315":0.038992419838905334,"316":0.025365939363837242,"317":-0.06837788969278336,"318":0.013533348217606544,"319":0.014738599769771099,"320":0.020365307107567787,"321":-0.011324589140713215,"322":-0.0573933944106102,"323":0.05288814753293991,"324":-0.04761233180761337,"325":-0.0046298145316541195,"326":0.023536521941423416,"327":-0.050387781113386154,"328":0.057416923344135284,"329":-0.044793061912059784,"330":0.042529862374067307,"331":0.049675438553094864,"332":0.06272997707128525,"333":0.020875386893749237,"334":0.07291024923324585,"335":-0.069270059466362,"336":0.07006184011697769,"337":-0.011271714232861996,"338":-0.07900260388851166,"339":0.008038273081183434,"340":0.016475258395075798,"341":0.05511349439620972,"342":-0.071950264275074,"343":0.017724988982081413,"344":-0.055810246616601944,"345":0.010392055846750736,"346":-0.03624141588807106,"347":-0.0002392642927588895,"348":0.05229758098721504,"349":-0.025854874402284622,"350":0.0662260577082634,"351":-0.012718996033072472,"352":0.051129985600709915,"353":0.06226120889186859,"354":-0.06800760328769684,"355":0.03520241752266884,"356":-0.07262956351041794,"357":-0.06847777962684631,"358":-0.050288353115320206,"359":-0.03545450046658516,"360":-0.01845880039036274,"361":0.02818796969950199,"362":-0.037710342556238174,"363":-0.00177868758328259,"364":0.06582526117563248,"365":0.008197805844247341,"366":0.030995123088359833,"367":-0.07454217970371246,"368":0.04957691952586174,"369":-0.008812891319394112,"370":0.018567735329270363,"371":0.027624577283859253,"372":0.014343001879751682,"373":0.05671518296003342,"374":0.07032483071088791,"375":0.05672060325741768,"376":-0.03169691190123558,"377":0.06635593622922897,"378":-0.009823491796851158,"379":0.07075180858373642,"380":-0.0716053918004036,"381":-0.029142623767256737,"382":0.020757606253027916,"383":-0.05561882257461548,"384":0.03756393864750862,"385":0.0791994035243988,"386":0.06908251345157623,"387":0.023584846407175064,"388":0.07120989263057709,"389":0.01565602794289589,"390":-0.01006404310464859,"391":-0.059050001204013824,"392":0.041366688907146454,"393":0.05729756876826286,"394":0.027904154732823372,"395":-0.042334090918302536,"396":0.010890751145780087,"397":0.013277022168040276,"398":0.01721152663230896,"399":0.07258111983537674}},"cellActivationBias":{"rows":20,"columns":1,"weights":{"0":0,"1":0,"2":0,"3":0,"4":0,"5":0,"6":0,"7":0,"8":0,"9":0,"10":0,"11":0,"12":0,"13":0,"14":0,"15":0,"16":0,"17":0,"18":0,"19":0}}},{"inputMatrix":{"rows":20,"columns":20,"weights":{"0":0.04872368648648262,"1":-0.06915538758039474,"2":-0.018303563818335533,"3":-0.0395437590777874,"4":-0.02226925827562809,"5":0.03115534596145153,"6":-0.07543890923261642,"7":0.02607838809490204,"8":0.027150193229317665,"9":0.018212726339697838,"10":0.064986951649189,"11":0.02310856617987156,"12":-0.006963858846575022,"13":-0.007296480238437653,"14":0.024718957021832466,"15":-0.04754810407757759,"16":0.06877021491527557,"17":-0.07505428045988083,"18":-0.0321195051074028,"19":-0.039004307240247726,"20":-0.07892145216464996,"21":0.0007093289750628173,"22":-0.07444819808006287,"23":-0.028795240446925163,"24":0.028920546174049377,"25":0.0635908767580986,"26":0.030053013935685158,"27":-0.06230269744992256,"28":0.0027246803510934114,"29":-0.053490787744522095,"30":-0.007871615700423717,"31":0.025410830974578857,"32":0.04207385331392288,"33":0.06545045226812363,"34":-0.03997371345758438,"35":0.03610128536820412,"36":-0.06953444331884384,"37":0.05545723810791969,"38":0.04470554739236832,"39":0.057795338332653046,"40":0.05588851869106293,"41":0.07524309307336807,"42":0.03003949113190174,"43":-0.06917523592710495,"44":-0.0003335977380629629,"45":0.007827718742191792,"46":-0.023371031507849693,"47":-0.06596691906452179,"48":-0.013172830455005169,"49":0.06579320132732391,"50":0.02080937847495079,"51":-0.053242769092321396,"52":0.06174147129058838,"53":0.02221868745982647,"54":0.00312996469438076,"55":-0.03981533646583557,"56":-0.03374478593468666,"57":0.0171976201236248,"58":0.021569231525063515,"59":-0.0035988506861031055,"60":-0.06216530501842499,"61":-0.06698765605688095,"62":-0.0429622046649456,"63":0.07245425879955292,"64":-0.06817778944969177,"65":-0.03850710019469261,"66":-0.0600459948182106,"67":-0.05650173872709274,"68":-0.03187130391597748,"69":-0.017927832901477814,"70":-0.07614810019731522,"71":-0.01698918826878071,"72":-0.03705596923828125,"73":0.023948589339852333,"74":0.0017958864336833358,"75":0.01367392297834158,"76":-0.0569084957242012,"77":0.02185523882508278,"78":-0.016484472900629044,"79":0.030511684715747833,"80":-0.05918175354599953,"81":0.05666989088058472,"82":0.068700410425663,"83":-0.012917905114591122,