{"type":"LSTM","options":{"inputSize":19,"inputRange":19,"hiddenSizes":[20,20],"outputSize":19,"learningRate":0.01,"decayRate":0.999,"smoothEps":1e-8,"regc":0.000001,"clipval":5,"json":null,"dataFormatter":{"indexTable":{"-0.14059926643786457844953474705108":0,"0.14518014332347828343472428969108":1,"0.06307854458116191054273258487228":2,"-0.65694887692796388733995627262630":3,"0.78211605646513415734943919233046":4,"-0.42147230860398821050694095902145":5,"0.15881340036462177067733136937022":6,"0.49065753163665570824036876729224":7,"0.59438615309505538064627216954250":8,"-0.43617991208740081177097636100370":9,"-0.55804997079507012713861513475422":10,"-0.01484883742565790143430604075547":11,"0.81731972362154037270443041052204":12,"0.85511738132262582468001710367389":13,"-0.35793231240001244231052623945288":14,"0.58384354275396210809390140639152":15,"0.45527335503795818283379048807546":16,"stop-input":17,"start-output":18},"characterTable":{"0":"-0.14059926643786457844953474705108","1":"0.14518014332347828343472428969108","2":"0.06307854458116191054273258487228","3":"-0.65694887692796388733995627262630","4":"0.78211605646513415734943919233046","5":"-0.42147230860398821050694095902145","6":"0.15881340036462177067733136937022","7":"0.49065753163665570824036876729224","8":"0.59438615309505538064627216954250","9":"-0.43617991208740081177097636100370","10":"-0.55804997079507012713861513475422","11":"-0.01484883742565790143430604075547","12":"0.81731972362154037270443041052204","13":"0.85511738132262582468001710367389","14":"-0.35793231240001244231052623945288","15":"0.58384354275396210809390140639152","16":"0.45527335503795818283379048807546","17":"stop-input","18":"start-output"},"values":[["-0.14059926643786457844953474705108","0.14518014332347828343472428969108","0.06307854458116191054273258487228","-0.65694887692796388733995627262630"],["-0.14059926643786457844953474705108","0.14518014332347828343472428969108","0.06307854458116191054273258487228","0.78211605646513415734943919233046"],["-0.42147230860398821050694095902145"],["0.15881340036462177067733136937022"],["0.49065753163665570824036876729224"],["0.59438615309505538064627216954250","-0.43617991208740081177097636100370","-0.55804997079507012713861513475422","-0.01484883742565790143430604075547","0.81731972362154037270443041052204"],["0.85511738132262582468001710367389","-0.35793231240001244231052623945288"],["0.85511738132262582468001710367389","0.58384354275396210809390140639152","0.45527335503795818283379048807546","-0.35793231240001244231052623945288"]],"characters":["-0.14059926643786457844953474705108","0.14518014332347828343472428969108","0.06307854458116191054273258487228","-0.65694887692796388733995627262630","0.78211605646513415734943919233046","-0.42147230860398821050694095902145","0.15881340036462177067733136937022","0.49065753163665570824036876729224","0.59438615309505538064627216954250","-0.43617991208740081177097636100370","-0.55804997079507012713861513475422","-0.01484883742565790143430604075547","0.81731972362154037270443041052204","0.85511738132262582468001710367389","-0.35793231240001244231052623945288","0.58384354275396210809390140639152","0.45527335503795818283379048807546","stop-input","start-output"]}},"input":{"rows":20,"columns":19,"weights":{"0":-0.6239984631538391,"1":0.08024438470602036,"2":0.7967447638511658,"3":2.1057815551757812,"4":0.47925448417663574,"5":1.1631296873092651,"6":-0.10241866111755371,"7":0.7601192593574524,"8":0.29067263007164,"9":-0.9478904008865356,"10":0.3108743131160736,"11":-1.0607495307922363,"12":-0.6837131977081299,"13":-0.4091421365737915,"14":0.39598533511161804,"15":0.04171324893832207,"16":0.4502808749675751,"17":0.7674232125282288,"18":-0.07972351461648941,"19":-0.890956461429596,"20":0.5340005159378052,"21":1.0620427131652832,"22":4.834377288818359,"23":1.706857442855835,"24":1.6133599281311035,"25":0.7233371138572693,"26":0.6096262335777283,"27":-0.6305162906646729,"28":-1.6912486553192139,"29":-1.4804469347000122,"30":-2.994769811630249,"31":2.033597707748413,"32":0.5564470291137695,"33":2.436798334121704,"34":1.0996640920639038,"35":0.05339537560939789,"36":1.1844160556793213,"37":2.5586698055267334,"38":9.512794494628906,"39":-2.745591878890991,"40":0.7385350465774536,"41":-7.051324367523193,"42":-0.850455641746521,"43":-3.8911967277526855,"44":-2.3410680294036865,"45":6.056925296783447,"46":1.1157232522964478,"47":0.08541044592857361,"48":-0.008542757481336594,"49":0.30748024582862854,"50":-6.407690525054932,"51":-0.4390014708042145,"52":-1.0611177682876587,"53":-4.866851806640625,"54":-1.2190016508102417,"55":-2.0866024494171143,"56":-1.2945061922073364,"57":-6.982357978820801,"58":-3.137686252593994,"59":3.9598073959350586,"60":-6.071375370025635,"61":4.034903526306152,"62":-0.755763590335846,"63":-1.701708436012268,"64":3.707801342010498,"65":-0.09659124910831451,"66":0.16074734926223755,"67":-0.08362316340208054,"68":6.243286609649658,"69":-1.0083695650100708,"70":-0.2590312659740448,"71":5.516515254974365,"72":1.347286343574524,"73":7.172447681427002,"74":4.995997905731201,"75":2.7392990589141846,"76":1.912947177886963,"77":1.1861777305603027,"78":-1.7031329870224,"79":-1.191622018814087,"80":1.111108422279358,"81":0.8739891648292542,"82":1.1727535724639893,"83":-2.181577682495117,"84":-1.1829394102096558,"85":1.946563720703125,"86":0.12377668172121048,"87":-0.9282097816467285,"88":-0.37097254395484924,"89":0.24751654267311096,"90":0.29356226325035095,"91":0.4275580048561096,"92":-0.9798778891563416,"93":-0.042080946266651154,"94":1.142828345298767,"95":-0.18251217901706696,"96":-0.5811736583709717,"97":-1.3214020729064941,"98":-0.458642840385437,"99":1.7448115348815918,"100":0.29454562067985535,"101":1.7331438064575195,"102":0.11104695498943329,"103":-0.949994683265686,"104":2.1306240558624268,"105":-1.8404189348220825,"106":-0.9109775424003601,"107":0.6166242361068726,"108":2.671694755554199,"109":0.9863168597221375,"110":0.8871461749076843,"111":-0.8827680349349976,"112":-1.9023820161819458,"113":1.6438524723052979,"114":1.4970840215682983,"115":1.078703761100769,"116":-1.6833490133285522,"117":1.911771535873413,"118":-1.1528512239456177,"119":-1.5773606300354004,"120":-1.3689359426498413,"121":-1.7406556606292725,"122":1.3700147867202759,"123":-1.0782735347747803,"124":2.4183242321014404,"125":0.16058912873268127,"126":0.8560962080955505,"127":-1.7224148511886597,"128":2.984360933303833,"129":-2.3039329051971436,"130":2.702589273452759,"131":1.906429648399353,"132":-1.4069377183914185,"133":1.0746843814849854,"134":0.17003022134304047,"135":-0.5956984162330627,"136":-0.06725502759218216,"137":1.8966740369796753,"138":1.7504149675369263,"139":2.0180160999298096,"140":-0.6026679277420044,"141":-1.897377371788025,"142":2.527804374694824,"143":0.2695504426956177,"144":-0.04887457564473152,"145":-0.25113528966903687,"146":-0.057502780109643936,"147":0.3012506663799286,"148":1.6384605169296265,"149":-1.5173059701919556,"150":-0.06563631445169449,"151":1.5701411962509155,"152":0.21441057324409485,"153":1.2991501092910767,"154":-1.883162260055542,"155":0.4782625734806061,"156":-0.11961300671100616,"157":-0.25011909008026123,"158":-1.1843526363372803,"159":-3.0911905765533447,"160":0.999967634677887,"161":-0.8731217980384827,"162":1.628485083580017,"163":-0.580536425113678,"164":-0.04815838858485222,"165":-1.054235816001892,"166":1.849463939666748,"167":-1.4285560846328735,"168":3.1330997943878174,"169":1.179308533668518,"170":-0.7750630974769592,"171":-3.9560868740081787,"172":-1.7135119438171387,"173":1.3741825819015503,"174":-0.06368240714073181,"175":-0.3098880350589752,"176":-0.2217530459165573,"177":0.2629084885120392,"178":1.6516659259796143,"179":0.2557809352874756,"180":-0.27088463306427,"181":-2.7207841873168945,"182":1.3954052925109863,"183":0.5628930330276489,"184":2.0924038887023926,"185":-0.07106103003025055,"186":-0.32712268829345703,"187":0.09391986578702927,"188":-2.708380937576294,"189":-0.705023467540741,"190":-0.7175341248512268,"191":-1.8140218257904053,"192":0.910717785358429,"193":-2.6152708530426025,"194":-0.351144403219223,"195":0.13091278076171875,"196":-0.33625635504722595,"197":0.381367951631546,"198":0.6095847487449646,"199":-0.48090967535972595,"200":-1.7842047214508057,"201":0.6116942167282104,"202":1.3757888078689575,"203":1.572843313217163,"204":0.7390669584274292,"205":-0.7015089392662048,"206":0.1823125034570694,"207":-1.694998860359192,"208":-0.5815242528915405,"209":-1.1403892040252686,"210":-1.1082671880722046,"211":1.0286104679107666,"212":-1.0892176628112793,"213":-0.20487384498119354,"214":0.3323361575603485,"215":-0.12756244838237762,"216":4.02324914932251,"217":0.29392263293266296,"218":-0.6416682004928589,"219":-1.2619423866271973,"220":-0.2412174493074417,"221":-1.216851830482483,"222":0.9904295206069946,"223":-1.1768088340759277,"224":-0.05564752593636513,"225":0.275754451751709,"226":-1.1261388063430786,"227":-0.504397451877594,"228":-1.228603720664978,"229":-1.7165216207504272,"230":0.9863805770874023,"231":-1.6923784017562866,"232":-0.2665422558784485,"233":0.4134015738964081,"234":-0.3225966989994049,"235":3.5803656578063965,"236":0.1276772916316986,"237":-0.3026800751686096,"238":-1.6394261121749878,"239":-0.16994842886924744,"240":-1.079793930053711,"241":1.332382082939148,"242":-0.585170567035675,"243":-0.337809681892395,"244":0.2997834086418152,"245":-1.6586084365844727,"246":-0.9143984913825989,"247":1.9652761220932007,"248":1.7049671411514282,"249":-1.1773649454116821,"250":-0.2511984407901764,"251":-0.5223633646965027,"252":-0.18097533285617828,"253":0.8321455717086792,"254":-1.049328088760376,"255":0.44928914308547974,"256":1.268968939781189,"257":-0.6192754507064819,"258":0.4683009386062622,"259":-0.1528225988149643,"260":-1.6710302829742432,"261":-0.2796873450279236,"262":-0.4730398654937744,"263":-1.7314467430114746,"264":-1.44731605052948,"265":-0.574795663356781,"266":-0.15912024676799774,"267":-1.0843849182128906,"268":0.8433530926704407,"269":-1.044510841369629,"270":0.8095443844795227,"271":0.6006937026977539,"272":0.6915651559829712,"273":2.0931341648101807,"274":-0.8328395485877991,"275":0.7125945091247559,"276":-1.169442892074585,"277":-1.2383977174758911,"278":-1.4960449934005737,"279":1.0995639562606812,"280":-1.3230900764465332,"281":0.5648184418678284,"282":-1.3513007164001465,"283":-1.2596997022628784,"284":0.7196502685546875,"285":0.4293835461139679,"286":2.2479920387268066,"287":-3.222184419631958,"288":0.8686687350273132,"289":0.5686144828796387,"290":0.31320708990097046,"291":1.046289324760437,"292":-1.151877760887146,"293":-0.861402153968811,"294":1.3347225189208984,"295":-0.5228357315063477,"296":-0.1002839207649231,"297":-0.13528019189834595,"298":1.6412307024002075,"299":-0.364146888256073,"300":0.720382809638977,"301":-0.7712223529815674,"302":-0.8949729204177856,"303":0.8792778849601746,"304":-0.3176857829093933,"305":-1.996039628982544,"306":1.7519598007202148,"307":-0.2527960538864136,"308":-0.34223008155822754,"309":-0.04620855674147606,"310":-0.18233786523342133,"311":-0.09749431163072586,"312":0.7282408475875854,"313":-0.7814089059829712,"314":-1.3170894384384155,"315":0.18140369653701782,"316":0.3798314034938812,"317":1.9725478887557983,"318":0.1320144236087799,"319":-0.2867227792739868,"320":-0.19005019962787628,"321":-2.112018585205078,"322":0.27510616183280945,"323":-0.9206657409667969,"324":-1.3753029108047485,"325":0.8855214715003967,"326":-1.675336480140686,"327":0.018253562971949577,"328":0.44349366426467896,"329":-0.1834593266248703,"330":0.4316122829914093,"331":0.10480558127164841,"332":-0.1223096251487732,"333":-2.5683557987213135,"334":-0.053479984402656555,"335":0.34578150510787964,"336":2.505690574645996,"337":0.029852310195565224,"338":0.1053519919514656,"339":-0.44396308064460754,"340":-1.8889188766479492,"341":0.19416235387325287,"342":-0.0693339854478836,"343":0.5230572819709778,"344":-0.29062849283218384,"345":-0.6977852582931519,"346":-0.08609769493341446,"347":-0.2852028012275696,"348":0.1648987978696823,"349":0.5230419635772705,"350":-0.029162799939513206,"351":0.0734323039650917,"352":-0.3300461769104004,"353":0.4634331464767456,"354":0.4834522306919098,"355":0.06311578303575516,"356":0.09908924251794815,"357":-0.42787396907806396,"358":-0.0005326586542651057,"359":-0.5774284601211548,"360":-0.378415048122406,"361":-0.5985031723976135,"362":-1.1590509414672852,"363":1.1444077491760254,"364":-0.8662964701652527,"365":-0.15917560458183289,"366":-0.10542656481266022,"367":-0.3414251506328583,"368":0.6542842388153076,"369":0.5221103429794312,"370":-0.6045151352882385,"371":-0.9280701279640198,"372":0.36848562955856323,"373":0.3346254229545593,"374":0.8934069871902466,"375":0.39275383949279785,"376":-0.2855420410633087,"377":0.18772965669631958,"378":-0.9860511422157288,"379":-0.1533021330833435}},"hiddenLayers":[{"inputMatrix":{"rows":20,"columns":19,"weights":{"0":1.4268018007278442,"1":1.2480500936508179,"2":-0.49913111329078674,"3":0.22597019374370575,"4":-0.27223673462867737,"5":-0.29599931836128235,"6":0.21407213807106018,"7":-0.4792272448539734,"8":0.13168376684188843,"9":-0.21804875135421753,"10":0.12372680008411407,"11":-0.2786983847618103,"12":0.4775494933128357,"13":-0.7291633486747742,"14":0.25074848532676697,"15":-0.6261387467384338,"16":-0.1754654347896576,"17":0.41858598589897156,"18":-0.21361993253231049,"19":-0.2193409502506256,"20":0.18402153253555298,"21":-0.12066525965929031,"22":-0.008578288368880749,"23":0.2909016013145447,"24":0.26298776268959045,"25":0.5227299928665161,"26":-1.1878199577331543,"27":-0.7323095798492432,"28":0.7933300137519836,"29":0.04143306612968445,"30":-0.009067482315003872,"31":0.25943368673324585,"32":0.304616779088974,"33":0.3773249089717865,"34":0.725171685218811,"35":-0.13826507329940796,"36":0.30961307883262634,"37":0.954123318195343,"38":-0.31640246510505676,"39":0.12991763651371002,"40":0.5809771418571472,"41":0.787196695804596,"42":-0.2755163609981537,"43":-0.02887626923620701,"44":-0.23732121288776398,"45":0.349692165851593,"46":0.05526150390505791,"47":-0.45101988315582275,"48":0.1503843069076538,"49":-0.608517587184906,"50":-0.5557674169540405,"51":-0.0706312358379364,"52":-0.5234987735748291,"53":0.2416006326675415,"54":-0.04188554733991623,"55":0.6795946359634399,"56":0.4626593589782715,"57":-0.22441813349723816,"58":0.6578214168548584,"59":-0.393340140581131,"60":0.13884004950523376,"61":-0.16948212683200836,"62":0.36766526103019714,"63":0.3481490910053253,"64":0.4692903161048889,"65":-0.2469390630722046,"66":0.06163489446043968,"67":-0.3527475893497467,"68":-0.21809546649456024,"69":0.6867326498031616,"70":-0.3838523030281067,"71":-0.18221411108970642,"72":0.028036614879965782,"73":-0.6803751587867737,"74":-0.054896872490644455,"75":-0.03166651353240013,"76":-0.03551454469561577,"77":0.7464730143547058,"78":-0.22684746980667114,"79":1.175726294517517,"80":-0.1979755163192749,"81":0.6142751574516296,"82":-0.305233359336853,"83":0.5319093465805054,"84":0.517534613609314,"85":-0.6544289588928223,"86":-0.08071425557136536,"87":-0.5343385934829712,"88":0.10663261264562607,"89":-1.006101131439209,"90":0.3958960175514221,"91":-0.7511577010154724,"92":1.1420165300369263,"93":0.391157865524292,"94":-0.7574002146720886,"95":-0.2807406485080719,"96":-0.3501545190811157,"97":0.6081997752189636,"98":0.4852259159088135,"99":-1.2144209146499634,"100":0.1527891457080841,"101":-0.7621415853500366,"102":0.12661229074001312,"103":1.1465743780136108,"104":-1.3203136920928955,"105":0.1766381859779358,"106":-0.20559380948543549,"107":0.41788169741630554,"108":-0.13424372673034668,"109":-0.17820453643798828,"110":-1.1052926778793335,"111":0.4688947796821594,"112":-0.345719575881958,"113":-1.2572438716888428,"114":0.6372129321098328,"115":0.4951294958591461,"116":-0.6392041444778442,"117":-0.1251646727323532,"118":-0.2905420660972595,"119":-0.12778928875923157,"120":-0.2041686624288559,"121":-0.040570568293333054,"122":0.30634158849716187,"123":-0.22983726859092712,"124":0.3200993537902832,"125":0.11442984640598297,"126":-0.04143455624580383,"127":-0.46240130066871643,"128":0.33803483843803406,"129":-0.5219570994377136,"130":0.42687034606933594,"131":0.3523959219455719,"132":-0.8312140703201294,"133":0.5829637050628662,"134":0.12328256666660309,"135":-0.41637173295021057,"136":-0.13804517686367035,"137":0.6319217085838318,"138":0.8432797789573669,"139":0.20417138934135437,"140":-1.1666350364685059,"141":0.2056955248117447,"142":-0.3268592357635498,"143":0.2567117214202881,"144":-0.8081220984458923,"145":0.10436443239450455,"146":0.12007627636194229,"147":1.1034376621246338,"148":-0.29230061173439026,"149":-0.24247613549232483,"150":0.09252658486366272,"151":0.3022976219654083,"152":1.7062844038009644,"153":0.5752885341644287,"154":-0.3659108579158783,"155":-0.0634741261601448,"156":-0.506651759147644,"157":0.4650472104549408,"158":-0.26386094093322754,"159":-0.8748446702957153,"160":0.744780957698822,"161":-0.5169841647148132,"162":0.6519783139228821,"163":-0.869745135307312,"164":-0.1621846705675125,"165":-0.9038224220275879,"166":0.5967907905578613,"167":-0.7430046200752258,"168":-0.6913475394248962,"169":0.6512323021888733,"170":-0.30422770977020264,"171":-0.04790710657835007,"172":0.8114128112792969,"173":0.08150400221347809,"174":0.3494660258293152,"175":-0.402159184217453,"176":0.2931164801120758,"177":0.4474298059940338,"178":-0.025213057175278664,"179":0.14744138717651367,"180":-0.36839547753334045,"181":-0.3831322491168976,"182":-0.015241417102515697,"183":1.2339202165603638,"184":-0.3234149217605591,"185":-0.03482270613312721,"186":-0.10780786722898483,"187":-0.9851976037025452,"188":-0.5882619619369507,"189":0.3378329873085022,"190":-0.9847474098205566,"191":-0.048723939806222916,"192":0.7231827974319458,"193":1.1892622709274292,"194":0.08952027559280396,"195":0.8699937462806702,"196":-0.22288556396961212,"197":1.3027667999267578,"198":-0.16950921714305878,"199":-0.30958399176597595,"200":0.18031783401966095,"201":-0.9116197228431702,"202":-1.5511494874954224,"203":-0.6703124046325684,"204":-1.364072322845459,"205":0.33412766456604004,"206":0.25126364827156067,"207":0.8348040580749512,"208":-0.2304980307817459,"209":0.06695662438869476,"210":-0.7327448725700378,"211":0.623627245426178,"212":0.6900991797447205,"213":0.09090495854616165,"214":-0.18360213935375214,"215":-0.05617532506585121,"216":-0.15290246903896332,"217":-0.48756372928619385,"218":0.30579355359077454,"219":0.19372373819351196,"220":-0.43221569061279297,"221":-0.9948232173919678,"222":0.002803072100505233,"223":-0.6148742437362671,"224":0.22647857666015625,"225":0.35723796486854553,"226":0.25855547189712524,"227":-0.04941811040043831,"228":-0.9605867862701416,"229":-0.7147329449653625,"230":1.1161783933639526,"231":0.020579829812049866,"232":0.11449739336967468,"233":0.3843495845794678,"234":0.036080408841371536,"235":2.146517038345337,"236":0.1110498309135437,"237":-0.503262460231781,"238":-0.7391427159309387,"239":-0.22033846378326416,"240":0.014991974458098412,"241":0.42104268074035645,"242":-0.13626378774642944,"243":0.21750544011592865,"244":-0.03834739327430725,"245":-0.3440376818180084,"246":0.0674775019288063,"247":0.7355884313583374,"248":0.5081499814987183,"249":-0.3638248145580292,"250":0.7760187387466431,"251":-0.4598141312599182,"252":0.06053858995437622,"253":-0.4311404526233673,"254":-0.8989382982254028,"255":0.5850762724876404,"256":-0.5362258553504944,"257":0.5094500184059143,"258":-0.3142126500606537,"259":-0.09562812000513077,"260":-0.5035849213600159,"261":0.534592866897583,"262":-0.6871253848075867,"263":0.40616312623023987,"264":0.49655112624168396,"265":-0.640308678150177,"266":-0.24979358911514282,"267":-0.1430593729019165,"268":0.15646237134933472,"269":-0.7884048819541931,"270":-0.40043142437934875,"271":-0.10901666432619095,"272":-0.2944749593734741,"273":0.8761631846427917,"274":0.3286419212818146,"275":-0.24148617684841156,"276":-0.10723219811916351,"277":0.3849341869354248,"278":-0.2613879442214966,"279":-0.18917040526866913,"280":0.06443661451339722,"281":-0.45621636509895325,"282":0.5813195705413818,"283":-0.045054830610752106,"284":-0.6833953261375427,"285":0.699842095375061,"286":0.050511907786130905,"287":-0.5033265948295593,"288":-1.0377260446548462,"289":1.0965726375579834,"290":-0.5945054888725281,"291":0.27098026871681213,"292":-2.3947038650512695,"293":-1.0056700706481934,"294":1.7504082918167114,"295":0.12314441055059433,"296":0.3441925644874573,"297":-0.6010921001434326,"298":0.6246761679649353,"299":0.11231450736522675,"300":0.34070637822151184,"301":0.3855789601802826,"302":-0.13051989674568176,"303":0.5870563387870789,"304":-0.2671028673648834,"305":-0.026102304458618164,"306":0.19568626582622528,"307":-0.5478014945983887,"308":0.20861351490020752,"309":0.09640403091907501,"310":0.604861855506897,"311":-0.6274833679199219,"312":-0.3560892641544342,"313":0.4050917327404022,"314":-0.4936956465244293,"315":0.14772267639636993,"316":0.854672908782959,"317":0.3124326467514038,"318":0.29429396986961365,"319":0.25603628158569336,"320":-0.7149201035499573,"321":-0.7918935418128967,"322":0.5100114345550537,"323":0.687457799911499,"324":0.9377379417419434,"325":-0.7300679683685303,"326":-0.563994824886322,"327":0.8909866213798523,"328":-0.8316240906715393,"329":0.717934787273407,"330":-1.93418288230896,"331":-0.9762867093086243,"332":1.2852762937545776,"333":-0.08514442294836044,"334":0.3808259665966034,"335":0.5083099007606506,"336":0.0586322546005249,"337":0.9550016522407532,"338":0.48874178528785706,"339":-0.17251180112361908,"340":0.38861319422721863,"341":1.324200987815857,"342":0.06742101907730103,"343":0.5169152617454529,"344":-1.1394606828689575,"345":-0.45243707299232483,"346":0.6066473722457886,"347":-0.5469934344291687,"348":0.295106440782547,"349":-1.4095313549041748,"350":-0.6888321042060852,"351":1.2173820734024048,"352":0.10642323642969131,"353":0.4841076135635376,"354":0.035344988107681274,"355":0.3127930462360382,"356":0.6264101266860962,"357":0.3451392948627472,"358":-0.20183336734771729,"359":0.11293923854827881,"360":0.7693080902099609,"361":-1.0353763103485107,"362":-0.9981862902641296,"363":0.9513570666313171,"364":-0.6002690196037292,"365":-0.4719846844673157,"366":-0.24836045503616333,"367":-0.44733646512031555,"368":-0.3119695782661438,"369":0.06526772677898407,"370":-0.07061648368835449,"371":-0.330765038728714,"372":0.22514402866363525,"373":-0.22626860439777374,"374":-0.04184587672352791,"375":-0.2696903645992279,"376":-0.06140446290373802,"377":0.7546144127845764,"378":-0.07817568629980087,"379":-0.35591748356819153}},"inputHidden":{"rows":20,"columns":20,"weights":{"0":-0.8005557656288147,"1":-0.8710286021232605,"2":-0.840121865272522,"3":0.09912270307540894,"4":0.06786086410284042,"5":0.17844818532466888,"6":-0.06935753673315048,"7":-0.8508096933364868,"8":-0.7354625463485718,"9":-0.05394125357270241,"10":0.7486874461174011,"11":-0.7936004400253296,"12":-0.48741066455841064,"13":-0.1178676187992096,"14":0.26686638593673706,"15":-0.2325136661529541,"16":-0.08428490906953812,"17":-0.16535025835037231,"18":-0.2585727274417877,"19":0.21810777485370636,"20":-0.13958853483200073,"21":-0.9045317769050598,"22":-0.03864927217364311,"23":-1.268757700920105,"24":0.057983797043561935,"25":0.8263320922851562,"26":0.15228869020938873,"27":-0.21413496136665344,"28":-0.09092435240745544,"29":1.2619566917419434,"30":0.8131328821182251,"31":-0.11668211966753006,"32":0.14635922014713287,"33":0.10942023992538452,"34":-1.040122628211975,"35":-1.0918552875518799,"36":1.1856732368469238,"37":1.173577070236206,"38":1.0543988943099976,"39":0.23696355521678925,"40":-1.0821833610534668,"41":-2.638017177581787,"42":-1.5653895139694214,"43":-1.1816365718841553,"44":-0.02507600374519825,"45":-0.38935425877571106,"46":-0.15392646193504333,"47":-0.5209118723869324,"48":-0.5421968698501587,"49":1.1659165620803833,"50":1.7278140783309937,"51":-0.37948885560035706,"52":-0.22349883615970612,"53":-0.2578117549419403,"54":0.5700237154960632,"55":-1.2800989151000977,"56":1.2739744186401367,"57":1.030184030532837,"58":1.33627450466156,"59":0.3814275860786438,"60":0.21396404504776,"61":-0.7588886022567749,"62":0.4653782546520233,"63":-0.33659037947654724,"64":0.44040387868881226,"65":0.7440478801727295,"66":0.3881126940250397,"67":-0.17354528605937958,"68":0.2925315499305725,"69":0.7561547756195068,"70":1.4653724431991577,"71":-1.360543131828308,"72":-1.6928929090499878,"73":0.346585750579834,"74":-1.113024353981018,"75":-0.273782879114151,"76":0.385385662317276,"77":0.4331974387168884,"78":0.49581608176231384,"79":-0.5128046870231628,"80":-0.2843647301197052,"81":0.15953822433948517,"82":0.40762680768966675,"83":0.3556525707244873,"84":0.19964176416397095,"85":-0.20866446197032928,"86":0.2069263607263565,"87":-0.16319234669208527,"88":0.19647124409675598,"89":-0.24002425372600555,"90":0.8403698801994324,"91":-0.27616357803344727,"92":-0.9949542284011841,"93":0.047014933079481125,"94":0.5540124177932739,"95":0.20537102222442627,"96":-0.2994779646396637,"97":-0.32748302817344666,"98":0.0585433766245842,"99":-0.15882132947444916,"100":-1.15141761302948,"101":-0.04791807755827904,"102":-2.503229856491089,"103":-0.0673932433128357,"104":-0.5631352663040161,"105":-0.46161922812461853,"106":0.37516891956329346,"107":-0.6961013674736023,"108":-0.5488232374191284,"109":0.06878778338432312,"110":-1.4556397199630737,"111":0.39879047870635986,"112":-0.5650627017021179,"113":0.3988338112831116,"114":0.0377613790333271,"115":0.07765169441699982,"116":0.03817456215620041,"117":-0.1249268501996994,"118":-0.11739057302474976,"119":-1.704771876335144,"120":-0.16342057287693024,"121":0.6539419293403625,"122":-0.06982290744781494,"123":0.7012037038803101,"124":0.018858999013900757,"125":-0.1864704191684723,"126":0.024870041757822037,"127":-0.1055934727191925,"128":-0.16664376854896545,"129":-0.7351504564285278,"130":-0.08783135563135147,"131":-0.1326521635055542,"132":-0.23773746192455292,"133":-0.10269620269536972,"134":0.5392236113548279,"135":0.5470703840255737,"136":-0.6941458582878113,"137":-0.6491180062294006,"138":-0.5660876035690308,"139":0.24854324758052826,"140":-1.1079574823379517,"141":-1.1808069944381714,"142":-2.296377658843994,"143":-0.41653871536254883,"144":-0.5545724034309387,"145":-0.17390358448028564,"146":0.09506335854530334,"147":-0.9923444390296936,"148":-0.8406770825386047,"149":0.29910755157470703,"150":-0.04824722930788994,"151":-0.5988980531692505,"152":-0.5621683597564697,"153":0.21379585564136505,"154":0.6116918325424194,"155":-0.6407757997512817,"156":0.42736297845840454,"157":0.4966890811920166,"158":-0.18559646606445312,"159":1.065935492515564,"160":0.4085296392440796,"161":-0.0962558314204216,"162":-0.9384933114051819,"163":0.3683149814605713,"164":-0.7983892560005188,"165":-0.08265499025583267,"166":0.17758604884147644,"167":0.28121864795684814,"168":0.11124706268310547,"169":-0.39250627160072327,"170":0.34628230333328247,"171":-1.0034592151641846,"172":-0.2239442765712738,"173":0.3963119089603424,"174":0.5586891174316406,"175":0.12741124629974365,"176":-0.32532933354377747,"177":-0.3009551465511322,"178":-0.38797685503959656,"179":1.7467137575149536,"180":-0.009377970360219479,"181":-0.528110682964325,"182":0.7142648696899414,"183":-0.32030269503593445,"184":0.8130858540534973,"185":0.2215694636106491,"186":-0.024524908512830734,"187":-0.29774561524391174,"188":0.02458549663424492,"189":0.5075226426124573,"190":0.5007680058479309,"191":0.03398468345403671,"192":-1.0997025966644287,"193":0.42946261167526245,"194":-0.6655838489532471,"195":-0.1466250717639923,"196":0.27699536085128784,"197":0.27841916680336,"198":0.39571624994277954,"199":-0.4034843444824219,"200":0.08355285227298737,"201":0.20077824592590332,"202":0.08955081552267075,"203":0.47819581627845764,"204":-0.17854279279708862,"205":-0.05445806309580803,"206":0.01968502625823021,"207":0.09563607722520828,"208":0.08305129408836365,"209":-0.5393131971359253,"210":0.7406512498855591,"211":-0.320269912481308,"212":-0.561775803565979,"213":0.110407255589962,"214":0.6787288188934326,"215":0.39486709237098694,"216":-0.3947923183441162,"217":-0.5115250945091248,"218":-0.2879756987094879,"219":0.38071438670158386,"220":1.3309621810913086,"221":-1.41069495677948,"222":-2.873218059539795,"223":-0.43644359707832336,"224":-1.646994948387146,"225":-0.10054163634777069,"226":0.7918026447296143,"227":1.2762707471847534,"228":2.4950876235961914,"229":0.17903675138950348,"230":2.98797607421875,"231":-1.9526910781860352,"232":-1.174470067024231,"233":2.4147679805755615,"234":0.7127237319946289,"235":-0.7716917395591736,"236":0.34938308596611023,"237":0.8134551644325256,"238":0.9512851238250732,"239":2.741579055786133,"240":-1.7249722480773926,"241":-0.19786547124385834,"242":-1.8586113452911377,"243":0.10571560263633728,"244":0.2591949701309204,"245":0.41935914754867554,"246":-0.03627685829997063,"247":-1.222078561782837,"248":-1.5167237520217896,"249":-0.09799375385046005,"250":0.44809862971305847,"251":-0.5917094349861145,"252":-0.5370275974273682,"253":-0.15727494657039642,"254":0.22386448085308075,"255":0.06553134322166443,"256":-0.038550786674022675,"257":-0.1940644383430481,"258":-0.30238521099090576,"259":-0.12125007063150406,"260":0.008184166625142097,"261":-0.1287633329629898,"262":-0.5788305401802063,"263":0.24069973826408386,"264":-0.2398393601179123,"265":-0.1227450966835022,"266":-0.08245289325714111,"267":0.11250841617584229,"268":-0.02780301682651043,"269":-0.29889988899230957,"270":0.37120166420936584,"271":-0.5517570972442627,"272":-0.24077212810516357,"273":0.03960425406694412,"274":0.58574378490448,"275":0.23011331260204315,"276":-0.18536412715911865,"277":-0.23476943373680115,"278":-0.1321127861738205,"279":0.905070960521698,"280":0.09772416204214096,"281":-0.45269322395324707,"282":-0.1357279270887375,"283":-0.5567376613616943,"284":0.2013784497976303,"285":0.5406060814857483,"286":-0.20466360449790955,"287":0.0052903504110872746,"288":0.04088800027966499,"289":0.6851345896720886,"290":-0.5255241990089417,"291":0.31749585270881653,"292":-0.2831791341304779,"293":0.056479182094335556,"294":-0.530959963798523,"295":-0.644487202167511,"296":0.6157525181770325,"297":0.7040802836418152,"298":0.6831884980201721,"299":-0.3521927297115326,"300":1.6567436456680298,"301":-0.05179325491189957,"302":0.8515443205833435,"303":-0.40818503499031067,"304":-1.5193445682525635,"305":0.6196657419204712,"306":0.33744820952415466,"307":1.549897313117981,"308":1.574293851852417,"309":0.640789806842804,"310":-1.4698905944824219,"311":0.5609902739524841,"312":-0.303754597902298,"313":0.2916378974914551,"314":-0.6975148916244507,"315":-0.2663974165916443,"316":0.535541296005249,"317":0.5583788156509399,"318":0.042727645486593246,"319":-0.31245315074920654,"320":0.2552465796470642,"321":-0.9544678926467896,"322":0.5583022236824036,"323":-0.6422051787376404,"324":0.490541011095047,"325":0.46768829226493835,"326":0.3087463974952698,"327":-0.2589433491230011,"328":0.3494732081890106,"329":0.8990256786346436,"330":0.8745807409286499,"331":-0.47772812843322754,"332":-1.6159542798995972,"333":0.5466353893280029,"334":-0.909838080406189,"335":-0.1607428938150406,"336":0.6054846048355103,"337":0.5674723982810974,"338":0.5515827536582947,"339":-0.3443201184272766,"340":0.26709237694740295,"341":-0.1250223070383072,"342":0.016154158860445023,"343":-0.20464196801185608,"344":0.18295155465602875,"345":0.4613337814807892,"346":0.011636245995759964,"347":0.19476601481437683,"348":0.31605714559555054,"349":0.2913534939289093,"350":0.6573181748390198,"351":-0.4236615002155304,"352":-0.1827736794948578,"353":0.2616284489631653,"354":-0.5273996591567993,"355":-0.1650247424840927,"356":0.1599876880645752,"357":0.2773941159248352,"358":-0.05301792547106743,"359":-0.22110526263713837,"360":1.1525721549987793,"361":0.3067111074924469,"362":1.2024519443511963,"363":-0.09742065519094467,"364":-0.07565673440694809,"365":0.46121737360954285,"366":-0.1347649246454239,"367":0.8884746432304382,"368":1.381176233291626,"369":0.3032011091709137,"370":0.4834701120853424,"371":-0.6046457290649414,"372":-0.4275146424770355,"373":0.05433857440948486,"374":-0.41389593482017517,"375":0.022603819146752357,"376":0.17242823541164398,"377":0.3007333278656006,"378":0.37671712040901184,"379":-0.7097179293632507,"380":-0.4035801291465759,"381":-1.5344021320343018,"382":-1.200049877166748,"383":-1.5859235525131226,"384":-1.3513224124908447,"385":-0.830880880355835,"386":0.4158304035663605,"387":0.6123936176300049,"388":0.58016437292099,"389":1.4876708984375,"390":-0.20881439745426178,"391":0.4776995778083801,"392":2.074476480484009,"393":0.40251296758651733,"394":0.3467952013015747,"395":-0.8423848748207092,"396":1.4977489709854126,"397":1.20987069606781,"398":1.227540373802185,"399":1.0160382986068726}},"inputBias":{"rows":20,"columns":1,"weights":{"0":-0.3857974112033844,"1":-0.65196293592453,"2":-0.20592539012432098,"3":-0.33708614110946655,"4":0.4233536720275879,"5":0.3291473090648651,"6":-0.4138713777065277,"7":-0.25590354204177856,"8":-0.36266037821769714,"9":-0.30749228596687317,"10":0.6324174404144287,"11":-0.17754898965358734,"12":0.5581125617027283,"13":-0.06704272329807281,"14":-0.36769166588783264,"15":-0.7965662479400635,"16":-0.3967873454093933,"17":-0.4277817904949188,"18":-0.5120728015899658,"19":-0.8423210978507996}},"forgetMatrix":{"rows":20,"columns":19,"weights":{"0":0.6462439298629761,"1":0.23312604427337646,"2":-0.32012808322906494,"3":0.2881961464881897,"4":0.358569860458374,"5":0.5863877534866333,"6":0.14761783182621002,"7":0.18544462323188782,"8":-0.4568028151988983,"9":0.36963871121406555,"10":0.4554103910923004,"11":-0.8176381587982178,"12":-1.1228668689727783,"13":-0.3066483438014984,"14":-0.6586198806762695,"15":0.3203084170818329,"16":-0.3033703565597534,"17":0.7750257253646851,"18":0.342804878950119,"19":0.17198866605758667,"20":0.2007775604724884,"21":-0.2304392009973526,"22":0.32451197504997253,"23":-0.02490978315472603,"24":0.10047601908445358,"25":0.4299014210700989,"26":0.02757871523499489,"27":-0.4739793539047241,"28":0.5702661275863647,"29":-0.01663924567401409,"30":-0.0035473990719765425,"31":-0.04454163461923599,"32":0.2614701986312866,"33":-0.08343944698572159,"34":0.33349865674972534,"35":-0.21104654669761658,"36":-0.1798633188009262,"37":0.27369099855422974,"38":-0.46932196617126465,"39":-0.07033879309892654,"40":0.20921681821346283,"41":-0.07601861655712128,"42":0.8745553493499756,"43":0.7959508299827576,"44":0.16685236990451813,"45":1.3346368074417114,"46":-0.5087915658950806,"47":0.5462400913238525,"48":0.920626699924469,"49":0.1610717624425888,"50":-1.5837123394012451,"51":-0.36146944761276245,"52":-0.2529219090938568,"53":0.8584269881248474,"54":0.07131925225257874,"55":1.3734759092330933,"56":0.45679986476898193,"57":0.4144403040409088,"58":0.22024492919445038,"59":-0.5033858418464661,"60":0.07953623682260513,"61":-0.03442176431417465,"62":-0.2614686191082001,"63":-0.1376856118440628,"64":-0.3450902998447418,"65":0.1321936845779419,"66":-0.07350918650627136,"67":0.16307133436203003,"68":-0.19726307690143585,"69":0.16227105259895325,"70":-0.2071663737297058,"71":0.2097596973180771,"72":-0.15196159482002258,"73":0.23269692063331604,"74":0.07051464170217514,"75":-0.0256380345672369,"76":-0.6029788255691528,"77":-0.26442086696624756,"78":0.02960345707833767,"79":-0.24400469660758972,"80":0.0861656665802002,"81":0.11885841190814972,"82":-0.1367792934179306,"83":0.6005100011825562,"84":0.062406543642282486,"85":0.036369625478982925,"86":0.05740571394562721,"87":0.12230095267295837,"88":-0.5566174387931824,"89":0.0015328195877373219,"90":-0.05005642771720886,"91":0.10174037516117096,"92":0.25896725058555603,"93":0.15315549075603485,"94":-0.12638019025325775,"95":-0.03658292442560196,"96":-0.36143189668655396,"97":0.8125175833702087,"98":0.14573508501052856,"99":-1.3007254600524902,"100":-0.14588768780231476,"101":-0.8742977976799011,"102":0.345337450504303,"103":1.0881295204162598,"104":-1.2327286005020142,"105":0.08441795408725739,"106":0.09327879548072815,"107":0.46483084559440613,"108":-0.36011937260627747,"109":-0.18765297532081604,"110":-0.4092346429824829,"111":-0.2659003436565399,"112":-0.006723703816533089,"113":-1.0380892753601074,"114":-0.14319637417793274,"115":0.2546578049659729,"116":-0.2023090273141861,"117":0.07015667110681534,"118":0.06340999156236649,"119":0.17209085822105408,"120":0.15415339171886444,"121":0.08093024045228958,"122":-0.20038630068302155,"123":0.1484450250864029,"124":0.1992626041173935,"125":-0.22642472386360168,"126":-0.2303709089756012,"127":-0.12577171623706818,"128":-0.1141476184129715,"129":0.2045658975839615,"130":-0.1642429232597351,"131":0.33226022124290466,"132":0.05287112295627594,"133":-0.05551048368215561,"134":0.09010419249534607,"135":0.028175480663776398,"136":0.19400142133235931,"137":0.136330708861351,"138":0.3436598479747772,"139":-0.08806949853897095,"140":0.4616409242153168,"141":-0.1675284504890442,"142":0.0020115987863391638,"143":0.280446320772171,"144":-0.3461610674858093,"145":-0.7732236385345459,"146":-0.45029211044311523,"147":-0.4011177718639374,"148":0.2000950127840042,"149":0.034284815192222595,"150":0.6637803912162781,"151":0.029321907088160515,"152":0.6059170961380005,"153":0.816246747970581,"154":-0.6998116374015808,"155":-0.04304971545934677,"156":0.4390578866004944,"157":0.2574240565299988,"158":0.5814719796180725,"159":-0.0871177613735199,"160":-0.6639664769172668,"161":0.7699152827262878,"162":0.4100908041000366,"163":-0.42362576723098755,"164":-0.35495343804359436,"165":-0.310383677482605,"166":-0.472225159406662,"167":0.26706764101982117,"168":-0.5935654044151306,"169":0.26871630549430847,"170":0.495360791683197,"171":0.35341089963912964,"172":0.07956495136022568,"173":-0.3934750556945801,"174":0.1438165158033371,"175":-0.07442900538444519,"176":-0.27297109365463257,"177":-0.13402505218982697,"178":-0.38869330286979675,"179":0.08588912338018417,"180":-0.032104600220918655,"181":0.06085099279880524,"182":-0.29079997539520264,"183":0.2467617243528366,"184":-0.04438166692852974,"185":0.2241884469985962,"186":-0.2328609824180603,"187":0.28598883748054504,"188":-0.14489451050758362,"189":-0.12873101234436035,"190":0.21439817547798157,"191":-0.4381922483444214,"192":0.32353314757347107,"193":0.782529354095459,"194":-0.812221348285675,"195":-1.6262731552124023,"196":-0.5382100343704224,"197":-1.7478617429733276,"198":0.20207801461219788,"199":-0.18030519783496857,"200":-0.0847868099808693,"201":1.086732029914856,"202":1.1620125770568848,"203":0.10279533267021179,"204":0.40804338455200195,"205":-0.4057822823524475,"206":0.6362044215202332,"207":-0.4178621172904968,"208":-0.4989519417285919,"209":-0.18784290552139282,"210":0.44090184569358826,"211":-0.40712112188339233,"212":0.4658692181110382,"213":-0.5389717221260071,"214":-0.03619353100657463,"215":-0.1691218912601471,"216":-0.003968239761888981,"217":0.297011137008667,"218":-0.22881895303726196,"219":0.4331129789352417,"220":0.31712237000465393,"221":0.1250993013381958,"222":-0.6237261891365051,"223":-0.08395098149776459,"224":-0.5337175726890564,"225":0.3033892810344696,"226":0.19523932039737701,"227":-0.9769158363342285,"228":-0.8756452202796936,"229":-1.001092791557312,"230":1.672835111618042,"231":-0.19904713332653046,"232":-0.020593205466866493,"233":0.2540667951107025,"234":-0.2747468948364258,"235":0.8979600071907043,"236":0.14817120134830475,"237":-0.27914220094680786,"238":-0.02298606187105179,"239":-0.13224774599075317,"240":-0.2768740952014923,"241":-0.027619635686278343,"242":-0.209339439868927,"243":-0.04889471456408501,"244":0.14844980835914612,"245":0.2535150349140167,"246":-0.2001182585954666,"247":-0.19330210983753204,"248":0.06962304562330246,"249":0.11390923708677292,"250":0.10111157596111298,"251":-0.10514476150274277,"252":0.32244744896888733,"253":0.036768652498722076,"254":0.21807588636875153,"255":0.09479498863220215,"256":-0.28343841433525085,"257":0.1039651408791542,"258":-0.3452109396457672,"259":-0.1341567486524582,"260":-0.30649828910827637,"261":-0.21039582788944244,"262":0.049594782292842865,"263":-0.23230485618114471,"264":0.29805469512939453,"265":-0.09790130704641342,"266":0.00830101128667593,"267":-0.21644966304302216,"268":0.3794949948787689,"269":-0.15027886629104614,"270":-0.608697235584259,"271":-0.47549310326576233,"272":-0.5522220730781555,"273":0.11913296580314636,"274":0.6084619760513306,"275":-0.6910199522972107,"276":-0.014571973122656345,"277":0.22151930630207062,"278":0.48756077885627747,"279":-0.2538025677204132,"280":0.08852951973676682,"281":-0.5825534462928772,"282":0.48856407403945923,"283":0.09291461110115051,"284":-0.6349830031394958,"285":-0.001034549088217318,"286":-0.291934996843338,"287":0.14196419715881348,"288":-0.21838600933551788,"289":0.09993142634630203,"290":0.08577901124954224,"291":0.29718002676963806,"292":-0.6555835604667664,"293":-0.1774517297744751,"294":0.4545068144798279,"295":-0.048927731812000275,"296":0.015067367814481258,"297":-0.20623835921287537,"298":0.24230711162090302,"299":-0.06860719621181488,"300":0.23380671441555023,"301":-0.16041217744350433,"302":-0.028040369972586632,"303":0.255726158618927,"304":0.14189845323562622,"305":-0.10726158320903778,"306":-0.23474445939064026,"307":0.23761621117591858,"308":0.002408753614872694,"309":0.03323907405138016,"310":0.03643104061484337,"311":-0.3539154827594757,"312":-0.0034483682829886675,"313":0.06943542510271072,"314":0.03215344250202179,"315":-0.3087131679058075,"316":0.010646266862750053,"317":-0.03392776846885681,"318":0.10352309048175812,"319":0.1273447722196579,"320":0.18965968489646912,"321":0.006449428386986256,"322":-0.08286993950605392,"323":0.1671442985534668,"324":-0.1360047161579132,"325":-0.2820168733596802,"326":0.13510435819625854,"327":0.06049146503210068,"328":-0.042570292949676514,"329":0.18956978619098663,"330":-0.4801681637763977,"331":-0.21413026750087738,"332":0.18231765925884247,"333":-0.04350445792078972,"334":-0.11652767658233643,"335":-0.03630772605538368,"336":0.07854870706796646,"337":0.05536109581589699,"338":0.11454179137945175,"339":0.16077129542827606,"340":-0.009532245807349682,"341":0.07900023460388184,"342":0.27562835812568665,"343":-0.08383011817932129,"344":-0.2558327913284302,"345":-0.169130340218544,"346":0.15109935402870178,"347":0.0838608369231224,"348":0.19667021930217743,"349":-0.42646482586860657,"350":-0.09201034903526306,"351":0.19220100343227386,"352":-0.20241467654705048,"353":-0.06845581531524658,"354":-0.05530587211251259,"355":0.22694557905197144,"356":0.02718934416770935,"357":0.03502022102475166,"358":0.09003619849681854,"359":-0.2681543827056885,"360":0.22865217924118042,"361":-0.45812171697616577,"362":0.44511622190475464,"363":-0.022217536345124245,"364":0.013142252340912819,"365":0.23027288913726807,"366":0.16744400560855865,"367":0.18774351477622986,"368":0.3580329120159149,"369":-0.09830474853515625,"370":-0.09208524972200394,"371":0.10395542532205582,"372":0.4888155460357666,"373":0.2434747964143753,"374":-0.1637834906578064,"375":0.31719771027565,"376":0.25807878375053406,"377":-0.314460813999176,"378":-0.09979894757270813,"379":-0.2518516182899475}},"forgetHidden":{"rows":20,"columns":20,"weights":{"0":0.10683917999267578,"1":0.31154492497444153,"2":-0.024570951238274574,"3":0.5277255177497864,"4":0.006021732464432716,"5":-0.19458037614822388,"6":-0.05806364491581917,"7":0.00015012244693934917,"8":-0.049040213227272034,"9":-0.5495576858520508,"10":-0.18146374821662903,"11":0.303581178188324,"12":-0.09109605103731155,"13":-0.30489253997802734,"14":0.2198723554611206,"15":0.4974426031112671,"16":-0.5867236852645874,"17":-0.5850979089736938,"18":-0.3344874083995819,"19":-0.2647385001182556,"20":-0.1483403891324997,"21":-0.9149525761604309,"22":-0.05734071135520935,"23":-1.0536184310913086,"24":0.04901684820652008,"25":0.5810830593109131,"26":-0.06997397541999817,"27":-0.1412373036146164,"28":-0.08104698359966278,"29":1.0916990041732788,"30":0.12301414459943771,"31":0.14426854252815247,"32":0.14703790843486786,"33":-0.08995780348777771,"34":-0.8097203373908997,"35":-1.0435023307800293,"36":1.0828114748001099,"37":0.9339519143104553,"38":1.0362621545791626,"39":0.18902543187141418,"40":-0.2336384356021881,"41":-0.025988280773162842,"42":-0.4728361666202545,"43":0.3789478838443756,"44":-0.30624815821647644,"45":-0.092029869556427,"46":-0.13585740327835083,"47":0.22937791049480438,"48":0.013552375137805939,"49":-0.37909233570098877,"50":0.1752294898033142,"51":0.49143508076667786,"52":0.12369249016046524,"53":-0.3895522356033325,"54":0.2702195942401886,"55":0.1292569488286972,"56":-0.3294627368450165,"57":-0.1639614999294281,"58":0.4046633243560791,"59":0.3877054750919342,"60":-0.13270045816898346,"61":-0.4352153539657593,"62":-0.1237279549241066,"63":-1.0573792457580566,"64":0.2978993356227875,"65":1.0735191106796265,"66":-0.24654705822467804,"67":-0.19759756326675415,"68":-0.059274543076753616,"69":1.1673848628997803,"70":0.04444039613008499,"71":0.13949993252754211,"72":0.4339290261268616,"73":-0.1616494506597519,"74":-1.0578945875167847,"75":-0.8556651473045349,"76":1.0264943838119507,"77":1.0747929811477661,"78":0.8943009972572327,"79":-0.5056046843528748,"80":0.05693039670586586,"81":0.4295080304145813,"82":0.02094321884214878,"83":0.48080089688301086,"84":-0.2637662887573242,"85":-0.08146748691797256,"86":0.12834009528160095,"87":0.06477086991071701,"88":0.07908313721418381,"89":-0.48877429962158203,"90":0.041489262133836746,"91":-0.1775180995464325,"92":0.017000069841742516,"93":0.04489031806588173,"94":0.4197477698326111,"95":0.456315279006958,"96":-0.40563473105430603,"97":-0.3837988078594208,"98":-0.43414440751075745,"99":0.19865672290325165,"100":0.15658429265022278,"101":0.3106781840324402,"102":0.08891060203313828,"103":0.26940402388572693,"104":-0.28491756319999695,"105":-0.37108924984931946,"106":0.12257295101881027,"107":0.23503068089485168,"108":-0.11360520869493484,"109":-0.2580721974372864,"110":-0.7401118874549866,"111":0.5827757120132446,"112":-0.2824583947658539,"113":-0.03786350414156914,"114":0.17218825221061707,"115":0.28355106711387634,"116":-0.16875363886356354,"117":-0.4635349214076996,"118":-0.18097186088562012,"119":-0.017928706482052803,"120":-0.05230112001299858,"121":0.14810319244861603,"122":-0.11187095195055008,"123":0.40503793954849243,"124":-0.12125804275274277,"125":-0.16446150839328766,"126":0.01686890609562397,"127":-0.04734652116894722,"128":-0.07126524299383163,"129":-0.3469960391521454,"130":-0.09038900583982468,"131":-0.08000146597623825,"132":-0.05895652621984482,"133":-0.09940561652183533,"134":0.31613489985466003,"135":0.2074175775051117,"136":-0.3101484775543213,"137":-0.35312220454216003,"138":-0.3601020574569702,"139":0.18035033345222473,"140":0.33837994933128357,"141":0.6506117582321167,"142":0.23315724730491638,"143":0.7635177373886108,"144":-0.018072761595249176,"145":-0.21895265579223633,"146":0.024894744157791138,"147":0.33070167899131775,"148":0.2041909247636795,"149":-0.7989344000816345,"150":-0.09661485254764557,"151":-0.07012894749641418,"152":-0.1077830046415329,"153":-0.0525088757276535,"154":0.3675588369369507,"155":0.7327255010604858,"156":-0.7447369694709778,"157":-0.6745526790618896,"158":-0.3213614523410797,"159":0.0211300291121006,"160":-0.6305765509605408,"161":-0.3690994679927826,"162":-0.6354122757911682,"163":-0.2476036101579666,"164":-0.012350181117653847,"165":-0.14809149503707886,"166":0.014227833598852158,"167":-0.563060462474823,"168":-0.5183420181274414,"169":0.18942111730575562,"170":-0.18449795246124268,"171":0.26500311493873596,"172":-0.12000975012779236,"173":-0.3154842257499695,"174":0.1702287644147873,"175":-0.3095240890979767,"176":0.26175224781036377,"177":0.24985340237617493,"178":-0.30972760915756226,"179":-0.2897127866744995,"180":-0.11299781501293182,"181":-0.5693987607955933,"182":-0.12445759028196335,"183":-1.0386765003204346,"184":0.23024603724479675,"185":1.103989839553833,"186":-0.18342839181423187,"187":-0.10085902363061905,"188":-0.19201335310935974,"189":1.1037920713424683,"190":-0.15971927344799042,"191":0.12564745545387268,"192":0.5031412839889526,"193":-0.10541435331106186,"194":-1.1171693801879883,"195":-0.9654964208602905,"196":1.049470067024231,"197":0.9947519302368164,"198":0.8967320322990417,"199":-0.4385313391685486,"200":-0.3116944134235382,"201":0.11006911098957062,"202":1.4905096292495728,"203":0.9436843395233154,"204":0.3405986428260803,"205":0.05649983882904053,"206":-0.2498580813407898,"207":-0.022365713492035866,"208":-0.002464104210957885,"209":-0.847152590751648,"210":0.9855514764785767,"211":-0.8206609487533569,"212":-0.5266889333724976,"213":-0.702178418636322,"214":0.5048142075538635,"215":0.9062913656234741,"216":-0.9378538131713867,"217":-0.7001895308494568,"218":-0.6709578037261963,"219":-0.8563833236694336,"220":0.20639212429523468,"221":0.9631637930870056,"222":0.8134720921516418,"223":0.7710345387458801,"224":-0.12531276047229767,"225":-0.500461995601654,"226":0.1624082326889038,"227":0.24505490064620972,"228":0.27467066049575806,"229":-0.7573435306549072,"230":-0.4386064410209656,"231":-0.1719791442155838,"232":-0.4214950501918793,"233":0.09684079140424728,"234":0.5856265425682068,"235":0.833399772644043,"236":-0.7521691918373108,"237":-0.7110905051231384,"238":-0.6963847279548645,"239":-0.035021353513002396,"240":0.07114069163799286,"241":-0.0640684962272644,"242":0.10675318539142609,"243":0.5598486065864563,"244":0.4387064278125763,"245":0.41877785325050354,"246":-0.08965633064508438,"247":0.3392162024974823,"248":-0.26149633526802063,"249":-0.38869911432266235,"250":1.0021566152572632,"251":-0.41119125485420227,"252":-0.04565882682800293,"253":-0.09555452316999435,"254":0.34798043966293335,"255":0.26795125007629395,"256":-0.45307549834251404,"257":-0.30445224046707153,"258":-0.38793444633483887,"259":0.5390848517417908,"260":-0.059361521154642105,"261":0.37619778513908386,"262":-0.06501373648643494,"263":0.44242969155311584,"264":0.008519838564097881,"265":-0.1736314445734024,"266":-0.062926284968853,"267":-0.13562096655368805,"268":-0.1011895015835762,"269":-0.5513691902160645,"270":-0.12376702576875687,"271":-0.17237776517868042,"272":0.006747910752892494,"273":-0.12284526228904724,"274":0.41021639108657837,"275":0.37545889616012573,"276":-0.4865052103996277,"277":-0.4732133150100708,"278":-0.3085553050041199,"279":0.18422651290893555,"280":-0.12171018868684769,"281":-0.6232547163963318,"282":-0.42329978942871094,"283":-0.6385257840156555,"284":0.09167686849832535,"285":0.3037179410457611,"286":-0.25191453099250793,"287":-0.07609003037214279,"288":-0.14725565910339355,"289":0.5825046300888062,"290":-0.25079065561294556,"291":0.11567038297653198,"292":0.02331230789422989,"293":-0.16516898572444916,"294":-0.544439435005188,"295":-0.6199034452438354,"296":0.570256769657135,"297":0.7596620917320251,"298":0.5728440284729004,"299":-0.15868039429187775,"300":-0.41039201617240906,"301":-0.7225034832954407,"302":-0.4066043198108673,"303":-0.9724506139755249,"304":0.14215242862701416,"305":0.6929596066474915,"306":-0.23795896768569946,"307":-0.38301974534988403,"308":-0.2380276918411255,"309":0.9892483353614807,"310":-0.040474869310855865,"311":0.2699429392814636,"312":0.20888374745845795,"313":-0.2688465416431427,"314":-0.9103777408599854,"315":-0.9562561511993408,"316":0.9916245937347412,"317":0.9841071963310242,"318":0.9600580334663391,"319":-0.46835803985595703,"320":-0.23798821866512299,"321":-0.5643427968025208,"322":-0.043897852301597595,"323":-1.2083778381347656,"324":0.34141042828559875,"325":1.0391925573349,"326":-0.19447214901447296,"327":-0.2389143407344818,"328":-0.1387665569782257,"329":1.185522198677063,"330":-0.08710300922393799,"331":0.11420862376689911,"332":0.47077563405036926,"333":-0.21375100314617157,"334":-1.1044974327087402,"335":-1.0302292108535767,"336":1.1154263019561768,"337":1.1725189685821533,"338":1.0067068338394165,"339":-0.5107083320617676,"340":-0.20119255781173706,"341":-0.5842141509056091,"342":-0.17246539890766144,"343":-1.2169965505599976,"344":0.21143494546413422,"345":1.1535141468048096,"346":-0.1113073080778122,"347":-0.15193021297454834,"348":-0.14137867093086243,"349":1.264493465423584,"350":-0.1506543606519699,"351":0.2951485514640808,"352":0.3977218568325043,"353":-0.21613752841949463,"354":-1.1870782375335693,"355":-1.0021458864212036,"356":1.1707836389541626,"357":1.2084300518035889,"358":1.0628637075424194,"359":-0.44418591260910034,"360":-0.13440103828907013,"361":-0.6119199991226196,"362":-0.2896534502506256,"363":-0.8990208506584167,"364":0.2596915066242218,"365":0.8951811194419861,"366":-0.2129371017217636,"367":-0.15471985936164856,"368":-0.207882359623909,"369":0.9369733929634094,"370":-0.28305554389953613,"371":0.3107638955116272,"372":0.34680917859077454,"373":-0.22458156943321228,"374":-0.9737299680709839,"375":-0.7671326994895935,"376":0.9752716422080994,"377":0.8599502444267273,"378":0.8526426553726196,"379":-0.4535781443119049,"380":0.1981828659772873,"381":0.8029049038887024,"382":0.5571663975715637,"383":0.8126898407936096,"384":0.1743815690279007,"385":-0.38685834407806396,"386":0.07523176074028015,"387":0.21624810993671417,"388":0.282410204410553,"389":-0.7555031180381775,"390":0.09381740540266037,"391":-0.5636237263679504,"392":-0.43226829171180725,"393":0.25542429089546204,"394":0.41346991062164307,"395":0.6813682317733765,"396":-0.789972186088562,"397":-0.8276606798171997,"398":-0.6996372938156128,"399":0.10471226274967194}},"forgetBias":{"rows":20,"columns":1,"weights":{"0":0,"1":0,"2":0,"3":0,"4":0,"5":0,"6":0,"7":0,"8":0,"9":0,"10":0,"11":0,"12":0,"13":0,"14":0,"15":0,"16":0,"17":0,"18":0,"19":0}},"outputMatrix":{"rows":20,"columns":19,"weights":{"0":1.0930577516555786,"1":1.8545024394989014,"2":-1.2110222578048706,"3":0.02869441546499729,"4":0.05843713879585266,"5":0.7671981453895569,"6":0.6459000706672668,"7":0.06590799987316132,"8":0.029782069846987724,"9":-0.15333034098148346,"10":0.2629394233226776,"11":-0.5108656883239746,"12":0.331419974565506,"13":-0.8317446708679199,"14":0.19875039160251617,"15":-0.5700291991233826,"16":-0.8621984720230103,"17":0.020829208195209503,"18":-0.24213294684886932,"19":-0.5057098269462585,"20":0.40475982427597046,"21":0.0030032035429030657,"22":0.7106524705886841,"23":0.9430753588676453,"24":0.5120256543159485,"25":0.9777944684028625,"26":-1.8950183391571045,"27":-1.1565550565719604,"28":1.2075755596160889,"29":0.7081685662269592,"30":-0.0759066790342331,"31":0.3899008333683014,"32":-0.5035967230796814,"33":0.3957659900188446,"34":1.7784757614135742,"35":-0.41073083877563477,"36":1.171437382698059,"37":1.4055355787277222,"38":0.2677125334739685,"39":0.2621666491031647,"40":0.6082409620285034,"41":1.1138310432434082,"42":0.04634809494018555,"43":0.30424097180366516,"44":0.006417661439627409,"45":0.5058061480522156,"46":0.000880734936799854,"47":-0.30840611457824707,"48":0.392261266708374,"49":-0.6379401683807373,"50":-0.6651991605758667,"51":-0.39926156401634216,"52":-0.37396180629730225,"53":0.38095787167549133,"54":-0.3840915858745575,"55":0.8238247036933899,"56":0.5165321826934814,"57":0.12340215593576431,"58":-0.31293484568595886,"59":0.2950495183467865,"60":0.6031218767166138,"61":-0.30272847414016724,"62":0.24176105856895447,"63":0.36402174830436707,"64":-0.8763473033905029,"65":-0.11493032425642014,"66":-0.08157641440629959,"67":-0.3468596935272217,"68":-0.429926335811615,"69":0.6929134130477905,"70":0.21151214838027954,"71":-0.04489752650260925,"72":-0.01769021339714527,"73":-0.4275533854961395,"74":-0.8855360746383667,"75":0.05682320520281792,"76":0.18189166486263275,"77":0.5540103316307068,"78":0.09672307968139648,"79":1.3735677003860474,"80":-0.1299683153629303,"81":0.3121371269226074,"82":-0.41768136620521545,"83":0.37914952635765076,"84":0.4991440773010254,"85":-0.4274851679801941,"86":0.828994631767273,"87":-0.24139651656150818,"88":-0.2946443557739258,"89":-1.158075213432312,"90":0.7977750301361084,"91":-0.2197115272283554,"92":0.4235645532608032,"93":1.3046247959136963,"94":-0.12744534015655518,"95":-0.730021595954895,"96":-0.6932750344276428,"97":0.6165284514427185,"98":-0.5049139261245728,"99":-0.09990580379962921,"100":0.18135900795459747,"101":-0.046610038727521896,"102":0.3715900778770447,"103":0.18668310344219208,"104":-0.19148893654346466,"105":-0.491703063249588,"106":-0.07876135408878326,"107":-0.1856653094291687,"108":0.2828431725502014,"109":0.29317033290863037,"110":-0.521611213684082,"111":0.7393020987510681,"112":-0.413678377866745,"113":-0.6289082765579224,"114":0.03639278933405876,"115":0.44900423288345337,"116":-0.5143431425094604,"117":-0.016561167314648628,"118":-0.13379140198230743,"119":-0.19609206914901733,"120":-0.13503317534923553,"121":-0.26773107051849365,"122":0.19971954822540283,"123":-0.12668782472610474,"124":0.19208694994449615,"125":0.46609508991241455,"126":0.13476379215717316,"127":-0.174471914768219,"128":0.7327594757080078,"129":-0.3732123374938965,"130":0.6907961368560791,"131":0.31971344351768494,"132":-0.7739140391349792,"133":0.41587433218955994,"134":0.2307325303554535,"135":-0.39334654808044434,"136":0.6258189678192139,"137":0.43695998191833496,"138":0.23826704919338226,"139":0.0009106720681302249,"140":-1.4045413732528687,"141":-0.22670504450798035,"142":0.07056032121181488,"143":0.10751459747552872,"144":-0.47693783044815063,"145":0.015596028417348862,"146":0.08706971257925034,"147":0.4758484959602356,"148":-0.38858628273010254,"149":0.5005466341972351,"150":0.12743765115737915,"151":-0.24833182990550995,"152":1.088218331336975,"153":1.3138726949691772,"154":-0.9719135165214539,"155":0.3473610281944275,"156":0.07480155676603317,"157":0.06800013780593872,"158":0.22904665768146515,"159":-0.7189899682998657,"160":-0.14698489010334015,"161":-0.06582819670438766,"162":0.5330325961112976,"163":-0.18917641043663025,"164":0.23868738114833832,"165":-0.6475199460983276,"166":0.1793290078639984,"167":-0.10632165521383286,"168":0.06564441323280334,"169":0.512877881526947,"170":-0.16719242930412292,"171":0.23161981999874115,"172":-0.13346509635448456,"173":0.07849505543708801,"174":0.2827378511428833,"175":-0.2147694081068039,"176":0.006709736306220293,"177":0.2082321047782898,"178":-1.056884765625,"179":-0.04248659312725067,"180":-0.16547076404094696,"181":-0.5640373826026917,"182":-0.4217826724052429,"183":0.7845356464385986,"184":0.325325071811676,"185":0.12352835386991501,"186":-0.17007440328598022,"187":-0.3556644320487976,"188":-0.8582203388214111,"189":0.032030489295721054,"190":-0.046359188854694366,"191":-0.19890205562114716,"192":1.0307939052581787,"193":1.3525927066802979,"194":0.6919913291931152,"195":-0.6229887008666992,"196":0.39971107244491577,"197":-0.24803854525089264,"198":-1.0935063362121582,"199":1.2561513185501099,"200":0.5089510083198547,"201":-0.4848896861076355,"202":-1.2606282234191895,"203":-0.27378055453300476,"204":-0.6993364691734314,"205":1.0724520683288574,"206":-0.6623477339744568,"207":1.0517749786376953,"208":1.576741099357605,"209":-0.14979737997055054,"210":-0.7353944182395935,"211":0.7130576968193054,"212":0.7257404923439026,"213":0.1593942791223526,"214":-0.30637747049331665,"215":-0.10153193771839142,"216":0.19012796878814697,"217":-0.13605132699012756,"218":0.12486349046230316,"219":-0.024390699341893196,"220":-0.33237361907958984,"221":-0.6722802519798279,"222":0.22385267913341522,"223":-0.5407033562660217,"224":0.09714317321777344,"225":0.08679132908582687,"226":-0.034375276416540146,"227":0.08181081712245941,"228":-1.026299238204956,"229":-0.20191144943237305,"230":0.05005178600549698,"231":0.23637059330940247,"232":-0.5274319648742676,"233":0.6843973398208618,"234":0.14069963991641998,"235":2.1851274967193604,"236":0.3152187466621399,"237":-0.21984052658081055,"238":-0.15954074263572693,"239":0.05795194208621979,"240":-0.38464465737342834,"241":0.3393647372722626,"242":-1.0783318281173706,"243":-0.0009071735548786819,"244":-0.8197280764579773,"245":-0.7052456140518188,"246":-1.140891432762146,"247":0.8363091349601746,"248":0.5400537848472595,"249":-0.3097282350063324,"250":0.8876476287841797,"251":-0.4530334174633026,"252":0.1806148886680603,"253":-0.45963984727859497,"254":-0.9432427883148193,"255":0.6394083499908447,"256":-0.4611237943172455,"257":0.5503225922584534,"258":-0.197283074259758,"259":0.013626513071358204,"260":-0.49595704674720764,"261":0.7331252694129944,"262":-0.7168538570404053,"263":0.4043247401714325,"264":0.4472182095050812,"265":-0.6332553625106812,"266":0.2345719188451767,"267":0.3625594973564148,"268":-0.31498461961746216,"269":-0.5029417872428894,"270":-1.0739022493362427,"271":-0.39174598455429077,"272":-0.39659416675567627,"273":0.12980426847934723,"274":0.904410719871521,"275":-0.8792215585708618,"276":-0.1441192328929901,"277":0.6615564227104187,"278":0.7834212183952332,"279":-0.32265228033065796,"280":0.1899738609790802,"281":-1.0828607082366943,"282":0.2403026670217514,"283":-0.5888108611106873,"284":-1.3151524066925049,"285":0.1755801886320114,"286":-0.6886590719223022,"287":0.3796581029891968,"288":0.09670628607273102,"289":-0.1313568353652954,"290":0.11486092209815979,"291":0.06013420596718788,"292":-1.1675080060958862,"293":-0.31360626220703125,"294":0.17010870575904846,"295":0.27135735750198364,"296":0.09278430789709091,"297":0.10105665028095245,"298":-0.1166546493768692,"299":-0.039445240050554276,"300":0.40082791447639465,"301":0.37116241455078125,"302":0.11904488503932953,"303":0.34714359045028687,"304":-0.23288249969482422,"305":-0.47597241401672363,"306":0.43404364585876465,"307":0.1614876538515091,"308":-0.04247434809803963,"309":0.3084627687931061,"310":0.32616958022117615,"311":-0.5611189603805542,"312":-0.24740546941757202,"313":0.21487808227539062,"314":-0.23815876245498657,"315":-0.3605605959892273,"316":0.20192864537239075,"317":0.2450399249792099,"318":-0.06588707119226456,"319":0.2912372648715973,"320":-0.27655306458473206,"321":-0.5201082825660706,"322":0.24929066002368927,"323":0.0025479875039309263,"324":-0.3184082806110382,"325":0.06415215879678726,"326":-0.12344827502965927,"327":0.5274391174316406,"328":0.02915150485932827,"329":0.2858721613883972,"330":-0.9962859749794006,"331":-0.3208940327167511,"332":0.36486777663230896,"333":-0.3704213500022888,"334":-0.11534260958433151,"335":0.509308397769928,"336":0.34110891819000244,"337":0.32588160037994385,"338":0.3160583972930908,"339":-0.023235484957695007,"340":-0.36922284960746765,"341":0.6853423714637756,"342":-0.47631680965423584,"343":-0.4306219816207886,"344":-0.3982412815093994,"345":0.1727788746356964,"346":-0.45227015018463135,"347":-0.5116413831710815,"348":-0.39699310064315796,"349":-1.1442011594772339,"350":0.7529192566871643,"351":-0.7319753766059875,"352":-0.7965801954269409,"353":0.4019329845905304,"354":1.2569507360458374,"355":0.8618401885032654,"356":1.014068841934204,"357":-0.7470550537109375,"358":0.5019270181655884,"359":-1.271346092224121,"360":-0.6602581739425659,"361":-0.6547185182571411,"362":-0.7384166717529297,"363":1.0497959852218628,"364":-0.2830049693584442,"365":-0.10548672825098038,"366":-0.5478323101997375,"367":0.15574349462985992,"368":0.010509793646633625,"369":-0.41615942120552063,"370":0.9169203639030457,"371":0.5731418132781982,"372":0.6762195825576782,"373":-0.32975974678993225,"374":-0.14148037135601044,"375":-0.1055552065372467,"376":0.49085143208503723,"377":-0.2949390411376953,"378":0.6658819913864136,"379":0.25432661175727844}},"outputHidden":{"rows":20,"columns":20,"weights":{"0":-0.908151388168335,"1":-0.5160688757896423,"2":-1.0040974617004395,"3":0.10650335997343063,"4":0.2299720048904419,"5":0.11620315164327621,"6":-0.10150375217199326,"7":-0.9654397368431091,"8":-0.6705541610717773,"9":0.008319240063428879,"10":-0.3562002182006836,"11":-0.29300326108932495,"12":0.21098986268043518,"13":0.015657786279916763,"14":0.4704838693141937,"15":-0.12088452279567719,"16":0.0675375759601593,"17":-0.14559733867645264,"18":-0.5107877254486084,"19":0.3445843756198883,"20":-1.0755529403686523,"21":-0.7516701221466064,"22":-1.7408989667892456,"23":-0.7903257012367249,"24":0.23851780593395233,"25":0.05816445127129555,"26":-0.23978658020496368,"27":-0.6149165630340576,"28":-0.45682665705680847,"29":0.7182284593582153,"30":2.002673625946045,"31":0.08183089643716812,"32":0.26292601227760315,"33":-0.2631957530975342,"34":-0.537665605545044,"35":-0.9218263626098633,"36":0.6433479189872742,"37":0.81330406665802,"38":0.754075825214386,"39":-0.15360821783542633,"40":-0.9137450456619263,"41":-2.283473491668701,"42":-1.4220802783966064,"43":-1.4139546155929565,"44":0.022093413397669792,"45":-0.19168448448181152,"46":-0.08098138123750687,"47":-0.35866808891296387,"48":-0.5508592128753662,"49":1.4475176334381104,"50":1.800864338874817,"51":-0.5143913626670837,"52":-0.00656961789354682,"53":-0.25400403141975403,"54":0.2858601212501526,"55":-1.2928889989852905,"56":1.4522960186004639,"57":1.2039241790771484,"58":1.3270739316940308,"59":0.1998991221189499,"60":0.035335976630449295,"61":-1.0578343868255615,"62":0.04827658459544182,"63":-1.356484293937683,"64":0.559836208820343,"65":0.6130908131599426,"66":0.10155601799488068,"67":-0.2898765206336975,"68":-0.021934552118182182,"69":1.3397942781448364,"70":0.6380481719970703,"71":-0.14394548535346985,"72":-0.9622186422348022,"73":0.21583731472492218,"74":-1.1429557800292969,"75":-0.9734479188919067,"76":1.2473382949829102,"77":1.2317793369293213,"78":0.9889252185821533,"79":-0.267741322517395,"80":-0.36110156774520874,"81":-0.3103978931903839,"82":-0.44466540217399597,"83":0.03356050327420235,"84":-0.615882933139801,"85":-0.38512998819351196,"86":0.2901087701320648,"87":0.03773399814963341,"88":0.08843500912189484,"89":0.040515635162591934,"90":0.7716414332389832,"91":-0.2866467833518982,"92":-0.7684800624847412,"93":0.026970330625772476,"94":0.5151386260986328,"95":0.010838028974831104,"96":0.08573365956544876,"97":-0.08869034796953201,"98":0.09301083534955978,"99":0.24042154848575592,"100":-0.2601781487464905,"101":-0.3274940550327301,"102":-0.5783599615097046,"103":-0.38917163014411926,"104":-0.08734490722417831,"105":0.38331153988838196,"106":0.15289197862148285,"107":-0.23523472249507904,"108":-0.20611102879047394,"109":0.4126787483692169,"110":-0.1807292103767395,"111":-0.01690514013171196,"112":0.15004894137382507,"113":-0.02094537764787674,"114":-0.5758998990058899,"115":-0.6878591775894165,"116":0.3261372745037079,"117":0.5014855861663818,"118":0.5717950463294983,"119":-0.07864981889724731,"120":-0.12875890731811523,"121":0.5469252467155457,"122":-0.09803539514541626,"123":0.7133378982543945,"124":-0.03735986724495888,"125":-0.13807392120361328,"126":-0.01539928000420332,"127":-0.06019200012087822,"128":-0.13411292433738708,"129":-0.7997332215309143,"130":-0.17413800954818726,"131":-0.0925695151090622,"132":-0.17516466975212097,"133":-0.18732622265815735,"134":0.6200456023216248,"135":0.6208516359329224,"136":-0.7313089370727539,"137":-0.745859682559967,"138":-0.5787695050239563,"139":0.16369043290615082,"140":-1.0430375337600708,"141":-1.3996002674102783,"142":-1.7887706756591797,"143":-0.38317203521728516,"144":-0.2930532991886139,"145":-0.2097572237253189,"146":-0.08799398690462112,"147":-0.825326144695282,"148":-0.7594647407531738,"149":0.3573143482208252,"150":0.6519434452056885,"151":-0.22491350769996643,"152":-0.5608702301979065,"153":-0.2141266167163849,"154":0.6648811101913452,"155":-0.6222102642059326,"156":0.39271312952041626,"157":0.4337367117404938,"158":0.0961819440126419,"159":0.7504290342330933,"160":-0.9073531031608582,"161":-0.5571684837341309,"162":-0.9041008353233337,"163":0.03640344366431236,"164":0.038635559380054474,"165":-0.1882072538137436,"166":-0.1315194070339203,"167":-0.720224142074585,"168":-0.7709537744522095,"169":0.017129452899098396,"170":0.11157145351171494,"171":-0.03294450044631958,"172":-0.2811736464500427,"173":-0.3238644301891327,"174":0.4218970835208893,"175":-0.126590758562088,"176":0.006461054086685181,"177":-0.023684147745370865,"178":-0.3599676489830017,"179":0.3257516324520111,"180":0.011734968982636929,"181":-0.9919713735580444,"182":0.01489738468080759,"183":-1.1677650213241577,"184":0.55787193775177,"185":0.6686056852340698,"186":-0.10348916053771973,"187":0.0033125183545053005,"188":-0.03821398690342903,"189":1.1338629722595215,"190":0.8493370413780212,"191":-0.36999568343162537,"192":-1.0508620738983154,"193":0.23267321288585663,"194":-0.9303389191627502,"195":-0.7972180843353271,"196":1.0044307708740234,"197":0.9807772636413574,"198":0.8984231948852539,"199":-0.2640813887119293,"200":-0.2415623962879181,"201":-0.1297343373298645,"202":-0.30914244055747986,"203":0.18669772148132324,"204":-0.14364050328731537,"205":0.291441410779953,"206":-0.010133447125554085,"207":-0.009288744069635868,"208":-0.1989039033651352,"209":-0.18519596755504608,"210":1.9304174184799194,"211":-0.9861132502555847,"212":0.003403604030609131,"213":-0.13616131246089935,"214":0.5977489352226257,"215":0.16235215961933136,"216":-0.16465306282043457,"217":-0.09070926904678345,"218":-0.07749319821596146,"219":0.27269744873046875,"220":1.2238918542861938,"221":-1.648481011390686,"222":-2.6826064586639404,"223":-0.6680744886398315,"224":-1.13347327709198,"225":0.05063647776842117,"226":0.5676520466804504,"227":1.2669304609298706,"228":2.085585594177246,"229":0.4424803853034973,"230":3.2023932933807373,"231":-1.9310413599014282,"232":-0.9609050154685974,"233":2.2514071464538574,"234":0.4204220473766327,"235":-0.6624279618263245,"236":0.6353633403778076,"237":0.7432214617729187,"238":0.7617661952972412,"239":2.695207118988037,"240":-1.634507656097412,"241":-0.3139658570289612,"242":-1.6533217430114746,"243":-0.061014022678136826,"244":0.2008395493030548,"245":0.6958259344100952,"246":-0.11731605976819992,"247":-0.8832515478134155,"248":-1.7720516920089722,"249":0.0721966028213501,"250":-0.07756126672029495,"251":-0.07236234843730927,"252":0.0854567438364029,"253":-0.3005850911140442,"254":0.10015761852264404,"255":0.03687022253870964,"256":0.23727598786354065,"257":-0.07402613759040833,"258":-0.07730527222156525,"259":-0.22127358615398407,"260":0.03098600171506405,"261":-0.18479807674884796,"262":-0.513105034828186,"263":0.2948046922683716,"264":-0.12238331884145737,"265":-0.18860068917274475,"266":0.021972473710775375,"267":0.0496065579354763,"268":0.07844874262809753,"269":-0.361255019903183,"270":0.48464348912239075,"271":-0.5710672736167908,"272":-0.16742773354053497,"273":-0.012657038867473602,"274":0.5907641649246216,"275":0.22617089748382568,"276":-0.31345871090888977,"277":-0.3757156729698181,"278":-0.15950565040111542,"279":0.8482265472412109,"280":0.17047668993473053,"281":-0.8099033832550049,"282":-0.13084617257118225,"283":-0.5346048474311829,"284":0.1446497142314911,"285":0.17158135771751404,"286":-0.16305570304393768,"287":0.3051356077194214,"288":0.12642450630664825,"289":0.5312600135803223,"290":-0.6143933534622192,"291":0.33052951097488403,"292":-0.8329717516899109,"293":0.12090670317411423,"294":-0.4577077031135559,"295":-0.6644755601882935,"296":0.40268293023109436,"297":0.6822199821472168,"298":0.8116838932037354,"299":-0.06208151578903198,"300":-2.057866096496582,"301":-1.0113279819488525,"302":-2.948044538497925,"303":-1.0582075119018555,"304":-0.30938512086868286,"305":0.03763981908559799,"306":-0.0010565636912360787,"307":-2.384042739868164,"308":1.3123656511306763,"309":1.016616940498352,"310":0.03810808062553406,"311":0.6270057559013367,"312":-0.5730137228965759,"313":-0.009362469427287579,"314":-0.6566254496574402,"315":-0.9449726939201355,"316":1.0028611421585083,"317":1.0384926795959473,"318":1.1944154500961304,"319":-0.7531152367591858,"320":-0.014628596603870392,"321":-1.0891014337539673,"322":-0.05423581600189209,"323":-1.245725154876709,"324":0.6882798075675964,"325":0.6552764177322388,"326":-0.07841803133487701,"327":-0.19678202271461487,"328":0.010033011436462402,"329":1.3303419351577759,"330":1.2358546257019043,"331":-0.6346015334129333,"332":-1.3881621360778809,"333":0.2216886729001999,"334":-1.0977669954299927,"335":-1.0295535326004028,"336":1.2337234020233154,"337":1.1450687646865845,"338":0.9796012043952942,"339":-0.15513543784618378,"340":0.00017577552353031933,"341":-0.8771703839302063,"342":0.023954473435878754,"343":-1.1737027168273926,"344":0.17759837210178375,"345":0.8257342576980591,"346":-0.004048180766403675,"347":-0.026776565238833427,"348":0.1284756362438202,"349":1.144356369972229,"350":0.5314325094223022,"351":-0.08116866648197174,"352":-0.15411962568759918,"353":0.14240725338459015,"354":-1.129547119140625,"355":-0.9312055110931396,"356":1.2025991678237915,"357":1.025748610496521,"358":0.9809523820877075,"359":-0.144049271941185,"360":1.4377005100250244,"361":-0.28975218534469604,"362":1.8038493394851685,"363":-0.3417201638221741,"364":1.5180716514587402,"365":0.46271151304244995,"366":-0.4924083650112152,"367":1.747834324836731,"368":1.4741486310958862,"369":0.4440625309944153,"370":-0.35115155577659607,"371":0.08828999102115631,"372":0.1663234531879425,"373":-0.9626415967941284,"374":-0.7141087651252747,"375":0.32506483793258667,"376":0.2834133505821228,"377":0.3309321105480194,"378":0.3987933397293091,"379":-1.5748211145401,"380":-0.5665355920791626,"381":-1.3838938474655151,"382":-1.4430410861968994,"383":-1.1260106563568115,"384":-0.6583389043807983,"385":-0.4431741535663605,"386":0.29689839482307434,"387":0.15939466655254364,"388":0.17356975376605988,"389":1.0490890741348267,"390":1.7451813220977783,"391":-0.43873628973960876,"392":0.7740259170532227,"393":0.2708944082260132,"394":0.042249295860528946,"395":-0.986311137676239,"396":1.0849840641021729,"397":1.044816255569458,"398":1.0432065725326538,"399":0.5221160650253296}},"outputBias":{"rows":20,"columns":1,"weights":{"0":-0.3763510286808014,"1":-0.8167849779129028,"2":-0.18018467724323273,"3":-0.4960878789424896,"4":0.5889294147491455,"5":0.5448735356330872,"6":-0.42194387316703796,"7":-0.19582074880599976,"8":-0.33368486166000366,"9":-0.4409259557723999,"10":1.4412827491760254,"11":-0.21855370700359344,"12":0.5832129716873169,"13":-0.01260525081306696,"14":-0.5771214962005615,"15":-0.7089940905570984,"16":-0.5312510132789612,"17":-0.30839845538139343,"18":-0.5101207494735718,"19":-0.957016110420227}},"cellActivationMatrix":{"rows":20,"columns":19,"weights":{"0":-0.5531836152076721,"1":-0.5069613456726074,"2":0.3053230047225952,"3":-0.3959416449069977,"4":-0.47550341486930847,"5":-0.5312846899032593,"6":-0.5770244598388672,"7":0.11664137989282608,"8":0.29680177569389343,"9":-0.36300185322761536,"10":-0.17579394578933716,"11":0.45669832825660706,"12":0.19653739035129547,"13":0.12631195783615112,"14":0.3232588768005371,"15":-0.4763220250606537,"16":0.7140864729881287,"17":0.05901627615094185,"18":-0.3884287476539612,"19":0.14028815925121307,"20":0.19259437918663025,"21":-0.17504064738750458,"22":-0.4050130248069763,"23":-0.47108131647109985,"24":-0.2288186252117157,"25":-0.28529664874076843,"26":0.7569971084594727,"27":0.2131986767053604,"28":-0.28891706466674805,"29":0.027469882741570473,"30":0.16771630942821503,"31":0.050494834780693054,"32":-0.17585046589374542,"33":-0.2440270036458969,"34":-0.14916735887527466,"35":-0.1547641009092331,"36":0.08320706337690353,"37":-0.4270879328250885,"38":-0.4300154149532318,"39":0.008049894124269485,"40":-0.31415969133377075,"41":-0.3805992603302002,"42":0.1555609554052353,"43":0.11992292106151581,"44":-0.27908605337142944,"45":0.12398190051317215,"46":0.3277183771133423,"47":-0.6873649954795837,"48":-0.04915349557995796,"49":-0.1527511328458786,"50":0.5247408747673035,"51":-0.026134343817830086,"52":0.5390345454216003,"53":-0.1964346170425415,"54":0.5659258365631104,"55":-0.2160160094499588,"56":-0.3851883113384247,"57":0.14105534553527832,"58":0.11528061330318451,"59":-0.14002230763435364,"60":-0.49986815452575684,"61":-0.16008998453617096,"62":-0.10806463658809662,"63":-0.17383207380771637,"64":0.6383542418479919,"65":0.029472513124346733,"66":0.020828010514378548,"67":0.18698079884052277,"68":0.34100961685180664,"69":0.06099913641810417,"70":-0.17090024054050446,"71":-0.1328245997428894,"72":0.04653073474764824,"73":-0.05935877934098244,"74":0.42077717185020447,"75":-0.07709652185440063,"76":-0.45673781633377075,"77":-0.36940041184425354,"78":0.43062064051628113,"79":-0.12554919719696045,"80":0.5856018662452698,"81":0.4496883451938629,"82":0.1868104785680771,"83":1.2334868907928467,"84":-0.5173166990280151,"85":0.5544278621673584,"86":0.01040314044803381,"87":-0.04638703167438507,"88":-1.525983452796936,"89":0.20446990430355072,"90":-0.8959989547729492,"91":0.6021488904953003,"92":-0.23377257585525513,"93":-0.07603511214256287,"94":-0.24330398440361023,"95":-0.6203257441520691,"96":-0.22733137011528015,"97":0.21030563116073608,"98":-1.2208632230758667,"99":-0.11831358820199966,"100":-0.2631964683532715,"101":0.02345222607254982,"102":0.6633659601211548,"103":-0.21670033037662506,"104":0.03228968754410744,"105":-0.5410194993019104,"106":0.40875887870788574,"107":0.20266006886959076,"108":0.5401711463928223,"109":-0.07611874490976334,"110":0.29743722081184387,"111":-0.09879791736602783,"112":-0.41964831948280334,"113":0.12572935223579407,"114":0.21096956729888916,"115":0.08274505287408829,"116":-0.1795695275068283,"117":0.20525231957435608,"118":-0.4285511076450348,"119":-0.43255430459976196,"120":-0.4160585105419159,"121":-0.6747534275054932,"122":0.44860512018203735,"123":-0.3248522877693176,"124":0.001632564002647996,"125":0.46187224984169006,"126":0.6922124624252319,"127":0.018968040123581886,"128":0.4475158154964447,"129":-0.45741787552833557,"130":0.3299688398838043,"131":0.02711540274322033,"132":-0.2987864315509796,"133":-0.3898095488548279,"134":0.3554996848106384,"135":-0.4081679880619049,"136":-0.23336181044578552,"137":-0.7525434494018555,"138":-0.36847689747810364,"139":-0.12396055459976196,"140":0.8115370869636536,"141":0.38831329345703125,"142":-0.3325364887714386,"143":-0.16681768000125885,"144":0.28767988085746765,"145":0.5981987118721008,"146":-0.42258721590042114,"147":0.007398183457553387,"148":-0.5854021906852722,"149":0.2742319107055664,"150":-0.014004780910909176,"151":-0.894310474395752,"152":-0.5330763459205627,"153":-0.4516652226448059,"154":0.332425057888031,"155":-0.17733144760131836,"156":-0.28840717673301697,"157":-0.1849164515733719,"158":-0.3472024202346802,"159":0.33867549896240234,"160":0.3861156404018402,"161":-0.36670055985450745,"162":-0.14277605712413788,"163":0.2802099287509918,"164":0.05557899549603462,"165":-0.10057059675455093,"166":0.41964077949523926,"167":-0.3722328841686249,"168":0.6192579865455627,"169":0.08594578504562378,"170":-0.40915533900260925,"171":-0.007547748740762472,"172":-0.05625642463564873,"173":0.07112501561641693,"174":0.4580997824668884,"175":0.16154097020626068,"176":0.01961842179298401,"177":0.09048494696617126,"178":-0.6631773114204407,"179":-0.02482517622411251,"180":-0.01754605770111084,"181":-0.2682279348373413,"182":-0.3595595955848694,"183":0.1598462462425232,"184":0.24735739827156067,"185":0.23888075351715088,"186":-0.09021516889333725,"187":-0.021195149049162865,"188":-0.5125524401664734,"189":0.0012971527175977826,"190":-0.3224703371524811,"191":-0.8106609582901001,"192":1.2122448682785034,"193":1.406473994255066,"194":-0.6594393253326416,"195":-0.04589904472231865,"196":-0.7769479751586914,"197":-0.0364607609808445,"198":0.6368215680122375,"199":-0.9494881629943848,"200":-0.12307671457529068,"201":0.06482162326574326,"202":-0.37587636709213257,"203":-0.09513995796442032,"204":-0.19309213757514954,"205":-0.16313166916370392,"206":0.6511663198471069,"207":0.28553834557533264,"208":-0.2491106539964676,"209":0.6006550192832947,"210":-0.2881447672843933,"211":-0.21626177430152893,"212":-0.857928454875946,"213":0.9620385766029358,"214":0.03273320943117142,"215":-0.018323533236980438,"216":-1.313019037246704,"217":-0.4665239751338959,"218":0.6545658707618713,"219":0.33343151211738586,"220":-0.39191141724586487,"221":-0.10904303938150406,"222":0.272728830575943,"223":0.3715413808822632,"224":0.8615870475769043,"225":-0.7118460536003113,"226":0.2606792449951172,"227":1.5662051439285278,"228":-0.5034101009368896,"229":0.10273832082748413,"230":-0.49229615926742554,"231":-1.0841727256774902,"232":-0.08049868792295456,"233":-0.13332095742225647,"234":0.3530713617801666,"235":-0.6112337112426758,"236":-0.2457803338766098,"237":0.603790819644928,"238":-0.9080641865730286,"239":0.22554504871368408,"240":0.5935653448104858,"241":0.8391145467758179,"242":0.26034510135650635,"243":-0.23417070508003235,"244":-0.1508377194404602,"245":-1.0426414012908936,"246":-0.10701226443052292,"247":-0.7059088349342346,"248":-0.2061779946088791,"249":0.23720398545265198,"250":0.1084541529417038,"251":-0.31215178966522217,"252":-0.11902182549238205,"253":-0.2772531509399414,"254":0.727222740650177,"255":0.31678012013435364,"256":-0.2511926293373108,"257":-0.15102824568748474,"258":0.42756199836730957,"259":-0.1420806646347046,"260":-0.08406691998243332,"261":0.26847243309020996,"262":-0.5040132403373718,"263":0.7485353350639343,"264":0.22953052818775177,"265":-0.4254935383796692,"266":-0.037906769663095474,"267":0.41444170475006104,"268":-0.3257901966571808,"269":1.0802077054977417,"270":-0.19172485172748566,"271":-0.14429281651973724,"272":-0.22352956235408783,"273":-0.08229700475931168,"274":0.13552409410476685,"275":-0.21516911685466766,"276":0.5779939889907837,"277":0.062082719057798386,"278":-0.09162457287311554,"279":-0.5497128963470459,"280":-0.03000779077410698,"281":-0.24152019619941711,"282":0.5350871086120605,"283":0.6385932564735413,"284":-0.40184485912323,"285":0.1808943897485733,"286":0.28966864943504333,"287":-0.38449183106422424,"288":-0.15800152719020844,"289":-0.5169139504432678,"290":-0.2705167233943939,"291":-0.3375709354877472,"292":0.6206451058387756,"293":0.37291839718818665,"294":-0.34870538115501404,"295":0.21420007944107056,"296":0.2874399721622467,"297":0.0963701605796814,"298":-0.27924156188964844,"299":-0.16031132638454437,"300":-0.2884148359298706,"301":0.1534217745065689,"302":0.23095768690109253,"303":-0.4635429084300995,"304":-0.17057977616786957,"305":-0.26413196325302124,"306":0.2758316397666931,"307":0.2666923701763153,"308":0.36908382177352905,"309":0.1643059402704239,"310":0.15730659663677216,"311":-0.7907727956771851,"312":-0.19392739236354828,"313":0.24240615963935852,"314":-0.3598387539386749,"315":-0.16105195879936218,"316":-0.01868833601474762,"317":0.35491061210632324,"318":0.3407471776008606,"319":0.05274572595953941,"320":0.0650247260928154,"321":-0.5009536743164062,"322":0.2796764671802521,"323":-0.1810099184513092,"324":-0.2125815898180008,"325":0.20484673976898193,"326":0.07837524265050888,"327":0.5377416014671326,"328":0.3134952485561371,"329":0.3182060718536377,"330":-0.7645346522331238,"331":-0.3690977394580841,"332":0.3956678509712219,"333":-0.327504426240921,"334":-0.22708086669445038,"335":-0.05630113184452057,"336":0.3020249903202057,"337":0.17498604953289032,"338":0.3119047284126282,"339":-0.19438602030277252,"340":-0.24125881493091583,"341":0.5961998701095581,"342":-0.44370928406715393,"343":-0.19112320244312286,"344":0.3287530243396759,"345":0.2238825261592865,"346":0.4441467523574829,"347":0.10963370651006699,"348":0.4571385979652405,"349":-0.17348463833332062,"350":-0.3136739134788513,"351":0.41540902853012085,"352":-0.4226820170879364,"353":0.15323808789253235,"354":0.12033317238092422,"355":0.4073053002357483,"356":0.02684755250811577,"357":0.41777464747428894,"358":-0.6966895461082458,"359":-0.47474414110183716,"360":0.4729793667793274,"361":-0.7572446465492249,"362":0.3278210163116455,"363":0.03348630294203758,"364":1.0767157077789307,"365":-0.7243282794952393,"366":-0.12430450320243835,"367":-0.29035839438438416,"368":0.9242463111877441,"369":0.42024120688438416,"370":-0.23879627883434296,"371":-0.007579257246106863,"372":-0.11879035085439682,"373":-0.6466584205627441,"374":-0.815245509147644,"375":-0.7402572631835938,"376":-0.8680042624473572,"377":0.9145655632019043,"378":0.426227867603302,"379":-1.368706464767456}},"cellActivationHidden":{"rows":20,"columns":20,"weights":{"0":-0.5575745701789856,"1":-0.3638666272163391,"2":-0.5649839639663696,"3":-0.12310203164815903,"4":0.46419885754585266,"5":0.12412158399820328,"6":-0.4036453068256378,"7":-0.43953460454940796,"8":-0.44436654448509216,"9":0.13154755532741547,"10":-0.6388131976127625,"11":0.724483847618103,"12":0.7235961556434631,"13":-0.44579023122787476,"14":0.1175137534737587,"15":-0.09777877479791641,"16":0.10217840224504471,"17":0.09278060495853424,"18":0.040575575083494186,"19":-0.7616358399391174,"20":-0.19444523751735687,"21":0.40242859721183777,"22":-0.3357725441455841,"23":0.9333189129829407,"24":0.031300079077482224,"25":-1.156561255455017,"26":-0.21093790233135223,"27":-0.17606960237026215,"28":-0.2709101140499115,"29":-1.0227773189544678,"30":-0.3746415972709656,"31":0.09082701057195663,"32":-0.07478263229131699,"33":-0.230719655752182,"34":0.9344131946563721,"35":0.9327943921089172,"36":-1.043481707572937,"37":-0.9268702864646912,"38":-0.89650958776474,"39":0.051459457725286484,"40":-0.6010282635688782,"41":0.47800377011299133,"42":-0.20943382382392883,"43":0.1290380358695984,"44":0.3106786012649536,"45":-0.6501982808113098,"46":-0.3841232657432556,"47":-0.6841416954994202,"48":-1.4429857730865479,"49":-0.24020887911319733,"50":-2.4676308631896973,"51":1.8087027072906494,"52":1.8012700080871582,"53":-0.4657520651817322,"54":0.2981277406215668,"55":0.2469848245382309,"56":-0.21600869297981262,"57":0.04812329635024071,"58":-1.6240993738174438,"59":-0.20613259077072144,"60":-0.09229081124067307,"61":0.41654103994369507,"62":-0.2411527782678604,"63":0.9661859273910522,"64":-0.36064496636390686,"65":-0.8595489859580994,"66":0.020104246214032173,"67":-0.07487326115369797,"68":-0.11988621205091476,"69":-0.9548766016960144,"70":-0.39609113335609436,"71":0.1595027595758438,"72":0.12010948359966278,"73":-0.23328249156475067,"74":0.8983785510063171,"75":0.9067383408546448,"76":-0.9590767621994019,"77":-0.8857870101928711,"78":-0.9413895606994629,"79":-0.042546577751636505,"80":0.7351297736167908,"81":0.7619056701660156,"82":0.5798417329788208,"83":0.329549103975296,"84":-0.7222207188606262,"85":0.03693833574652672,"86":0.5377547144889832,"87":0.5099583864212036,"88":0.43998152017593384,"89":-0.3045540153980255,"90":-0.03438905254006386,"91":-0.46476367115974426,"92":-0.33460596203804016,"93":0.26632487773895264,"94":-0.018032396212220192,"95":0.3551405668258667,"96":-0.36503612995147705,"97":-0.23516273498535156,"98":-0.3536267578601837,"99":0.567693829536438,"100":-0.7671555280685425,"101":0.2565329670906067,"102":-0.4749091863632202,"103":0.1630658358335495,"104":0.3213961720466614,"105":-0.15258415043354034,"106":-0.32207387685775757,"107":-0.5861600637435913,"108":-1.0065542459487915,"109":-0.13076496124267578,"110":-0.739456832408905,"111":0.4345549941062927,"112":0.3013800382614136,"113":-0.2939509153366089,"114":-0.030461516231298447,"115":0.17594294250011444,"116":-0.17179815471172333,"117":-0.12637658417224884,"118":-0.20061993598937988,"119":-0.8351480960845947,"120":-0.32612645626068115,"121":-0.05163801461458206,"122":-0.38141459226608276,"123":0.0022866223007440567,"124":0.4869731366634369,"125":0.08195634186267853,"126":-0.4477858543395996,"127":-0.3715125322341919,"128":-0.4066821038722992,"129":0.01875009387731552,"130":-0.2867073714733124,"131":0.4676627814769745,"132":0.43963146209716797,"133":-0.4076741635799408,"134":0.032892338931560516,"135":0.056549668312072754,"136":0.004660297185182571,"137":0.006836235523223877,"138":-0.04612450674176216,"139":-0.5346168279647827,"140":-0.91810542345047,"141":-0.1957775205373764,"142":-0.3269151449203491,"143":0.12027211487293243,"144":0.7170228958129883,"145":0.10500228404998779,"146":-0.5481023192405701,"147":-0.7784052491188049,"148":-0.6177017092704773,"149":0.00687242578715086,"150":-0.5777673125267029,"151":1.0082781314849854,"152":0.7437732815742493,"153":-0.4939519762992859,"154":0.1393366903066635,"155":-0.06700553745031357,"156":-0.03465856984257698,"157":-0.013463927432894707,"158":0.10167079418897629,"159":-0.9257183074951172,"160":-0.21426090598106384,"161":0.4346957504749298,"162":-0.029241302981972694,"163":0.3747992217540741,"164":0.5884343385696411,"165":0.11263182759284973,"166":-0.467256635427475,"167":-0.36028584837913513,"168":-0.34650474786758423,"169":-0.3009454011917114,"170":-0.8472489714622498,"171":0.7122678160667419,"172":0.6738239526748657,"173":-0.4648238718509674,"174":0.0027481969445943832,"175":0.3116277754306793,"176":-0.3835630416870117,"177":-0.4382755756378174,"178":-0.2085651159286499,"179":-0.7589698433876038,"180":0.11736453324556351,"181":-0.35526329278945923,"182":0.33503276109695435,"183":-0.9383103847503662,"184":0.4243464171886444,"185":0.8974020481109619,"186":0.04913390055298805,"187":-0.03713839873671532,"188":0.11598023027181625,"189":0.9423187375068665,"190":0.3917897343635559,"191":-0.14392384886741638,"192":-0.1100797951221466,"193":0.2526504695415497,"194":-1.005773901939392,"195":-0.8944268226623535,"196":0.937140166759491,"197":0.969803512096405,"198":0.9424129128456116,"199":-0.07267710566520691,"200":-0.7225642800331116,"201":-0.38876965641975403,"202":-0.5901080965995789,"203":-0.10055956989526749,"204":0.6735871434211731,"205":0.17759406566619873,"206":-0.5572560429573059,"207":-0.543804943561554,"208":-0.5520800352096558,"209":0.07511437684297562,"210":0.03054174780845642,"211":0.15034717321395874,"212":0.4110778868198395,"213":-0.5152684450149536,"214":0.09598543494939804,"215":-0.20473234355449677,"216":-0.03354070335626602,"217":0.031252671033144,"218":0.0775822326540947,"219":-0.23321138322353363,"220":0.8459340333938599,"221":0.3592287302017212,"222":0.1476246863603592,"223":-0.21049697697162628,"224":-0.673622727394104,"225":-0.03809608146548271,"226":0.5163357257843018,"227":0.5379816293716431,"228":0.5755144357681274,"229":0.2135806679725647,"230":0.9225622415542603,"231":-1.1606563329696655,"232":-0.8804243803024292,"233":0.5560880303382874,"234":-0.3649105727672577,"235":-0.0053907581605017185,"236":0.28545501828193665,"237":0.10190069675445557,"238":-0.10252130776643753,"239":0.8792750835418701,"240":0.446598619222641,"241":-0.08579210191965103,"242":0.3420490324497223,"243":-0.08722926676273346,"244":-0.19702038168907166,"245":0.10342317819595337,"246":0.35481446981430054,"247":0.12319070845842361,"248":0.28203412890434265,"249":0.16259640455245972,"250":0.08486051112413406,"251":-0.5290706753730774,"252":-0.3825010657310486,"253":0.4914279878139496,"254":-0.2597350776195526,"255":-0.15241175889968872,"256":0.05718786641955376,"257":0.13692206144332886,"258":-0.17119310796260834,"259":0.4643539786338806,"260":-0.4364306628704071,"261":-0.05307449772953987,"262":-0.17670051753520966,"263":0.15612183511257172,"264":0.5787516832351685,"265":0.21096543967723846,"266":-0.44419655203819275,"267":-0.35113707184791565,"268":-0.2843869626522064,"269":-0.10004161298274994,"270":-0.43143630027770996,"271":0.7915893197059631,"272":0.6197659373283386,"273":-0.30617213249206543,"274":-0.02720743790268898,"275":0.011994543485343456,"276":-0.15015846490859985,"277":-0.1421925127506256,"278":0.02635464258491993,"279":-0.8947770595550537,"280":-0.34736013412475586,"281":0.16539376974105835,"282":0.3786115348339081,"283":0.44992923736572266,"284":0.13153593242168427,"285":-0.14720866084098816,"286":-0.021768704056739807,"287":-0.14390817284584045,"288":-0.18470199406147003,"289":-0.40435653924942017,"290":0.4544992744922638,"291":0.07414525002241135,"292":-0.021365562453866005,"293":-0.22652602195739746,"294":0.6488540172576904,"295":0.4502212405204773,"296":-0.3965243101119995,"297":-0.5247173309326172,"298":-0.40212807059288025,"299":-0.09933599084615707,"300":-0.1818862110376358,"301":0.5019778609275818,"302":-0.26173093914985657,"303":0.9272608757019043,"304":-0.14584079384803772,"305":-0.8120246529579163,"306":-0.08576096594333649,"307":-0.09883372485637665,"308":-0.21943172812461853,"309":-0.810829758644104,"310":-0.3186429440975189,"311":0.11637284606695175,"312":0.18452782928943634,"313":-0.27162250876426697,"314":0.9197210073471069,"315":0.9168088436126709,"316":-0.838905394077301,"317":-0.8343969583511353,"318":-0.875163733959198,"319":-0.12388840317726135,"320":0.1983930766582489,"321":-0.5186171531677246,"322":0.3468950688838959,"323":-0.8895913362503052,"324":0.3212737441062927,"325":0.7593285441398621,"326":0.07834911346435547,"327":-0.04844200611114502,"328":0.1430608630180359,"329":0.8155101537704468,"330":0.3473026156425476,"331":-0.20514631271362305,"332":-0.23839974403381348,"333":0.3456609845161438,"334":-0.9065536856651306,"335":-0.8845657706260681,"336":0.9420830011367798,"337":0.7738316655158997,"338":0.7980775237083435,"339":0.04614889621734619,"340":0.18844306468963623,"341":-0.42380857467651367,"342":0.32112622261047363,"343":-0.8829200267791748,"344":0.05285782739520073,"345":0.8376180529594421,"346":0.09696754068136215,"347":0.08015774935483932,"348":0.26184481382369995,"349":0.7767800092697144,"350":0.3106524348258972,"351":-0.20934239029884338,"352":-0.245039165019989,"353":0.30421680212020874,"354":-0.9264743328094482,"355":-0.8671759963035583,"356":0.9058935642242432,"357":0.7817025184631348,"358":0.8263276815414429,"359":0.024474889039993286,"360":0.18005578219890594,"361":-0.5603452324867249,"362":0.18651854991912842,"363":-0.7205299139022827,"364":0.12143786251544952,"365":0.5554305911064148,"366":0.08005302399396896,"367":0.14674679934978485,"368":0.190521702170372,"369":0.7411845922470093,"370":0.4705524742603302,"371":-0.25154218077659607,"372":-0.47691935300827026,"373":0.22759787738323212,"374":-0.8754013776779175,"375":-0.8377570509910583,"376":0.7157491445541382,"377":0.7664580345153809,"378":0.765296459197998,"379":0.17167392373085022,"380":-1.1038496494293213,"381":0.17546184360980988,"382":-0.507345974445343,"383":0.3635702431201935,"384":1.0021368265151978,"385":0.26082175970077515,"386":-0.45879432559013367,"387":-1.5883963108062744,"388":-0.3959839940071106,"389":-0.465582937002182,"390":0.06789249181747437,"391":1.535486102104187,"392":0.933295726776123,"393":-0.4485419690608978,"394":0.763870894908905,"395":0.44281142950057983,"396":-0.4605904221534729,"397":-0.26051846146583557,"398":-0.6624664664268494,"399":-0.7132687568664551}},"cellActivationBias":{"rows":20,"columns":1,"weights":{"0":0.009525282308459282,"1":-0.4337307810783386,"2":0.5540975332260132,"3":-0.5990985035896301,"4":0.5614259839057922,"5":0.0880177915096283,"6":-0.1652938425540924,"7":-0.29454365372657776,"8":0.11567811667919159,"9":0.4799248278141022,"10":0.5077604055404663,"11":-0.3459119498729706,"12":-0.0264904722571373,"13":0.09339231997728348,"14":-0.574861466884613,"15":-0.5051438808441162,"16":0.47395163774490356,"17":0.5083831548690796,"18":0.4856778085231781,"19":0.03661629557609558}}},{"inputMatrix":{"rows":20,"columns":20,"weights":{"0":-2.466905355453491,"1":-1.0901936292648315,"2":-2.4400200843811035,"3":-0.14226533472537994,"4":-0.7506715655326843,"5":-1.1516369581222534,"6":0.0016736052930355072,"7":-0.8346590399742126,"8":-0.7023947238922119,"9":0.13779760897159576,"10":-1.8109588623046875,"11":2.920470714569092,"12":1.257584571838379,"13":-0.15846163034439087,"14":1.0489683151245117,"15":-0.5488132834434509,"16":0.2884537875652313,"17":0.687010645866394,"18":0.050438836216926575,"19":1.3885741233825684,"20":-0.01878388412296772,"21":1.3682070970535278,"22":-0.10622970759868622,"23":-0.46261686086654663,"24":-0.12002131342887878,"25":0.1386442929506302,"26":-0.13066689670085907,"27":-0.23308083415031433,"28":-0.20067425072193146,"29":0.6401064395904541,"30":-1.6675869226455688,"31":0.2682284712791443,"32":1.156727910041809,"33":-0.31879350543022156,"34":-0.4681660234928131,"35":1.1926242113113403,"36":0.6536457538604736,"37":-0.9152836203575134,"38":-1.2670475244522095,"39":0.14994052052497864,"40":0.5779892802238464,"41":0.03671836107969284,"42":1.6435271501541138,"43":-0.4141574501991272,"44":-1.2237226963043213,"45":0.35752591490745544,"46":0.4194245934486389,"47":0.8094800710678101,"48":0.5160831212997437,"49":0.5800923705101013,"50":-2.754115581512451,"51":-0.8002210259437561,"52":0.4392188787460327,"53":0.4751104712486267,"54":-0.5677823424339294,"55":-0.23753611743450165,"56":0.20187264680862427,"57":0.2767341434955597,"58":-0.062423549592494965,"59":-0.37716540694236755,"60":0.5604878664016724,"61":0.5775849223136902,"62":2.38138484954834,"63":-0.21960030496120453,"64":-1.261234164237976,"65":-0.7934202551841736,"66":0.7919806241989136,"67":0.7478018999099731,"68":0.811100423336029,"69":-0.3253321051597595,"70":-2.72322940826416,"71":2.494344711303711,"72":1.1103090047836304,"73":0.6124725937843323,"74":0.8233470916748047,"75":-0.22117416560649872,"76":-0.3554200828075409,"77":0.3265343904495239,"78":-1.6982916593551636,"79":0.33555883169174194,"80":-0.612037718296051,"81":-1.3568826913833618,"82":-2.5421652793884277,"83":-1.0138344764709473,"84":-1.8064169883728027,"85":-0.4057137668132782,"86":0.9697563052177429,"87":0.8597413897514343,"88":0.26411476731300354,"89":0.9759414196014404,"90":-0.15333616733551025,"91":-0.8984213471412659,"92":1.4002827405929565,"93":0.9705371856689453,"94":0.23592256009578705,"95":-0.012452207505702972,"96":1.1911078691482544,"97":0.17053569853305817,"98":0.05889217555522919,"99":2.8825645446777344,"100":-0.2835899293422699,"101":2.6272518634796143,"102":-0.3936082720756531,"103":-0.3131221830844879,"104":-0.722231388092041,"105":1.749259114265442,"106":0.10507694631814957,"107":-0.2654406428337097,"108":0.40908896923065186,"109":0.5044689178466797,"110":-1.894569754600525,"111":0.7634164690971375,"112":3.1342597007751465,"113":0.17176277935504913,"114":-0.9269291162490845,"115":1.0302454233169556,"116":0.2775171101093292,"117":-1.1506489515304565,"118":-0.5928882360458374,"119":-0.31090784072875977,"120":0.2251715064048767,"121":1.2180083990097046,"122":-0.8904926180839539,"123":-0.821566641330719,"124":-1.1893601417541504,"125":1.9017990827560425,"126":0.008070109412074089,"127":-0.043115194886922836,"128":-0.42912885546684265,"129":0.8442785143852234,"130":-2.006572723388672,"131":-0.20466239750385284,"132":2.777384042739868,"133":-0.2100524604320526,"134":-1.1373200416564941,"135":0.0862245261669159,"136":0.8366519212722778,"137":-0.29921069741249084,"138":-0.336822509765625,"139":0.09316670149564743,"140":-0.4799553453922272,"141":-0.7418450117111206,"142":-1.05768883228302,"143":-0.6577823162078857,"144":-0.936151921749115,"145":1.304741621017456,"146":-0.36138108372688293,"147":-0.2315613329410553,"148":-0.7141090631484985,"149":0.5838208198547363,"150":0.8590008616447449,"151":-0.6474218368530273,"152":0.9230079650878906,"153":-1.173447608947754,"154":-0.9623925089836121,"155":-1.3103877305984497,"156":1.2861164808273315,"157":1.0888880491256714,"158":1.0352839231491089,"159":-0.14521194994449615,"160":-0.5206488370895386,"161":0.76985764503479,"162":-1.0049270391464233,"163":1.0845344066619873,"164":-0.005222260486334562,"165":-0.8888921737670898,"166":-0.30759045481681824,"167":0.29610568284988403,"168":0.03921124339103699,"169":-0.6484867930412292,"170":-2.2659075260162354,"171":2.5785181522369385,"172":1.1007272005081177,"173":0.17877383530139923,"174":0.8532163500785828,"175":0.8815714716911316,"176":-0.47217053174972534,"177":-1.0562456846237183,"178":-0.01724446751177311,"179":1.0537617206573486,"180":-1.1918530464172363,"181":0.4144699275493622,"182":-2.064181089401245,"183":-0.3981153964996338,"184":-0.7492977976799011,"185":0.42215079069137573,"186":0.16258203983306885,"187":0.640097975730896,"188":0.5103259086608887,