{"type":"LSTM","options":{"inputSize":20,"inputRange":20,"hiddenSizes":[20,20],"outputSize":20,"learningRate":0.01,"decayRate":0.999,"smoothEps":1e-8,"regc":0.000001,"clipval":5,"json":null,"dataFormatter":null},"input":{"rows":21,"columns":20,"weights":{"0":0.002617435995489359,"1":-0.022225171327590942,"2":0.05982658267021179,"3":0.010013354942202568,"4":-0.06826906651258469,"5":0.06265586614608765,"6":-0.0795036032795906,"7":-0.0297147985547781,"8":-0.066982701420784,"9":0.039079874753952026,"10":0.0732058435678482,"11":-0.055101487785577774,"12":-0.02116762287914753,"13":-0.014788851141929626,"14":0.07969503104686737,"15":0.0587376169860363,"16":0.05055036395788193,"17":-0.019814807921648026,"18":-0.07310605049133301,"19":0.03661191835999489,"20":-0.07315587252378464,"21":-0.04728097841143608,"22":0.07645472884178162,"23":0.06401815265417099,"24":-0.0004591832694131881,"25":0.008780327625572681,"26":-0.04624565690755844,"27":-0.0749112218618393,"28":-0.016982657834887505,"29":0.0493757538497448,"30":0.043373897671699524,"31":0.025557493790984154,"32":-0.008555286563932896,"33":0.020246947184205055,"34":0.07008938491344452,"35":0.036475323140621185,"36":-0.02718546986579895,"37":-0.0786057859659195,"38":-0.06902580708265305,"39":0.040228333324193954,"40":0.021465923637151718,"41":-0.013601275160908699,"42":-0.0351044163107872,"43":-0.02256697602570057,"44":-0.013219472952187061,"45":0.06921526044607162,"46":0.03402770683169365,"47":0.030127480626106262,"48":0.07230190187692642,"49":0.052626125514507294,"50":-0.06652218103408813,"51":-0.03484363853931427,"52":-0.01641278900206089,"53":-0.0583149716258049,"54":0.003051887499168515,"55":0.0070714931935071945,"56":0.03315134719014168,"57":0.07110023498535156,"58":0.01526381354779005,"59":0.0463164746761322,"60":-0.001867679413408041,"61":0.043202705681324005,"62":0.07610970735549927,"63":-0.01471700333058834,"64":-0.057374000549316406,"65":0.040664903819561005,"66":0.06271084398031235,"67":0.007974039763212204,"68":-0.07531269639730453,"69":0.05514056608080864,"70":0.012421717867255211,"71":-0.0025462100747972727,"72":-0.0003996382583864033,"73":0.0640345960855484,"74":-0.07547307014465332,"75":0.04312754422426224,"76":-0.015146858058869839,"77":0.07571262866258621,"78":0.00009441260772291571,"79":-0.0245052482932806,"80":0.016978899016976357,"81":0.01743948645889759,"82":-0.02901053987443447,"83":-0.015642018988728523,"84":-0.07911894470453262,"85":0.008880292065441608,"86":0.07635414600372314,"87":-0.0739847868680954,"88":0.06625708937644958,"89":0.048635080456733704,"90":0.035934023559093475,"91":0.05572357028722763,"92":-0.05885549634695053,"93":0.05422107130289078,"94":0.0409962423145771,"95":-0.06051294878125191,"96":0.009643560275435448,"97":-0.002446674043312669,"98":-0.019386623054742813,"99":-0.030106985941529274,"100":-0.07564567029476166,"101":0.031675852835178375,"102":0.013894549570977688,"103":0.07930098474025726,"104":0.007239129859954119,"105":0.015362797304987907,"106":-0.03157913684844971,"107":-0.07283344119787216,"108":0.02639332227408886,"109":0.05119709670543671,"110":-0.061232663691043854,"111":-0.04652157053351402,"112":-0.01662658154964447,"113":-0.06696842610836029,"114":0.0033154645934700966,"115":-0.04607987776398659,"116":-0.029410703107714653,"117":0.04535092040896416,"118":0.013464524410665035,"119":-0.017525454983115196,"120":0.021564919501543045,"121":-0.037782054394483566,"122":0.03685884550213814,"123":-0.04377853870391846,"124":0.07418303191661835,"125":0.020958293229341507,"126":-0.022024430334568024,"127":-0.05407523363828659,"128":0.006116099189966917,"129":0.07219105958938599,"130":-0.05885139852762222,"131":-0.004647566005587578,"132":0.0003695451305247843,"133":0.010680051520466805,"134":0.007685594726353884,"135":-0.003674745559692383,"136":-0.04946528375148773,"137":0.00526015367358923,"138":-0.03648350015282631,"139":0.03266819193959236,"140":0.033100951462984085,"141":0.06454244256019592,"142":0.003539193654432893,"143":0.0647449642419815,"144":0.07839716970920563,"145":-0.00495148403570056,"146":-0.042145438492298126,"147":0.007741960696876049,"148":-0.04826541617512703,"149":0.039039019495248795,"150":0.03245338797569275,"151":-0.0399445965886116,"152":0.05547453463077545,"153":-0.0003725354908965528,"154":-0.044692642986774445,"155":-0.04937031492590904,"156":0.009482505731284618,"157":-0.02779245376586914,"158":-0.07463479787111282,"159":0.05027274787425995,"160":0.04823829606175423,"161":-0.06854234635829926,"162":-0.033435650169849396,"163":0.04482821375131607,"164":0.019717080518603325,"165":-0.06396961957216263,"166":-0.058455854654312134,"167":0.071640245616436,"168":0.023062441498041153,"169":-0.0654672235250473,"170":0.0014790281420573592,"171":-0.01944686844944954,"172":0.04677889496088028,"173":0.07173163443803787,"174":-0.03433334082365036,"175":0.03387630730867386,"176":0.04179663211107254,"177":0.02489732764661312,"178":-0.023203400894999504,"179":-0.0522286519408226,"180":-0.0005644102930091321,"181":-0.038674335926771164,"182":-0.047901734709739685,"183":0.03054170124232769,"184":0.045299019664525986,"185":-0.03802190348505974,"186":0.06614703685045242,"187":0.05100112780928612,"188":0.06230892241001129,"189":0.07427851110696793,"190":0.00448744697496295,"191":-0.06256402283906937,"192":-0.025529589504003525,"193":0.031200189143419266,"194":-0.04264046251773834,"195":-0.07729676365852356,"196":-0.016181213781237602,"197":0.013597451150417328,"198":-0.07957351207733154,"199":-0.012957192026078701,"200":-0.02052959054708481,"201":-0.07083482295274734,"202":-0.019178863614797592,"203":0.008096271194517612,"204":-0.03836742416024208,"205":-0.047522611916065216,"206":-0.0414913110435009,"207":0.008973607793450356,"208":0.024950092658400536,"209":0.05430087447166443,"210":-0.06139236316084862,"211":-0.0792941227555275,"212":0.006728254724293947,"213":-0.06212327256798744,"214":-0.01797616481781006,"215":-0.07300736010074615,"216":0.07625744491815567,"217":-0.03598055616021156,"218":0.04320864751935005,"219":0.04668712988495827,"220":0.04438250884413719,"221":-0.045674510300159454,"222":-0.07300969213247299,"223":-0.04842362180352211,"224":0.015886200591921806,"225":0.052239276468753815,"226":-0.008043558336794376,"227":-0.07693474739789963,"228":0.047830864787101746,"229":-0.06135309487581253,"230":-0.010990981012582779,"231":0.03659052774310112,"232":-0.00969432108104229,"233":0.07664807885885239,"234":-0.051793891936540604,"235":-0.013452552258968353,"236":-0.04508369415998459,"237":-0.0354117751121521,"238":0.00761647243052721,"239":0.030424930155277252,"240":0.03424897417426109,"241":0.03650207072496414,"242":0.07551781088113785,"243":-0.0031897982116788626,"244":0.029195457696914673,"245":-0.046221066266298294,"246":0.05078304186463356,"247":0.07824140787124634,"248":0.03951822966337204,"249":-0.07971850782632828,"250":-0.0009664584067650139,"251":-0.06147513538599014,"252":-0.008928357623517513,"253":-0.04695161432027817,"254":0.05265854671597481,"255":-0.047512006014585495,"256":0.006792055908590555,"257":0.06316573172807693,"258":-0.02360347844660282,"259":-0.05792917311191559,"260":0.05457843840122223,"261":-0.02243850566446781,"262":-0.03499223291873932,"263":-0.03662358224391937,"264":-0.07501029968261719,"265":-0.06630723178386688,"266":0.0710717961192131,"267":-0.0649760514497757,"268":0.047521356493234634,"269":0.035047225654125214,"270":0.044990237802267075,"271":0.07601708918809891,"272":0.05141754820942879,"273":0.059334851801395416,"274":0.06605037301778793,"275":0.033394310623407364,"276":0.04102399945259094,"277":0.07775351405143738,"278":-0.06859225779771805,"279":-0.05295778438448906,"280":-0.011643767356872559,"281":-0.053308356553316116,"282":0.001484501757659018,"283":-0.06612282991409302,"284":-0.06730835884809494,"285":0.05186642333865166,"286":-0.06076417118310928,"287":-0.0012854613596573472,"288":0.012179790064692497,"289":-0.04659644886851311,"290":-0.02125486731529236,"291":-0.0009463992901146412,"292":-0.04583553597331047,"293":0.07261972874403,"294":0.030612049624323845,"295":0.06130273640155792,"296":0.0644146278500557,"297":0.00372035033069551,"298":-0.05259878933429718,"299":-0.05111977458000183,"300":-0.03515399247407913,"301":0.024118414148688316,"302":-0.07407178729772568,"303":0.04730715975165367,"304":0.011709267273545265,"305":0.03917045518755913,"306":-0.03945106640458107,"307":-0.03891163319349289,"308":-0.052412714809179306,"309":0.06360435485839844,"310":-0.0038543303962796926,"311":-0.007775234989821911,"312":0.009170028381049633,"313":0.034252021461725235,"314":-0.01991378888487816,"315":-0.02960345149040222,"316":-0.02160622738301754,"317":0.023348378017544746,"318":0.05289164558053017,"319":-0.05620807409286499,"320":-0.05428265780210495,"321":0.03794214874505997,"322":-0.000535382074303925,"323":0.06937242299318314,"324":-0.06531746685504913,"325":-0.044645003974437714,"326":0.048255447298288345,"327":0.05675579234957695,"328":0.054717421531677246,"329":0.011611031368374825,"330":0.0657079815864563,"331":0.04379699379205704,"332":-0.037882525473833084,"333":-0.07824330031871796,"334":0.0454755574464798,"335":-0.0047698249109089375,"336":0.009190866723656654,"337":0.028087139129638672,"338":-0.01905253902077675,"339":-0.04964715242385864,"340":0.07172653079032898,"341":0.05053703486919403,"342":-0.027074381709098816,"343":0.02721571736037731,"344":0.07334363460540771,"345":0.0042868987657129765,"346":-0.03374118357896805,"347":-0.0726887658238411,"348":-0.05559450760483742,"349":0.06345734745264053,"350":0.0029993492644280195,"351":-0.026569703593850136,"352":0.011638503521680832,"353":0.03801657631993294,"354":0.010368921793997288,"355":-0.003326145000755787,"356":-0.004789324942976236,"357":0.02579042874276638,"358":-0.05558820813894272,"359":-0.045595623552799225,"360":-0.062359925359487534,"361":-0.003063476411625743,"362":-0.06203622370958328,"363":-0.057919055223464966,"364":0.07327110320329666,"365":-0.005460845772176981,"366":0.00006395372474798933,"367":-0.0039903149008750916,"368":-0.012947185896337032,"369":0.02472860738635063,"370":0.05400818586349487,"371":-0.019989751279354095,"372":0.06273028999567032,"373":0.06179851293563843,"374":-0.025456765666604042,"375":-0.06247764453291893,"376":0.013409207575023174,"377":-0.004882564768195152,"378":0.02381797321140766,"379":0.014816738665103912,"380":-0.01707594282925129,"381":0.013441539369523525,"382":0.06463097035884857,"383":0.004149412736296654,"384":0.057383522391319275,"385":-0.0027597458101809025,"386":0.07753581553697586,"387":0.07114287465810776,"388":-0.0767185389995575,"389":-0.029478345066308975,"390":-0.05343613028526306,"391":0.013846944086253643,"392":0.06642424315214157,"393":-0.0012600936461240053,"394":0.0030004128348082304,"395":0.06074389070272446,"396":-0.011620290577411652,"397":0.00850673671811819,"398":-0.03256658837199211,"399":-0.06767572462558746,"400":0.007886185310781002,"401":0.07457663863897324,"402":0.023961711674928665,"403":-0.003953190520405769,"404":0.05173063278198242,"405":-0.07213936746120453,"406":-0.07704707980155945,"407":0.010619571432471275,"408":-0.003169270697981119,"409":0.07372377067804337,"410":-0.03241734951734543,"411":0.014457479119300842,"412":0.05764073505997658,"413":0.024876201525330544,"414":-0.04296967387199402,"415":-0.03168150410056114,"416":-0.007350771687924862,"417":-0.057865217328071594,"418":0.07014026492834091,"419":-0.0673656016588211}},"hiddenLayers":[{"inputMatrix":{"rows":20,"columns":20,"weights":{"0":0.03924822807312012,"1":-0.06038060039281845,"2":-0.0035763524938374758,"3":0.0749320462346077,"4":-0.07583227753639221,"5":-0.022593827918171883,"6":0.00343021540902555,"7":0.03523975983262062,"8":0.029601316899061203,"9":-0.025499513372778893,"10":-0.0421491339802742,"11":0.06763403117656708,"12":0.06041787564754486,"13":-0.03472983464598656,"14":0.04120306670665741,"15":-0.01143667846918106,"16":-0.05007801949977875,"17":-0.0557892806828022,"18":-0.009206133894622326,"19":-0.0012128276284784079,"20":0.07403288036584854,"21":-0.051617931574583054,"22":-0.055021658539772034,"23":-0.05332520976662636,"24":-0.076416015625,"25":-0.04142084717750549,"26":-0.030964434146881104,"27":0.07958055287599564,"28":0.02230199985206127,"29":0.0706220343708992,"30":0.03612326830625534,"31":-0.009273192845284939,"32":-0.05190867558121681,"33":0.06329746544361115,"34":0.0795416608452797,"35":-0.0056920889765024185,"36":0.07153935730457306,"37":-0.008905620314180851,"38":0.03810620680451393,"39":-0.0689081996679306,"40":0.01990550570189953,"41":0.06695052981376648,"42":-0.023852061480283737,"43":0.030306629836559296,"44":0.024979254230856895,"45":-0.03884028643369675,"46":0.013695716857910156,"47":0.06990302354097366,"48":-0.06164859980344772,"49":0.03984152525663376,"50":0.022819194942712784,"51":-0.0420411042869091,"52":0.051828429102897644,"53":-0.05543701723217964,"54":0.025746863335371017,"55":-0.03978073596954346,"56":0.039798036217689514,"57":-0.06940092891454697,"58":-0.03381927311420441,"59":0.06879060715436935,"60":-0.01109006255865097,"61":0.07945870608091354,"62":0.06835929304361343,"63":0.0005160057335160673,"64":-0.010914037004113197,"65":0.06939029693603516,"66":0.05549919605255127,"67":0.07721733301877975,"68":0.06758266687393188,"69":0.07929830253124237,"70":-0.007359683513641357,"71":-0.027227647602558136,"72":-0.05273853987455368,"73":0.04547601565718651,"74":-0.05745791643857956,"75":-0.0719158947467804,"76":0.054348092526197433,"77":-0.02757289819419384,"78":-0.060143496841192245,"79":-0.06485086679458618,"80":-0.06778940558433533,"81":-0.07674337178468704,"82":-0.06354702264070511,"83":0.015373124741017818,"84":-0.07707755267620087,"85":-0.04437926784157753,"86":-0.07238330692052841,"87":-0.002817371394485235,"88":-0.015653096139431,"89":0.040918633341789246,"90":0.011841836385428905,"91":0.06266579031944275,"92":-0.06573716551065445,"93":-0.061906855553388596,"94":0.0050820824690163136,"95":-0.016554975882172585,"96":-0.062296729534864426,"97":0.06865912675857544,"98":-0.013702287338674068,"99":0.0001777835568645969,"100":-0.043579161167144775,"101":-0.06076090410351753,"102":0.040774744004011154,"103":-0.0782548040151596,"104":-0.01261141151189804,"105":-0.05678090825676918,"106":0.03404701128602028,"107":0.05939913168549538,"108":-0.02121444046497345,"109":-0.0384368933737278,"110":0.011597163043916225,"111":-0.06448379158973694,"112":0.06044762581586838,"113":-0.0026829803828150034,"114":-0.0040595983155071735,"115":-0.06719856709241867,"116":-0.012016700580716133,"117":-0.05676843971014023,"118":0.049533694982528687,"119":0.07684890180826187,"120":-0.003200747538357973,"121":0.023609979078173637,"122":-0.036134641617536545,"123":0.050363242626190186,"124":-0.0392085537314415,"125":0.010328462347388268,"126":-0.011175272054970264,"127":0.04240814223885536,"128":-0.04527823254466057,"129":0.036923203617334366,"130":0.007176684681326151,"131":0.024305209517478943,"132":0.00717201828956604,"133":-0.04500124603509903,"134":-0.0022826038766652346,"135":0.0289444662630558,"136":0.03288094326853752,"137":-0.04643098637461662,"138":0.006472563836723566,"139":-0.05319523438811302,"140":0.008550318889319897,"141":0.0495971255004406,"142":0.016314588487148285,"143":-0.02680426463484764,"144":-0.017143232747912407,"145":0.04660513997077942,"146":0.06413181871175766,"147":-0.06069854646921158,"148":0.07121489942073822,"149":-0.031135760247707367,"150":0.005769385024905205,"151":0.06029566377401352,"152":-0.04834039881825447,"153":0.07092173397541046,"154":0.0700821653008461,"155":0.03236832097172737,"156":-0.042452480643987656,"157":-0.06787609308958054,"158":0.04240389168262482,"159":0.008294560946524143,"160":-0.029616057872772217,"161":0.07369352132081985,"162":-0.057809170335531235,"163":0.004811140708625317,"164":-0.05321294069290161,"165":0.054225582629442215,"166":0.03856685385107994,"167":-0.02833470143377781,"168":0.07554358243942261,"169":-0.02995261363685131,"170":-0.04378000646829605,"171":-0.06447995454072952,"172":-0.06343888491392136,"173":-0.0457114577293396,"174":0.0006011135992594063,"175":0.005413451232016087,"176":-0.013464286923408508,"177":0.035067345947027206,"178":-0.0478164404630661,"179":-0.0609857439994812,"180":-0.07047885656356812,"181":0.03396545723080635,"182":-0.050575532019138336,"183":-0.05779552832245827,"184":0.00014344161900226027,"185":-0.0736488476395607,"186":-0.008984583429992199,"187":-0.04811237007379532,"188":0.05222056061029434,"189":-0.004131004214286804,"190":0.030775604769587517,"191":-0.020205674692988396,"192":-0.04734732583165169,"193":-0.01402489747852087,"194":-0.0014434079639613628,"195":0.06487599015235901,"196":0.04922633618116379,"197":-0.06455942988395691,"198":-0.013155018910765648,"199":0.0026786578819155693,"200":-0.024989178404211998,"201":-0.04063331335783005,"202":-0.07582322508096695,"203":0.04374063387513161,"204":0.028787001967430115,"205":0.01898255944252014,"206":0.024118181318044662,"207":0.012948199175298214,"208":-0.022194696590304375,"209":0.05276176705956459,"210":0.07632164657115936,"211":0.03692534193396568,"212":0.02247934602200985,"213":-0.017317933961749077,"214":0.05670592561364174,"215":-0.06902438402175903,"216":-0.06139734387397766,"217":0.048957400023937225,"218":0.007563518360257149,"219":0.0022415013518184423,"220":-0.03717095032334328,"221":0.029019318521022797,"222":0.06886443495750427,"223":-0.07699328660964966,"224":-0.060299646109342575,"225":0.022396840155124664,"226":0.018942510709166527,"227":0.04502838850021362,"228":-0.03748374804854393,"229":-0.027735620737075806,"230":-0.026993082836270332,"231":-0.07004418969154358,"232":-0.05078289285302162,"233":0.016735563054680824,"234":-0.03377334401011467,"235":-0.05248195305466652,"236":-0.017799902707338333,"237":0.04427512362599373,"238":0.016312241554260254,"239":0.021017616614699364,"240":0.01562756672501564,"241":0.04500465840101242,"242":0.07232707738876343,"243":0.03953145444393158,"244":0.06251927465200424,"245":0.015987372025847435,"246":0.06787769496440887,"247":-0.03338783234357834,"248":0.06398604810237885,"249":0.06618955731391907,"250":-0.019055264070630074,"251":-0.020704997703433037,"252":-0.04125133156776428,"253":0.06990049034357071,"254":0.010682929307222366,"255":-0.06414343416690826,"256":0.03693505749106407,"257":-0.05004483461380005,"258":-0.049326539039611816,"259":-0.007946254685521126,"260":0.07264860719442368,"261":0.04293552041053772,"262":-0.03345660865306854,"263":0.05578123405575752,"264":-0.03921349346637726,"265":0.03701239824295044,"266":-0.06778034567832947,"267":0.02802528813481331,"268":-0.048615653067827225,"269":-0.04318070039153099,"270":-0.05289542302489281,"271":-0.07169196754693985,"272":-0.0659814402461052,"273":0.014501851983368397,"274":0.04549494758248329,"275":0.03836503252387047,"276":-0.04274507984519005,"277":-0.051091425120830536,"278":-0.00789166521281004,"279":-0.033337995409965515,"280":-0.05462826043367386,"281":0.07629494369029999,"282":-0.015549100004136562,"283":0.004210454877465963,"284":-0.02113640308380127,"285":-0.011032970622181892,"286":0.015358381904661655,"287":-0.00667803967371583,"288":0.0056134844198822975,"289":0.07048070430755615,"290":-0.057184863835573196,"291":0.0438811257481575,"292":-0.056642141193151474,"293":0.0603330135345459,"294":-0.06817691028118134,"295":-0.009282594546675682,"296":-0.04412330314517021,"297":0.016178278252482414,"298":-0.006153990048915148,"299":0.013358636759221554,"300":-0.006004516035318375,"301":-0.05377073585987091,"302":0.0355643667280674,"303":0.052461523562669754,"304":-0.060971491038799286,"305":-0.07105911523103714,"306":0.06536582857370377,"307":0.06335952132940292,"308":-0.05349031835794449,"309":0.020802101120352745,"310":0.03378455713391304,"311":0.04737560451030731,"312":-0.04252330958843231,"313":0.034269072115421295,"314":-0.014966980554163456,"315":-0.014285481534898281,"316":0.05420385301113129,"317":-0.04438844323158264,"318":0.04629744961857796,"319":0.0409650094807148,"320":0.0791676715016365,"321":0.0005918267415836453,"322":0.005204105284065008,"323":-0.04214184358716011,"324":0.022788934409618378,"325":-0.02744893729686737,"326":0.043200019747018814,"327":0.05966588109731674,"328":0.03127013519406319,"329":-0.07144378125667572,"330":-0.03024471364915371,"331":0.07218362390995026,"332":0.0028743769507855177,"333":-0.014807608909904957,"334":0.057947978377342224,"335":-0.030194971710443497,"336":-0.05429363623261452,"337":0.060281503945589066,"338":-0.000695110356900841,"339":-0.05841555446386337,"340":0.0024947526399046183,"341":-0.06679360568523407,"342":0.011954116635024548,"343":-0.0019440094474703074,"344":0.07463593780994415,"345":0.06340795010328293,"346":0.011700603179633617,"347":-0.07792694866657257,"348":0.0548369325697422,"349":-0.01655501313507557,"350":0.013757324777543545,"351":-0.07934894412755966,"352":0.049204304814338684,"353":-0.03385752812027931,"354":0.07072766125202179,"355":0.025042705237865448,"356":-0.07151544094085693,"357":0.00601289514452219,"358":-0.0344192273914814,"359":0.06008881330490112,"360":0.0793643370270729,"361":0.029115304350852966,"362":-0.0168526042252779,"363":-0.06910361349582672,"364":-0.06607718020677567,"365":-0.010811054147779942,"366":-0.06084495037794113,"367":-0.07482650130987167,"368":-0.07368239015340805,"369":0.011059960350394249,"370":-0.024928588420152664,"371":-0.07631520926952362,"372":-0.05164826288819313,"373":0.031508032232522964,"374":0.0053612105548381805,"375":-0.0015575188444927335,"376":0.014881465584039688,"377":0.041133370250463486,"378":-0.07404416799545288,"379":-0.07241367548704147,"380":-0.04677688330411911,"381":-0.051149044185876846,"382":0.046142976731061935,"383":0.01873079314827919,"384":0.07369240373373032,"385":0.017054401338100433,"386":0.06751039624214172,"387":0.036414265632629395,"388":-0.029849056154489517,"389":-0.013521570712327957,"390":0.07798276841640472,"391":-0.029348216950893402,"392":-0.05989798530936241,"393":0.01790262572467327,"394":-0.07840214669704437,"395":-0.02361244335770607,"396":0.033353764563798904,"397":0.05287783592939377,"398":-0.000537216488737613,"399":-0.03343352675437927}},"inputHidden":{"rows":20,"columns":20,"weights":{"0":-0.02474137395620346,"1":0.049688275903463364,"2":0.07165205478668213,"3":0.03465741127729416,"4":0.00508640892803669,"5":-0.06368210166692734,"6":0.05796253681182861,"7":-0.01845559850335121,"8":0.0488085113465786,"9":0.03353819251060486,"10":0.0013993082102388144,"11":-0.022350359708070755,"12":-0.027564039453864098,"13":0.02234884910285473,"14":0.0764019787311554,"15":-0.01798328571021557,"16":0.055366430431604385,"17":0.05340311676263809,"18":0.03674318641424179,"19":0.013396183028817177,"20":0.047353554517030716,"21":-0.07989510148763657,"22":-0.07395635545253754,"23":0.06811743229627609,"24":0.03389117866754532,"25":-0.0705108717083931,"26":0.010154226794838905,"27":-0.07512763142585754,"28":-0.019887084141373634,"29":-0.012617017142474651,"30":-0.06835618615150452,"31":-0.02554587461054325,"32":0.04088371992111206,"33":-0.07566798478364944,"34":-0.04504358395934105,"35":0.06943053752183914,"36":0.0121204424649477,"37":0.004253370687365532,"38":0.02885735034942627,"39":0.05121195316314697,"40":0.04882708936929703,"41":-0.06256116926670074,"42":0.07284953445196152,"43":0.03352409228682518,"44":0.024198120459914207,"45":0.03676968067884445,"46":-0.04553247615695,"47":-0.019858844578266144,"48":-0.07144509255886078,"49":-0.05795751512050629,"50":0.05276202782988548,"51":0.07775451242923737,"52":0.013505621813237667,"53":-0.014760863035917282,"54":0.059555962681770325,"55":0.05473288148641586,"56":-0.034468673169612885,"57":0.03410311043262482,"58":0.027538198977708817,"59":-0.024754315614700317,"60":-0.07763928920030594,"61":0.05828485265374184,"62":-0.013987146317958832,"63":-0.013110483065247536,"64":-0.05995132774114609,"65":-0.02639324963092804,"66":-0.036651451140642166,"67":0.07980380952358246,"68":-0.04920525476336479,"69":-0.034094229340553284,"70":-0.012731797061860561,"71":-0.075530044734478,"72":-0.05070870742201805,"73":-0.01688731461763382,"74":0.0010666834423318505,"75":0.003975765313953161,"76":0.05707212910056114,"77":0.07762645184993744,"78":0.021223649382591248,"79":-0.030723636969923973,"80":0.07912932336330414,"81":0.03317977860569954,"82":-0.025896122679114342,"83":-0.07566912472248077,"84":-0.04886263608932495,"85":0.002528921701014042,"86":0.042412977665662766,"87":-0.05100112780928612,"88":-0.05854044482111931,"89":0.05590980127453804,"90":-0.06590747088193893,"91":-0.03034854866564274,"92":0.07509546726942062,"93":-0.07400986552238464,"94":0.008546971715986729,"95":-0.06756911426782608,"96":-0.06688326597213745,"97":0.03682146593928337,"98":-0.06033778190612793,"99":0.018737835809588432,"100":-0.03546718508005142,"101":0.015633009374141693,"102":-0.0473816879093647,"103":0.03324286267161369,"104":0.028363309800624847,"105":-0.04143698886036873,"106":-0.0600750632584095,"107":0.019136395305395126,"108":-0.06408347189426422,"109":0.07435490936040878,"110":-0.04104176536202431,"111":0.04563462734222412,"112":0.007863692939281464,"113":-0.050205715000629425,"114":-0.07444888353347778,"115":-0.021023893728852272,"116":-0.017824344336986542,"117":-0.0003127192612737417,"118":-0.012447935529053211,"119":-0.04348936304450035,"120":-0.04585268720984459,"121":0.06263318657875061,"122":-0.040311574935913086,"123":-0.0020041391253471375,"124":0.024747001007199287,"125":0.04930649697780609,"126":-0.006918882019817829,"127":-0.03987691178917885,"128":0.04578275606036186,"129":-0.07235417515039444,"130":-0.07122001051902771,"131":0.044258829206228256,"132":-0.04977037012577057,"133":-0.009760663844645023,"134":0.06574100255966187,"135":0.0725831687450409,"136":-0.004622908309102058,"137":0.0019632915500551462,"138":0.03941011801362038,"139":0.014333575963973999,"140":0.06354821473360062,"141":0.0754161924123764,"142":-0.039705220609903336,"143":-0.07619264721870422,"144":-0.008273519575595856,"145":-0.015178034082055092,"146":0.027027083560824394,"147":-0.03499801456928253,"148":0.07521560788154602,"149":-0.02501261793076992,"150":0.022202707827091217,"151":-0.049998048692941666,"152":-0.03503387048840523,"153":0.045371752232313156,"154":0.00809385348111391,"155":-0.05044333264231682,"156":0.009083574637770653,"157":-0.042219407856464386,"158":0.05237393081188202,"159":0.009060593321919441,"160":-0.07736735790967941,"161":0.06529039889574051,"162":-0.009838842786848545,"163":0.040636975318193436,"164":-0.0025352411903440952,"165":0.039822615683078766,"166":0.01719074510037899,"167":-0.010503917932510376,"168":0.011008954606950283,"169":0.029755698516964912,"170":-0.009564274922013283,"171":-0.07137081772089005,"172":-0.06810959428548813,"173":-0.041710156947374344,"174":0.06266415119171143,"175":0.0654006078839302,"176":0.06848958879709244,"177":-0.00166331569198519,"178":0.02551683597266674,"179":-0.01693887636065483,"180":0.0792275071144104,"181":-0.06084053963422775,"182":0.014233308844268322,"183":0.0033434832002967596,"184":0.033883556723594666,"185":-0.06841986626386642,"186":-0.005820643622428179,"187":0.029755130410194397,"188":0.0283628161996603,"189":-0.028473466634750366,"190":-0.0480014868080616,"191":0.035219233483076096,"192":0.039180513471364975,"193":0.0631694346666336,"194":-0.02630504034459591,"195":-0.04239412769675255,"196":0.043347809463739395,"197":-0.03110003098845482,"198":0.008564301766455173,"199":-0.0772172287106514,"200":0.013312585651874542,"201":-0.01851528510451317,"202":-0.02681179903447628,"203":-0.05994424223899841,"204":0.07145524770021439,"205":0.05112733691930771,"206":-0.062241923063993454,"207":0.007677273824810982,"208":0.03845423832535744,"209":-0.07868696004152298,"210":0.046957675367593765,"211":-0.0766897052526474,"212":0.024604255333542824,"213":-0.0775570198893547,"214":0.01695394143462181,"215":0.040810130536556244,"216":0.040687195956707,"217":0.03774382919073105,"218":-0.053593944758176804,"219":-0.009052105247974396,"220":0.010921216569840908,"221":-0.015568068251013756,"222":0.003049939638003707,"223":0.06582988798618317,"224":-0.03185955435037613,"225":0.040420323610305786,"226":0.07479161024093628,"227":-0.035489462316036224,"228":0.05501917749643326,"229":-0.045685768127441406,"230":-0.010551203973591328,"231":0.043163102120161057,"232":0.0047048842534422874,"233":-0.03996724262833595,"234":0.07326937466859818,"235":-0.0466933511197567,"236":0.040176477283239365,"237":0.060716401785612106,"238":0.02032671868801117,"239":-0.06555740535259247,"240":0.03808131814002991,"241":-0.0035900743678212166,"242":-0.014313518069684505,"243":0.038609351962804794,"244":0.04406041279435158,"245":-0.0694408044219017,"246":-0.02421434223651886,"247":-0.010359808802604675,"248":0.05114048346877098,"249":0.005643808748573065,"250":0.07312288135290146,"251":-0.036447688937187195,"252":-0.04506778344511986,"253":0.03738149255514145,"254":0.05795559287071228,"255":-0.04285178706049919,"256":-0.01856115274131298,"257":0.04920335114002228,"258":0.04614569619297981,"259":-0.004535646177828312,"260":0.07574763894081116,"261":0.07644745707511902,"262":0.0528804212808609,"263":-0.027197828516364098,"264":0.0037952999118715525,"265":0.0363687239587307,"266":0.07586769014596939,"267":-0.07482526451349258,"268":0.026844147592782974,"269":0.027709446847438812,"270":0.045275311917066574,"271":-0.04171251505613327,"272":-0.07189484685659409,"273":-0.01602787896990776,"274":0.06501547992229462,"275":0.027796102687716484,"276":0.044970132410526276,"277":-0.0776297077536583,"278":0.06587295979261398,"279":-0.06974375993013382,"280":-0.040914956480264664,"281":-0.0418061837553978,"282":-0.04862184077501297,"283":-0.04139028117060661,"284":0.06531786918640137,"285":-0.0663139820098877,"286":-0.005328010767698288,"287":-0.04283461719751358,"288":0.027711279690265656,"289":0.048361483961343765,"290":0.011487455107271671,"291":-0.006387981586158276,"292":-0.00042630426469258964,"293":0.02491978369653225,"294":-0.07546661794185638,"295":-0.04440335929393768,"296":-0.026856964454054832,"297":0.021759238094091415,"298":0.007127041928470135,"299":-0.02024460770189762,"300":-0.02130020596086979,"301":0.010816110298037529,"302":0.07750700414180756,"303":-0.015889625996351242,"304":0.05677073448896408,"305":-0.048556264489889145,"306":-0.04177999123930931,"307":0.024327943101525307,"308":-0.06278452277183533,"309":-0.0395369790494442,"310":-0.0684758722782135,"311":0.04309245944023132,"312":-0.02572907693684101,"313":0.0765686109662056,"314":-0.05770798772573471,"315":-0.07203533500432968,"316":-0.0035856948234140873,"317":-0.02920207753777504,"318":-0.06397280097007751,"319":0.045769501477479935,"320":-0.07744120061397552,"321":0.05755743756890297,"322":0.06443752348423004,"323":-0.040862031280994415,"324":-0.04556325823068619,"325":0.017504842951893806,"326":-0.04569675400853157,"327":0.049831949174404144,"328":-0.014347633346915245,"329":-0.04949280619621277,"330":0.025818239897489548,"331":-0.017588645219802856,"332":0.04831229895353317,"333":-0.03020418994128704,"334":0.04590395465493202,"335":0.0687163695693016,"336":0.03545600175857544,"337":-0.013111689127981663,"338":-0.05529427155852318,"339":-0.013289568945765495,"340":-0.06838783621788025,"341":0.009646984748542309,"342":0.029751038178801537,"343":-0.044129155576229095,"344":0.013601730577647686,"345":-0.021780414506793022,"346":0.07228966802358627,"347":0.031100895255804062,"348":-0.012022806331515312,"349":-0.013048282824456692,"350":0.0477035753428936,"351":-0.0517604686319828,"352":0.03185899555683136,"353":0.010044481605291367,"354":-0.008497818373143673,"355":0.05419690161943436,"356":0.029073167592287064,"357":-0.029576599597930908,"358":0.04843883216381073,"359":-0.03717266768217087,"360":-0.00045888940803706646,"361":0.06994232535362244,"362":0.056463614106178284,"363":-0.01424695085734129,"364":0.0034177815541625023,"365":0.016236161813139915,"366":-0.02585451491177082,"367":-0.05997288599610329,"368":0.06720086932182312,"369":0.05285923182964325,"370":0.02675689198076725,"371":-0.06553352624177933,"372":-0.02410566434264183,"373":-0.04579606279730797,"374":0.033253319561481476,"375":-0.014569932594895363,"376":0.015612523071467876,"377":0.0440971665084362,"378":-0.04132341593503952,"379":-0.05210088938474655,"380":-0.0011306465603411198,"381":-0.0011243850458413363,"382":-0.027890287339687347,"383":-0.03721185773611069,"384":-0.025044048205018044,"385":0.03762212023139,"386":0.001810701796784997,"387":-0.004603457171469927,"388":-0.01232617162168026,"389":-0.057916607707738876,"390":-0.04303813353180885,"391":0.015225496143102646,"392":0.024318227544426918,"393":-0.021090330556035042,"394":-0.07683698832988739,"395":0.06704333424568176,"396":-0.04162327200174332,"397":-0.04190397262573242,"398":0.028155075386166573,"399":-0.04677489027380943}},"inputBias":{"rows":20,"columns":1,"weights":{"0":0,"1":0,"2":0,"3":0,"4":0,"5":0,"6":0,"7":0,"8":0,"9":0,"10":0,"11":0,"12":0,"13":0,"14":0,"15":0,"16":0,"17":0,"18":0,"19":0}},"forgetMatrix":{"rows":20,"columns":20,"weights":{"0":-0.06307952851057053,"1":0.02297317050397396,"2":-0.05527479946613312,"3":-0.06579876691102982,"4":-0.058186739683151245,"5":-0.07962200045585632,"6":0.004195734858512878,"7":-0.03775329142808914,"8":0.015741074457764626,"9":-0.05781068652868271,"10":-0.05293765664100647,"11":-0.02553374692797661,"12":-0.06911765038967133,"13":0.02450883761048317,"14":0.06341619044542313,"15":0.026794899255037308,"16":0.03472936898469925,"17":-0.0070809717290103436,"18":0.0706746056675911,"19":0.054817765951156616,"20":0.05653291195631027,"21":-0.018153740093111992,"22":-0.00711891520768404,"23":0.033430300652980804,"24":-0.0029166177846491337,"25":0.0072542717680335045,"26":0.03750281035900116,"27":0.03798457235097885,"28":0.06454263627529144,"29":0.06655867397785187,"30":0.056083712726831436,"31":-0.05952934920787811,"32":0.00250196922570467,"33":0.031005147844552994,"34":0.03834935277700424,"35":0.04326099157333374,"36":0.0035045919939875603,"37":-0.04273980110883713,"38":-0.005286584608256817,"39":-0.018599532544612885,"40":0.039576757699251175,"41":0.0014217155985534191,"42":0.044222641736269,"43":-0.07886301726102829,"44":-0.013067860156297684,"45":0.054335180670022964,"46":-0.0667169839143753,"47":0.06088349223136902,"48":0.07145456224679947,"49":-0.07791761308908463,"50":0.06752399355173111,"51":0.015425676479935646,"52":-0.026693105697631836,"53":-0.05933152511715889,"54":0.06437832117080688,"55":-0.03738085553050041,"56":-0.057428859174251556,"57":0.028580067679286003,"58":0.04998846352100372,"59":0.00930976215749979,"60":-0.05773796886205673,"61":-0.015070521272718906,"62":-0.004255261737853289,"63":0.04945423826575279,"64":-0.00026952376356348395,"65":0.0711049810051918,"66":-0.052480921149253845,"67":0.01457524485886097,"68":-0.056332554668188095,"69":0.033639490604400635,"70":-0.0003746427537407726,"71":0.03007185272872448,"72":0.006222882773727179,"73":-0.06904739886522293,"74":0.039827797561883926,"75":-0.011807694099843502,"76":-0.039134588092565536,"77":0.06459556519985199,"78":-0.06648781895637512,"79":0.04015669971704483,"80":-0.001215540338307619,"81":-0.02299712412059307,"82":-0.07645528018474579,"83":-0.07318039238452911,"84":-0.00856856256723404,"85":0.021398218348622322,"86":0.06504282355308533,"87":0.015468833968043327,"88":-0.03135722130537033,"89":-0.053339146077632904,"90":-0.058955129235982895,"91":0.035610347986221313,"92":0.03813715651631355,"93":0.06248132884502411,"94":0.06970879435539246,"95":0.05181978642940521,"96":-0.053668953478336334,"97":-0.07134534418582916,"98":0.02055664360523224,"99":-0.03054741770029068,"100":-0.021775420755147934,"101":0.06939562410116196,"102":-0.01422919612377882,"103":0.0599394291639328,"104":-0.049431607127189636,"105":-0.07092739641666412,"106":0.07185223698616028,"107":0.05532011017203331,"108":-0.05283234268426895,"109":0.008472105488181114,"110":0.052462074905633926,"111":0.01706446334719658,"112":-0.0687057375907898,"113":0.03065379709005356,"114":-0.047436606138944626,"115":-0.025429215282201767,"116":0.023399095982313156,"117":-0.07692733407020569,"118":-0.025594977661967278,"119":0.06373061239719391,"120":0.012714061886072159,"121":-0.06301980465650558,"122":-0.011054746806621552,"123":-0.0640060156583786,"124":-0.04209515079855919,"125":-0.055409062653779984,"126":0.05238497257232666,"127":0.05814795941114426,"128":-0.07435716688632965,"129":-0.00045540640712715685,"130":0.07234456390142441,"131":-0.041653264313936234,"132":0.02572043612599373,"133":-0.04891585186123848,"134":0.058286406099796295,"135":0.059144239872694016,"136":0.024315493181347847,"137":0.044964369386434555,"138":0.03582948446273804,"139":0.043572064489126205,"140":-0.02836798131465912,"141":0.020180409774184227,"142":0.029918372631072998,"143":0.052181046456098557,"144":0.07441682368516922,"145":0.0654289498925209,"146":-0.029774963855743408,"147":0.06084290146827698,"148":-0.06482819467782974,"149":0.06350337713956833,"150":-0.0240176934748888,"151":-0.03095318004488945,"152":0.01296343095600605,"153":0.012441984377801418,"154":0.00270844460465014,"155":0.016363341361284256,"156":-0.03229274973273277,"157":-0.013533920980989933,"158":-0.06672067940235138,"159":0.027849426493048668,"160":0.060444820672273636,"161":-0.051618997007608414,"162":0.0790293887257576,"163":0.026774313300848007,"164":0.05710829049348831,"165":-0.034118711948394775,"166":0.01687067560851574,"167":0.020050708204507828,"168":-0.07957592606544495,"169":-0.07349000126123428,"170":-0.05819622427225113,"171":-0.012606007046997547,"172":-0.0014366975519806147,"173":0.038491252809762955,"174":-0.0710664838552475,"175":0.001531632849946618,"176":-0.017413366585969925,"177":0.01260911114513874,"178":-0.05225588008761406,"179":0.06340505182743073,"180":-0.042558375746011734,"181":-0.06992565840482712,"182":-0.04812890291213989,"183":-0.008969639427959919,"184":0.06277214735746384,"185":-0.05820126831531525,"186":-0.015474140644073486,"187":0.05742409825325012,"188":0.0753248855471611,"189":0.06020337715744972,"190":0.044837530702352524,"191":0.04697719216346741,"192":-0.015524513088166714,"193":0.01291467621922493,"194":0.048634063452482224,"195":0.0206279456615448,"196":0.006578431930392981,"197":-0.05567421391606331,"198":0.0030951101798564196,"199":0.06440379470586777,"200":0.030843326821923256,"201":-0.006067892070859671,"202":0.032217636704444885,"203":-0.03220464289188385,"204":0.039916496723890305,"205":-0.035894542932510376,"206":0.041091740131378174,"207":0.03175949305295944,"208":-0.029746543616056442,"209":-0.05736270174384117,"210":-0.07004550844430923,"211":-0.00938563421368599,"212":0.027785159647464752,"213":-0.06823192536830902,"214":-0.06341017037630081,"215":0.04936767369508743,"216":0.04658229276537895,"217":0.07131202518939972,"218":-0.05762653425335884,"219":-0.01973734237253666,"220":0.040289413183927536,"221":-0.014332600869238377,"222":-0.07769819349050522,"223":0.06725463271141052,"224":0.047807902097702026,"225":-0.01395169086754322,"226":0.0034741093404591084,"227":0.06338781863451004,"228":0.052097003906965256,"229":0.011077563278377056,"230":-0.03649527579545975,"231":-0.055713165551424026,"232":0.0295267254114151,"233":0.02336166612803936,"234":-0.010897093452513218,"235":0.01769348792731762,"236":-0.025093581527471542,"237":-0.0646977424621582,"238":0.05338342860341072,"239":-0.06558368355035782,"240":0.04513895884156227,"241":-0.03581967577338219,"242":0.06939951330423355,"243":-0.050860509276390076,"244":0.03312234580516815,"245":-0.0003523638879414648,"246":0.06466741114854813,"247":0.0016404129564762115,"248":-0.004257414489984512,"249":0.03867937624454498,"250":0.005382961593568325,"251":0.031069811433553696,"252":-0.03191639110445976,"253":0.027148760855197906,"254":-0.00892880093306303,"255":0.05095824971795082,"256":-0.04287778213620186,"257":0.04913464933633804,"258":0.05117947235703468,"259":0.03649783506989479,"260":-0.004336329642683268,"261":-0.02408469468355179,"262":0.05355411395430565,"263":0.0642838180065155,"264":-0.04045993089675903,"265":-0.0019603560212999582,"266":-0.051940497010946274,"267":0.07931902259588242,"268":-0.06513197720050812,"269":-0.02325689047574997,"270":-0.07975861430168152,"271":-0.030557874590158463,"272":0.034288596361875534,"273":0.06312444061040878,"274":-0.028402630239725113,"275":0.06318844854831696,"276":-0.04469113424420357,"277":-0.011416342109441757,"278":0.025470532476902008,"279":-0.011714647524058819,"280":0.04311449080705643,"281":0.04999423027038574,"282":-0.07481179386377335,"283":0.04340393841266632,"284":-0.03498834744095802,"285":0.02101045846939087,"286":0.07270518690347672,"287":-0.059057123959064484,"288":0.061015598475933075,"289":-0.021066740155220032,"290":0.05339943617582321,"291":0.04443807154893875,"292":0.04051939398050308,"293":-0.06668685376644135,"294":-0.04697851464152336,"295":-0.0074961744248867035,"296":0.03446482494473457,"297":-0.011055772192776203,"298":-0.0067691197618842125,"299":0.05502376705408096,"300":0.05409981682896614,"301":-0.039049182087183,"302":0.0776970162987709,"303":0.001274971175007522,"304":-0.0022817044518887997,"305":-0.053234025835990906,"306":0.058766525238752365,"307":-0.009031958878040314,"308":0.07345198094844818,"309":-0.030425619333982468,"310":0.003403614740818739,"311":0.008699586614966393,"312":0.04049891233444214,"313":0.000729373365174979,"314":-0.016530735418200493,"315":-0.02169695869088173,"316":-0.031596217304468155,"317":0.021015657112002373,"318":-0.05345994979143143,"319":0.0487922728061676,"320":0.019476700574159622,"321":0.009332222864031792,"322":0.05692432448267937,"323":-0.03385667875409126,"324":0.002171114319935441,"325":0.00469882320612669,"326":0.05369262769818306,"327":-0.01773044653236866,"328":-0.0351753756403923,"329":-0.011147767305374146,"330":-0.07874906063079834,"331":-0.03009474277496338,"332":0.018600955605506897,"333":-0.06522493064403534,"334":-0.04666166752576828,"335":0.03466964513063431,"336":-0.026062829419970512,"337":-0.05461503192782402,"338":-0.021613340824842453,"339":-0.010303692892193794,"340":0.0708729550242424,"341":-0.03781751170754433,"342":0.017502311617136,"343":-0.06679849326610565,"344":-0.010426647961139679,"345":-0.019124964252114296,"346":-0.07331328839063644,"347":-0.03747151046991348,"348":-0.07260245084762573,"349":-0.04726264253258705,"350":0.052123598754405975,"351":-0.06763268262147903,"352":0.0017903948901221156,"353":0.025288578122854233,"354":0.07880359888076782,"355":0.06656514108181,"356":-0.04579468071460724,"357":-0.016406724229454994,"358":0.013610199093818665,"359":-0.055161189287900925,"360":0.03709934651851654,"361":0.01250762864947319,"362":0.029857754707336426,"363":0.03759067878127098,"364":0.01752135157585144,"365":0.0045983996242284775,"366":0.007846114225685596,"367":-0.009123028255999088,"368":-0.038202766329050064,"369":0.03119669109582901,"370":-0.04347071424126625,"371":-0.028529630973935127,"372":-0.04584338515996933,"373":-0.035672083497047424,"374":0.029403455555438995,"375":0.00082826690049842,"376":0.056146927177906036,"377":0.058680638670921326,"378":0.01686650514602661,"379":-0.05984724685549736,"380":-0.05577509477734566,"381":0.0077531724236905575,"382":0.01308060996234417,"383":0.07816467434167862,"384":-0.04488011822104454,"385":-0.009664719924330711,"386":0.015297348611056805,"387":0.016831882297992706,"388":-0.06223733723163605,"389":-0.006772119086235762,"390":-0.005509836599230766,"391":0.0021085834596306086,"392":0.05410665273666382,"393":-0.033456139266490936,"394":0.0057092891074717045,"395":-0.05948638916015625,"396":0.0037444098852574825,"397":0.010705283842980862,"398":0.024333640933036804,"399":-0.07850858569145203}},"forgetHidden":{"rows":20,"columns":20,"weights":{"0":0.049571409821510315,"1":-0.0747923031449318,"2":0.05609788000583649,"3":-0.01966358721256256,"4":-0.06509283930063248,"5":-0.02243242971599102,"6":-0.059980280697345734,"7":0.016638267785310745,"8":-0.006564691662788391,"9":-0.010633724741637707,"10":0.043491754680871964,"11":0.0035545225255191326,"12":-0.031040029600262642,"13":-0.0727524682879448,"14":0.049457378685474396,"15":0.008704123087227345,"16":-0.0659710168838501,"17":0.06189349293708801,"18":0.04699132964015007,"19":-0.04054267331957817,"20":0.045189421623945236,"21":0.01026840042322874,"22":-0.044428225606679916,"23":-0.07102109491825104,"24":0.027131885290145874,"25":-0.025981726124882698,"26":-0.013270726427435875,"27":-0.000909258087631315,"28":0.013163289986550808,"29":0.05133602395653725,"30":-0.05781161040067673,"31":-0.030210934579372406,"32":0.06325790286064148,"33":-0.06663262099027634,"34":0.05675498768687248,"35":-0.06551108509302139,"36":0.06697463244199753,"37":0.004010321572422981,"38":0.04043544456362724,"39":-0.007833627983927727,"40":0.05642133951187134,"41":0.04010375216603279,"42":-0.07547307014465332,"43":-0.015524136833846569,"44":0.04586130753159523,"45":-0.05896839499473572,"46":0.06654731184244156,"47":0.06752319633960724,"48":0.018466828390955925,"49":-0.04480317234992981,"50":-0.046201638877391815,"51":-0.01355303917080164,"52":-0.04701970890164375,"53":0.06320232897996902,"54":0.0042677526362240314,"55":-0.024392466992139816,"56":-0.04653502628207207,"57":-0.07538852095603943,"58":-0.024928444996476173,"59":0.0401473343372345,"60":0.06974778324365616,"61":0.053343094885349274,"62":-0.06884481012821198,"63":-0.05913505703210831,"64":0.06833966821432114,"65":0.023742834106087685,"66":0.001967847580090165,"67":-0.021761370822787285,"68":0.06997041404247284,"69":-0.05075639486312866,"70":0.035900890827178955,"71":-0.0015826205490157008,"72":-0.034998826682567596,"73":-0.07727546244859695,"74":0.04553931951522827,"75":0.025623047724366188,"76":0.04911697283387184,"77":0.01754019781947136,"78":-0.0791282057762146,"79":-0.05738154798746109,"80":0.014370051212608814,"81":-0.06339302659034729,"82":0.000459710048744455,"83":-0.014522782526910305,"84":-0.04802057519555092,"85":0.04532090947031975,"86":0.028728829696774483,"87":0.01505994237959385,"88":0.03225797414779663,"89":0.0708351731300354,"90":0.04678864777088165,"91":0.005596519447863102,"92":-0.0027333192992955446,"93":0.02342659793794155,"94":0.008987605571746826,"95":-0.04801664873957634,"96":0.05191725119948387,"97":0.06669342517852783,"98":-0.019229693338274956,"99":-0.05164780467748642,"100":-0.011490237899124622,"101":0.007672410923987627,"102":0.032201431691646576,"103":0.025737961754202843,"104":-0.023680107668042183,"105":-0.001458832761272788,"106":-0.03486582264304161,"107":0.0735035315155983,"108":-0.010661597363650799,"109":0.023398378863930702,"110":-0.033405549824237823,"111":0.01266363263130188,"112":-0.021420631557703018,"113":0.03313428536057472,"114":0.010546392761170864,"115":-0.033552806824445724,"116":-0.03957543522119522,"117":0.06594178080558777,"118":-0.0730658546090126,"119":0.02764664776623249,"120":0.019496135413646698,"121":-0.06229902058839798,"122":-0.0032124524004757404,"123":0.0693773701786995,"124":-0.03231216222047806,"125":0.03259825333952904,"126":0.033363305032253265,"127":0.00995266530662775,"128":0.07887999713420868,"129":-0.001516820164397359,"130":-0.007142829243093729,"131":-0.018027523532509804,"132":0.047332484275102615,"133":-0.000014869815458951052,"134":0.01154386717826128,"135":-0.0053399973548948765,"136":-0.031197749078273773,"137":0.01963859051465988,"138":-0.03227388113737106,"139":0.03851522132754326,"140":0.07641535997390747,"141":0.06827801465988159,"142":-0.04322739318013191,"143":0.03082837350666523,"144":0.04394703358411789,"145":0.05104804411530495,"146":0.04520278424024582,"147":-0.04455167427659035,"148":-0.061496127396821976,"149":0.0024255295284092426,"150":-0.043907999992370605,"151":-0.023855186998844147,"152":-0.010977472178637981,"153":0.004348619841039181,"154":-0.07174371182918549,"155":0.009435483254492283,"156":-0.05403153598308563,"157":-0.04624192789196968,"158":0.053026746958494186,"159":0.012586249969899654,"160":0.06988417357206345,"161":0.04041707515716553,"162":-0.050680339336395264,"163":0.047668538987636566,"164":-0.023706231266260147,"165":-0.04835299029946327,"166":-0.032033149152994156,"167":-0.05697380006313324,"168":0.06903891265392303,"169":-0.00206420267932117,"170":-0.05777163431048393,"171":-0.03491031378507614,"172":0.040943630039691925,"173":-0.0003902625176124275,"174":-0.06454193592071533,"175":0.026065541431307793,"176":0.0038069903384894133,"177":-0.015507486648857594,"178":-0.03640153259038925,"179":-0.040815602988004684,"180":0.040665850043296814,"181":0.061584971845149994,"182":0.0023123808205127716,"183":0.06481555104255676,"184":-0.07843641936779022,"185":-0.05741443857550621,"186":0.016737546771764755,"187":0.06573708355426788,"188":-0.013937189243733883,"189":0.04143916442990303,"190":-0.005630294792354107,"191":0.002025609603151679,"192":0.05495069921016693,"193":0.027560697868466377,"194":0.06960716098546982,"195":0.018441172316670418,"196":-0.04927751421928406,"197":0.05232233554124832,"198":-0.006219206843525171,"199":0.0076882559806108475,"200":0.02049313671886921,"201":0.006080332212150097,"202":0.03699680417776108,"203":-0.056487664580345154,"204":-0.012511159293353558,"205":-0.004012562800198793,"206":-0.06007452309131622,"207":-0.017086662352085114,"208":0.05626453831791878,"209":-0.0363156832754612,"210":0.07278676331043243,"211":-0.04235268384218216,"212":0.0015380334807559848,"213":0.04596564173698425,"214":-0.02589922770857811,"215":-0.050913311541080475,"216":-0.027825823053717613,"217":-0.054558735340833664,"218":0.04670308902859688,"219":-0.015802234411239624,"220":0.023775121197104454,"221":-0.012610813602805138,"222":0.05582333728671074,"223":0.039991240948438644,"224":0.026605697348713875,"225":0.022218327969312668,"226":0.0797315388917923,"227":-0.05113822594285011,"228":0.06822675466537476,"229":0.05619588494300842,"230":-0.07404054701328278,"231":-0.016133885830640793,"232":-0.00890376791357994,"233":-0.005176435690373182,"234":-0.010137411765754223,"235":-0.012646550312638283,"236":-0.011530944146215916,"237":-0.04458610340952873,"238":-0.04439502954483032,"239":0.0629723072052002,"240":0.023741446435451508,"241":-0.052080072462558746,"242":0.0601564384996891,"243":0.0012079187436029315,"244":-0.02966422401368618,"245":0.015824995934963226,"246":0.07091867923736572,"247":0.0021283901296555996,"248":0.06877189129590988,"249":0.06663989275693893,"250":0.03956710547208786,"251":-0.07348944991827011,"252":-0.03861244022846222,"253":-0.046230047941207886,"254":-0.06282904744148254,"255":0.06755159050226212,"256":-0.07838355749845505,"257":-0.03352455422282219,"258":0.038720276206731796,"259":0.013031366281211376,"260":-0.017339736223220825,"261":0.05872076004743576,"262":0.0020401340443640947,"263":0.04321584478020668,"264":0.0735052078962326,"265":0.03039347566664219,"266":-0.011854729615151882,"267":-0.003004851285368204,"268":0.0013889604015275836,"269":-0.07124630361795425,"270":-0.040498655289411545,"271":-0.07867321372032166,"272":-0.03644522652029991,"273":0.0541536882519722,"274":0.06579668074846268,"275":-0.041564300656318665,"276":0.03566353768110275,"277":-0.04953232407569885,"278":-0.025201551616191864,"279":-0.0580502524971962,"280":-0.0759168416261673,"281":0.0784093365073204,"282":-0.07518011331558228,"283":-0.0639224499464035,"284":-0.06839551776647568,"285":-0.04476063326001167,"286":-0.0010731486836448312,"287":-0.021513350307941437,"288":0.006866582203656435,"289":-0.02742382325232029,"290":-0.06723884493112564,"291":0.015768570825457573,"292":0.007658309768885374,"293":0.018527058884501457,"294":0.04316088929772377,"295":0.041497401893138885,"296":0.07090431451797485,"297":0.07429495453834534,"298":0.034479718655347824,"299":0.014525233767926693,"300":-0.02597884275019169,"301":0.07894102483987808,"302":-0.020560452714562416,"303":-0.045959945768117905,"304":0.048228777945041656,"305":0.03793695196509361,"306":-0.04942384362220764,"307":0.05787770822644234,"308":-0.011598410084843636,"309":0.07529591768980026,"310":0.04068857058882713,"311":-0.008442996069788933,"312":0.07106909900903702,"313":-0.025515666231513023,"314":0.002850749297067523,"315":0.013087686151266098,"316":0.028117382898926735,"317":0.04171193391084671,"318":0.018316755071282387,"319":-0.04400619864463806,"320":-0.01829940266907215,"321":-0.012489543296396732,"322":0.02297539822757244,"323":-0.004463934805244207,"324":0.03690782189369202,"325":-0.0673314705491066,"326":-0.06895434856414795,"327":-0.004428491927683353,"328":-0.02497096173465252,"329":-0.002924163592979312,"330":-0.06656177341938019,"331":-0.05064787715673447,"332":-0.0780705064535141,"333":-0.07412534952163696,"334":-0.07673267275094986,"335":0.009371021762490273,"336":-0.036873433738946915,"337":-0.06141126528382301,"338":0.036137983202934265,"339":0.033429794013500214,"340":0.012443896383047104,"341":-0.001424115034751594,"342":-0.05832228064537048,"343":0.0047791642136871815,"344":0.03144383803009987,"345":-0.01707557775080204,"346":0.01443902775645256,"347":0.044129472225904465,"348":0.07517680525779724,"349":-0.005641560070216656,"350":-0.021072976291179657,"351":0.04235227406024933,"352":-0.03823649138212204,"353":-0.03975313529372215,"354":0.05164138972759247,"355":-0.07817888259887695,"356":-0.07474657148122787,"357":0.06416507810354233,"358":0.04927380383014679,"359":0.07645329087972641,"360":0.07187733054161072,"361":-0.04267120733857155,"362":-0.06772937625646591,"363":-0.04364331439137459,"364":-0.04772333800792694,"365":0.025056853890419006,"366":-0.048188481479883194,"367":-0.048904649913311005,"368":0.0026182830333709717,"369":-0.0722157433629036,"370":-0.062040895223617554,"371":-0.05261911079287529,"372":-0.05980706959962845,"373":-0.024251624941825867,"374":0.03815272077918053,"375":-0.026853665709495544,"376":-0.01476954109966755,"377":-0.03707505762577057,"378":0.03602614626288414,"379":-0.07247453182935715,"380":-0.0439579039812088,"381":0.07567820698022842,"382":0.0566260889172554,"383":-0.06225661560893059,"384":-0.04919256269931793,"385":0.0731983482837677,"386":-0.06610728055238724,"387":0.0018664427334442735,"388":-0.02076585590839386,"389":-0.04012064263224602,"390":-0.040704067796468735,"391":-0.003182210959494114,"392":0.07902596145868301,"393":0.07146340608596802,"394":0.025927281007170677,"395":0.058690059930086136,"396":-0.023287834599614143,"397":-0.0736004039645195,"398":0.011295868083834648,"399":-0.016308214515447617}},"forgetBias":{"rows":20,"columns":1,"weights":{"0":0,"1":0,"2":0,"3":0,"4":0,"5":0,"6":0,"7":0,"8":0,"9":0,"10":0,"11":0,"12":0,"13":0,"14":0,"15":0,"16":0,"17":0,"18":0,"19":0}},"outputMatrix":{"rows":20,"columns":20,"weights":{"0":0.025896072387695312,"1":-0.07311928272247314,"2":-0.01617465913295746,"3":-0.0215596966445446,"4":0.0373285636305809,"5":-0.006120283622294664,"6":0.06387007981538773,"7":-0.0002537332766223699,"8":0.046010203659534454,"9":-0.05908747762441635,"10":0.010840382426977158,"11":0.0355629064142704,"12":-0.0746934786438942,"13":-0.044625718146562576,"14":0.06226214021444321,"15":-0.043773163110017776,"16":0.06912488490343094,"17":-0.01921212486922741,"18":-0.02815195359289646,"19":0.05047670751810074,"20":-0.07157877087593079,"21":-0.004941697232425213,"22":-0.05028584972023964,"23":-0.05528847873210907,"24":0.0631956085562706,"25":-0.014888664707541466,"26":-0.011507421731948853,"27":-0.0030394247733056545,"28":-0.032779812812805176,"29":0.044627707451581955,"30":-0.0030278777703642845,"31":-0.060532595962285995,"32":-0.01955430395901203,"33":-0.05973163992166519,"34":0.030000939965248108,"35":0.0014955129008740187,"36":0.0021264897659420967,"37":0.021692855283617973,"38":0.07657289505004883,"39":-0.020575178787112236,"40":-0.0012249917490407825,"41":0.029976585879921913,"42":0.05197807028889656,"43":0.07130663841962814,"44":0.07018398493528366,"45":-0.0030009381007403135,"46":-0.05939309298992157,"47":0.0003178768965881318,"48":0.07235855609178543,"49":-0.0017109093023464084,"50":-0.03529038652777672,"51":0.06698781996965408,"52":-0.06516394764184952,"53":-0.06934341043233871,"54":0.07858943939208984,"55":-0.07233768701553345,"56":-0.048742156475782394,"57":0.0010649800533428788,"58":-0.018278982490301132,"59":-0.00012959328887518495,"60":0.049729179590940475,"61":-0.020845109596848488,"62":-0.06496146321296692,"63":-0.023151181638240814,"64":-0.07705865055322647,"65":0.06578550487756729,"66":0.02003193460404873,"67":0.060604892671108246,"68":0.033193979412317276,"69":0.06542707234621048,"70":-0.04460863023996353,"71":0.0377376452088356,"72":-0.0624062605202198,"73":0.018633628264069557,"74":0.04759444668889046,"75":0.05991191416978836,"76":-0.06801982969045639,"77":-0.04702964797616005,"78":0.0018832847708836198,"79":0.04373236745595932,"80":0.05414585769176483,"81":-0.05629635229706764,"82":0.03143583983182907,"83":0.03141002357006073,"84":-0.06848421692848206,"85":0.01901339925825596,"86":-0.007174795493483543,"87":-0.024585409089922905,"88":0.07657450437545776,"89":0.031106607988476753,"90":-0.000806222262326628,"91":-0.007983009330928326,"92":-0.07271413505077362,"93":0.04342593625187874,"94":-0.056141890585422516,"95":-0.031007710844278336,"96":-0.006274598650634289,"97":0.06683220714330673,"98":-0.06621116399765015,"99":-0.02633083239197731,"100":0.04938879981637001,"101":-0.05556824430823326,"102":0.06777927279472351,"103":-0.047559935599565506,"104":-0.05499935895204544,"105":0.03764888271689415,"106":-0.002580308122560382,"107":-0.03026963397860527,"108":-0.007326910272240639,"109":-0.01906776987016201,"110":-0.0028581535443663597,"111":0.07208842039108276,"112":-0.04101252183318138,"113":-0.056565944105386734,"114":0.029338210821151733,"115":0.06803645938634872,"116":-0.017663290724158287,"117":0.03534414619207382,"118":-0.022828254848718643,"119":-0.050097476691007614,"120":0.044575873762369156,"121":-0.02547491528093815,"122":-0.074177086353302,"123":0.05927293375134468,"124":0.03823672980070114,"125":-0.021077299490571022,"126":-0.050095055252313614,"127":-0.039479438215494156,"128":-0.07554954290390015,"129":0.06346999108791351,"130":0.06767308712005615,"131":-0.007673274260014296,"132":0.007858062162995338,"133":0.06837359815835953,"134":0.025797171518206596,"135":0.042083751410245895,"136":-0.02301885187625885,"137":-0.052455052733421326,"138":0.06465986371040344,"139":-0.06462667137384415,"140":0.049802351742982864,"141":-0.01410493440926075,"142":0.006185740698128939,"143":-0.07197975367307663,"144":-0.008305703289806843,"145":-0.0524526946246624,"146":0.031495094299316406,"147":0.024443991482257843,"148":-0.02655043825507164,"149":-0.06844853609800339,"150":0.005999702960252762,"151":-0.030319642275571823,"152":0.05164983868598938,"153":-0.013821754604578018,"154":0.04891734570264816,"155":-0.026132604107260704,"156":-0.02970924787223339,"157":0.003764401888474822,"158":-0.026357324793934822,"159":0.02521558478474617,"160":0.03500942885875702,"161":0.0362546481192112,"162":0.07080861926078796,"163":0.049036990851163864,"164":-0.041462503373622894,"165":-0.008020248264074326,"166":-0.0062179421074688435,"167":-0.05789545178413391,"168":-0.030927304178476334,"169":-0.045997124165296555,"170":-0.02866574376821518,"171":0.04545531049370766,"172":0.04412367567420006,"173":-0.03560536727309227,"174":-0.07572924345731735,"175":0.04160066694021225,"176":-0.035135794430971146,"177":0.005345516838133335,"178":0.019102586433291435,"179":-0.07037397474050522,"180":0.03724155202507973,"181":-0.007268281653523445,"182":-0.06779207289218903,"183":-0.028048869222402573,"184":-0.06068876013159752,"185":0.04900754988193512,"186":-0.073919378221035,"187":0.05710076168179512,"188":0.06769917160272598,"189":0.017147740349173546,"190":0.012727716006338596,"191":0.03330426663160324,"192":-0.01337371300905943,"193":-0.031959518790245056,"194":-0.036539189517498016,"195":-0.05679602175951004,"196":-0.030112046748399734,"197":-0.04710988700389862,"198":0.03822772577404976,"199":-0.06851331144571304,"200":-0.07213010638952255,"201":-0.07143174856901169,"202":-0.0737103819847107,"203":0.025521473959088326,"204":-0.04189540073275566,"205":-0.029123444110155106,"206":0.011901350691914558,"207":-0.052330587059259415,"208":-0.07552523910999298,"209":-0.035644691437482834,"210":0.01791257970035076,"211":0.07461811602115631,"212":0.06383296847343445,"213":-0.04432903230190277,"214":0.05041041597723961,"215":-0.01167729776352644,"216":0.02994985319674015,"217":0.03563832491636276,"218":-0.017297666519880295,"219":-0.043574437499046326,"220":-0.04667741432785988,"221":0.041156478226184845,"222":-0.0630747601389885,"223":0.07223135977983475,"224":0.05957204848527908,"225":-0.06449956446886063,"226":-0.053553905338048935,"227":0.03736109659075737,"228":0.0003068365913350135,"229":-0.06612735986709595,"230":-0.013673290610313416,"231":-0.026395054534077644,"232":-0.060217682272195816,"233":-0.05422837287187576,"234":-0.03627792000770569,"235":-0.034067846834659576,"236":-0.020640386268496513,"237":-0.003960846457630396,"238":0.02879544161260128,"239":-0.04711170122027397,"240":-0.043915048241615295,"241":0.005253705661743879,"242":-0.06779372692108154,"243":-0.054759420454502106,"244":-0.048938311636447906,"245":-0.018653063103556633,"246":-0.061804790049791336,"247":0.06556649506092072,"248":0.014492384158074856,"249":0.006323106121271849,"250":0.039578136056661606,"251":0.0576845146715641,"252":0.06816668063402176,"253":0.07234755903482437,"254":-0.0456988587975502,"255":0.03764123097062111,"256":0.038128457963466644,"257":-0.07928699254989624,"258":0.046298857778310776,"259":0.06313040107488632,"260":-0.0019219662062823772,"261":-0.066684789955616,"262":-0.015797175467014313,"263":-0.036748021841049194,"264":-0.002893221564590931,"265":-0.025519754737615585,"266":-0.050045859068632126,"267":0.0144971227273345,"268":-0.07361485809087753,"269":-0.007995490916073322,"270":0.030545247718691826,"271":-0.061007801443338394,"272":-0.0184484850615263,"273":0.034751176834106445,"274":0.01889357902109623,"275":-0.062084149569272995,"276":0.043555036187171936,"277":0.03166036680340767,"278":0.06661157310009003,"279":0.024124935269355774,"280":-0.001556334551423788,"281":0.030316775664687157,"282":0.03397684916853905,"283":-0.07926788181066513,"284":0.0254057627171278,"285":0.05990992859005928,"286":0.06300640851259232,"287":0.07160699367523193,"288":0.07736297696828842,"289":-0.05917011573910713,"290":-0.004368454217910767,"291":0.006571802776306868,"292":-0.0020000345539301634,"293":0.002243050606921315,"294":0.0673578679561615,"295":0.021493077278137207,"296":0.06875352561473846,"297":0.008609556593000889,"298":-0.07587924599647522,"299":-0.03917712718248367,"300":0.03961560130119324,"301":-0.018506402149796486,"302":-0.05826304480433464,"303":-0.057043153792619705,"304":-0.04402271658182144,"305":0.004674952942878008,"306":0.042746078222990036,"307":-0.056074559688568115,"308":-0.011549435555934906,"309":0.05657943710684776,"310":0.05844090133905411,"311":0.055358197540044785,"312":-0.011797664687037468,"313":0.04795756936073303,"314":0.040727756917476654,"315":-0.003332644235342741,"316":0.07875131070613861,"317":-0.06544974446296692,"318":-0.010098348371684551,"319":-0.07506853342056274,"320":-0.020887961611151695,"321":0.05541323870420456,"322":0.023170368745923042,"323":0.04903062805533409,"324":0.06705571711063385,"325":-0.07299993932247162,"326":0.026598617434501648,"327":-0.016375718638300896,"328":-0.008432859554886818,"329":-0.06444469094276428,"330":-0.06505942344665527,"331":0.06488115340471268,"332":-0.010773861780762672,"333":0.058364156633615494,"334":-0.03589237481355667,"335":0.04760069027543068,"336":0.07845748960971832,"337":-0.0407264307141304,"338":-0.0724237859249115,"339":-0.07738922536373138,"340":-0.0746777132153511,"341":-0.0244936253875494,"342":-0.022651083767414093,"343":-0.056660622358322144,"344":0.0018338923109695315,"345":-0.05033513531088829,"346":-0.01068808976560831,"347":0.05402921140193939,"348":-0.02283605746924877,"349":-0.07103907316923141,"350":0.07923150062561035,"351":0.03543898090720177,"352":-0.052270762622356415,"353":0.06207019090652466,"354":-0.07349412143230438,"355":0.004706504289060831,"356":-0.0075826081447303295,"357":-0.02886420302093029,"358":-0.03222950920462608,"359":-0.03232478350400925,"360":0.0052768816240131855,"361":-0.031762465834617615,"362":0.03665521740913391,"363":0.04814977943897247,"364":0.05779673531651497,"365":0.03052186220884323,"366":0.0560666099190712,"367":0.03648202121257782,"368":0.054190538823604584,"369":-0.020254474133253098,"370":0.04567234590649605,"371":-0.0031323276925832033,"372":0.06727971136569977,"373":0.03220813348889351,"374":-0.05178724229335785,"375":-0.05219487473368645,"376":0.04273998737335205,"377":0.0695376992225647,"378":0.05364468693733215,"379":-0.02959561161696911,"380":-0.05618824064731598,"381":0.07090200483798981,"382":0.026911675930023193,"383":0.021624121814966202,"384":0.034030064940452576,"385":0.05302899703383446,"386":0.057789359241724014,"387":0.0538441427052021,"388":0.029543165117502213,"389":0.01917324587702751,"390":0.04399112984538078,"391":-0.054610881954431534,"392":0.021395191550254822,"393":0.07669194042682648,"394":-0.07885457575321198,"395":-0.05222727358341217,"396":0.033415231853723526,"397":-0.07976652681827545,"398":0.012889595702290535,"399":0.06360656768083572}},"outputHidden":{"rows":20,"columns":20,"weights":{"0":-0.022244663909077644,"1":0.009264564141631126,"2":0.009701130911707878,"3":0.0672699362039566,"4":-0.05903187021613121,"5":-0.034776270389556885,"6":-0.03499065712094307,"7":0.04393953084945679,"8":-0.033203836530447006,"9":-0.05147187411785126,"10":-0.0036578651051968336,"11":0.05683394521474838,"12":-0.048774074763059616,"13":0.04129515215754509,"14":0.017701130360364914,"15":-0.051273442804813385,"16":0.07822353392839432,"17":-0.010345885530114174,"18":0.07616350799798965,"19":0.006443652790039778,"20":0.023459015414118767,"21":-0.01350304577499628,"22":0.011869488283991814,"23":-0.018411746248602867,"24":-0.03619109094142914,"25":0.04900737851858139,"26":-0.07543753832578659,"27":0.011639894917607307,"28":0.06355983763933182,"29":-0.023677539080381393,"30":0.05505459010601044,"31":-0.03274799883365631,"32":-0.07035601884126663,"33":-0.04711460694670677,"34":0.02891894429922104,"35":0.06987636536359787,"36":0.04787183180451393,"37":0.028508374467492104,"38":-0.035422470420598984,"39":0.01628194749355316,"40":-0.002763964468613267,"41":-0.05534696951508522,"42":-0.042399678379297256,"43":0.03522733598947525,"44":-0.07335396856069565,"45":-0.027641868218779564,"46":-0.03347095474600792,"47":-0.03566312417387962,"48":0.01810004934668541,"49":0.020805420354008675,"50":-0.05062810704112053,"51":-0.015795843675732613,"52":-0.0632873922586441,"53":0.032711468636989594,"54":0.01682407408952713,"55":-0.07123609632253647,"56":-0.05691739544272423,"57":-0.00485944515094161,"58":-0.02811942994594574,"59":0.014174246229231358,"60":-0.07007015496492386,"61":0.07698463648557663,"62":0.07740797102451324,"63":-0.0016564087709411979,"64":0.02147495001554489,"65":0.03689027205109596,"66":-0.07242625951766968,"67":-0.0007059326744638383,"68":0.054405584931373596,"69":0.0012489729560911655,"70":0.06985151022672653,"71":0.020291060209274292,"72":0.05665026977658272,"73":0.07733100652694702,"74":0.04119401052594185,"75":0.07353806495666504,"76":-0.07120982557535172,"77":0.05922142043709755,"78":-0.053707629442214966,"79":0.035517316311597824,"80":0.0631573349237442,"81":-0.003860849654302001,"82":-0.0372588112950325,"83":-0.055525243282318115,"84":-0.07393816113471985,"85":0.005697396118193865,"86":-0.028514817357063293,"87":-0.021325290203094482,"88":-0.021664343774318695,"89":0.07752231508493423,"90":-0.004263760522007942,"91":0.047124627977609634,"92":0.05915400758385658,"93":-0.01049073413014412,"94":-0.0033576777204871178,"95":0.0347619503736496,"96":-0.028710195794701576,"97":0.001350536709651351,"98":0.03507212549448013,"99":0.050120532512664795,"100":0.07180062681436539,"101":0.00917994324117899,"102":0.01266502682119608,"103":0.06227570027112961,"104":-0.04871134087443352,"105":0.06350827217102051,"106":0.011470744386315346,"107":0.036692481487989426,"108":-0.003318822244182229,"109":0.011260474100708961,"110":0.04879419878125191,"111":-0.030080050230026245,"112":0.028547562658786774,"113":-0.05504314601421356,"114":-0.0604720376431942,"115":0.014468719251453876,"116":-0.06432371586561203,"117":0.026280691847205162,"118":-0.018310967832803726,"119":-0.025613782927393913,"120":-0.0375133752822876,"121":0.0449715256690979,"122":0.06618312001228333,"123":0.019862033426761627,"124":-0.014601257629692554,"125":0.0373375304043293,"126":0.0037299199029803276,"127":0.042117632925510406,"128":-0.049484025686979294,"129":-0.0759376510977745,"130":0.07629602402448654,"131":-0.039293788373470306,"132":-0.048855628818273544,"133":-0.04145799204707146,"134":0.035522229969501495,"135":0.03562135994434357,"136":-0.044206652790308,"137":0.020536314696073532,"138":0.029562819749116898,"139":-0.06052757054567337,"140":-0.07437396049499512,"141":0.020470671355724335,"142":0.03436441719532013,"143":-0.050670526921749115,"144":0.008408451452851295,"145":-0.020502528175711632,"146":0.030811326578259468,"147":0.0626511499285698,"148":-0.051718100905418396,"149":0.028469741344451904,"150":-0.07483002543449402,"151":0.07738550752401352,"152":0.019477641209959984,"153":-0.03202414512634277,"154":-0.011505437083542347,"155":-0.06542520225048065,"156":0.05151235684752464,"157":-0.06415931135416031,"158":-0.006906264927238226,"159":-0.02199222519993782,"160":0.016763024032115936,"161":-0.0682646781206131,"162":-0.01576997898519039,"163":0.04555104300379753,"164":0.014619184657931328,"165":-0.07317497581243515,"166":0.05024085193872452,"167":-0.0337948314845562,"168":0.055266812443733215,"169":0.029921190813183784,"170":-0.008098222315311432,"171":-0.07978596538305283,"172":-0.027182117104530334,"173":-0.032422639429569244,"174":0.04711717367172241,"175":0.05157337710261345,"176":0.0407274030148983,"177":-0.03060711733996868,"178":0.02660192735493183,"179":-0.0314156748354435,"180":0.046892471611499786,"181":-0.034763455390930176,"182":0.002465515397489071,"183":0.04216742515563965,"184":0.02852315828204155,"185":0.04543242231011391,"186":0.012002820149064064,"187":0.07549789547920227,"188":-0.03782117739319801,"189":0.07658134400844574,"190":0.007876841351389885,"191":-0.07452883571386337,"192":0.048251546919345856,"193":-0.033297356218099594,"194":0.033778879791498184,"195":-0.04788384214043617,"196":-0.008288480341434479,"197":0.032831791788339615,"198":-0.05174228921532631,"199":0.0066355569288134575,"200":-0.0031559739727526903,"201":0.023675618693232536,"202":-0.049449145793914795,"203":0.018936006352305412,"204":-0.052168793976306915,"205":0.02528688684105873,"206":-0.05909739062190056,"207":0.06792962551116943,"208":0.01140308752655983,"209":0.06432797759771347,"210":-0.009842794388532639,"211":0.07857348024845123,"212":0.005691528785973787,"213":-0.079985611140728,"214":0.02506370097398758,"215":-0.07247355580329895,"216":0.0597447007894516,"217":0.03443765267729759,"218":-0.07220490276813507,"219":-0.04408574849367142,"220":-0.03585342690348625,"221":-0.07289871573448181,"222":0.07171022146940231,"223":0.045342765748500824,"224":0.04393116012215614,"225":-0.03815533220767975,"226":0.06508788466453552,"227":0.07241314649581909,"228":0.06821327656507492,"229":-0.07810676842927933,"230":-0.04033453390002251,"231":-0.05964724346995354,"232":0.05551375821232796,"233":-0.013860211707651615,"234":-0.03781687468290329,"235":0.04022936150431633,"236":-0.06067818030714989,"237":0.03205757960677147,"238":-0.01969578117132187,"239":-0.050302211195230484,"240":-0.03999407961964607,"241":-0.07552214711904526,"242":-0.07479654997587204,"243":-0.008687619119882584,"244":-0.03587449714541435,"245":0.0599207878112793,"246":0.07737164944410324,"247":0.049061063677072525,"248":-0.014434614218771458,"249":0.06716983020305634,"250":-0.05239192768931389,"251":0.01595734804868698,"252":-0.06424181163311005,"253":-0.05692450329661369,"254":-0.054421138018369675,"255":-0.026469392701983452,"256":-0.0098655940964818,"257":0.004360247869044542,"258":0.051903653889894485,"259":0.04088776558637619,"260":-0.007558565121144056,"261":-0.07143708318471909,"262":-0.0529317669570446,"263":0.001767046400345862,"264":-0.0784250944852829,"265":-0.05793822556734085,"266":0.050911225378513336,"267":0.01180545799434185,"268":0.044024452567100525,"269":0.03553240746259689,"270":0.015599818900227547,"271":-0.03996037691831589,"272":0.02390171028673649,"273":0.032018233090639114,"274":0.06914550065994263,"275":0.04367121681571007,"276":0.05611686781048775,"277":0.03994613140821457,"278":0.06864486634731293,"279":-0.0535920150578022,"280":0.020741302520036697,"281":-0.002268448704853654,"282":0.0019381551537662745,"283":0.022967079654335976,"284":-0.019546685740351677,"285":-0.06613770872354507,"286":-0.015424851328134537,"287":-0.012691838666796684,"288":-0.005304557271301746,"289":-0.04678701236844063,"290":0.07575858384370804,"291":-0.012424156069755554,"292":0.0196616742759943,"293":-0.05394634231925011,"294":0.054301220923662186,"295":0.04374595731496811,"296":0.04270452260971069,"297":-0.05558255687355995,"298":-0.019732894375920296,"299":0.027329226955771446,"300":0.018784357234835625,"301":-0.0012649073032662272,"302":0.013906903564929962,"303":-0.024180054664611816,"304":0.008398889563977718,"305":-0.00957998726516962,"306":0.024069294333457947,"307":-0.03580917418003082,"308":-0.06540264934301376,"309":0.05618081986904144,"310":0.0700833797454834,"311":-0.04611673578619957,"312":-0.03483367711305618,"313":0.02514454536139965,"314":0.02403195947408676,"315":-0.07600750029087067,"316":-0.07959733158349991,"317":-0.0006524565978907049,"318":-0.03316834941506386,"319":-0.03871193900704384,"320":0.07674627006053925,"321":-0.0076043265871703625,"322":0.03468385338783264,"323":0.0038663321174681187,"324":0.02153707668185234,"325":-0.046518322080373764,"326":0.06696213781833649,"327":0.07878676801919937,"328":-0.06305412203073502,"329":-0.02286117896437645,"330":-0.07767648994922638,"331":0.0794137492775917,"332":0.01185391191393137,"333":0.07136212289333344,"334":0.0755496695637703,"335":0.04964384809136391,"336":0.026582220569252968,"337":-0.008174983784556389,"338":0.03094383515417576,"339":-0.007038253825157881,"340":-0.04999163746833801,"341":0.016435246914625168,"342":-0.06511098146438599,"343":-0.03771251067519188,"344":-0.009361586533486843,"345":0.0458378866314888,"346":-0.007439630106091499,"347":0.0283318143337965,"348":-0.0033942745067179203,"349":0.006930203177034855,"350":-0.01683371141552925,"351":-0.0057451738975942135,"352":0.01807246170938015,"353":0.05980673432350159,"354":0.028836265206336975,"355":0.05756204575300217,"356":0.007170531433075666,"357":0.04588056355714798,"358":-0.012955190613865852,"359":0.006013696547597647,"360":0.018692826852202415,"361":-0.0451531782746315,"362":-0.020853446796536446,"363":-0.012897602282464504,"364":0.0424930714070797,"365":-0.025058211758732796,"366":0.025547124445438385,"367":-0.06251608580350876,"368":0.03592242673039436,"369":0.008615950122475624,"370":-0.022414080798625946,"371":0.07898904383182526,"372":0.037267666310071945,"373":0.036791618913412094,"374":0.04560413956642151,"375":-0.007535664364695549,"376":-0.010162138380110264,"377":0.028620360419154167,"378":0.00414265226572752,"379":0.036728039383888245,"380":-0.05705602839589119,"381":0.018748322501778603,"382":0.03476494178175926,"383":0.07375133782625198,"384":-0.011804832145571709,"385":0.022125104442238808,"386":0.04205729439854622,"387":0.07795387506484985,"388":-0.048391398042440414,"389":0.02243877574801445,"390":-0.07114285975694656,"391":0.06586161255836487,"392":0.008744536899030209,"393":-0.06027795001864433,"394":0.025381406769156456,"395":0.008038119412958622,"396":-0.011299370788037777,"397":-0.0509871169924736,"398":-0.0072194733656942844,"399":-0.024998344480991364}},"outputBias":{"rows":20,"columns":1,"weights":{"0":0,"1":0,"2":0,"3":0,"4":0,"5":0,"6":0,"7":0,"8":0,"9":0,"10":0,"11":0,"12":0,"13":0,"14":0,"15":0,"16":0,"17":0,"18":0,"19":0}},"cellActivationMatrix":{"rows":20,"columns":20,"weights":{"0":0.035862330347299576,"1":0.05262288078665733,"2":0.06600060313940048,"3":-0.04071763902902603,"4":0.05143279209733009,"5":0.04404916986823082,"6":0.05569404736161232,"7":0.056980155408382416,"8":-0.06162365898489952,"9":-0.0212772935628891,"10":0.07095062732696533,"11":0.011259517632424831,"12":0.005649259779602289,"13":0.06404121220111847,"14":-0.059272363781929016,"15":0.05640748143196106,"16":0.048084862530231476,"17":0.020930159837007523,"18":-0.0675504058599472,"19":-0.02098793163895607,"20":-0.0267559252679348,"21":0.038508541882038116,"22":-0.03166811540722847,"23":-0.010756249539554119,"24":0.06487216800451279,"25":0.021771777421236038,"26":-0.04041501134634018,"27":0.004531432408839464,"28":-0.02011871710419655,"29":0.002126628765836358,"30":-0.042722418904304504,"31":-0.04886379837989807,"32":0.05145702138543129,"33":0.03689132630825043,"34":0.00016745466564316303,"35":0.049893416464328766,"36":0.05812128633260727,"37":0.06725315004587173,"38":-0.0788513720035553,"39":0.014145346358418465,"40":0.07241925597190857,"41":-0.037214308977127075,"42":0.022971825674176216,"43":0.033480677753686905,"44":0.05160379782319069,"45":0.03813175857067108,"46":-0.0006133944843895733,"47":0.04277200624346733,"48":0.015819687396287918,"49":-0.05387340858578682,"50":-0.025862039998173714,"51":-0.015062481164932251,"52":0.05231460928916931,"53":0.036653343588113785,"54":-0.019490249454975128,"55":-0.008556214161217213,"56":0.03655344992876053,"57":0.008345513604581356,"58":0.06672658771276474,"59":0.040932197123765945,"60":-0.0014268525410443544,"61":0.026258738711476326,"62":-0.06647058576345444,"63":-0.03667796775698662,"64":-0.04293293133378029,"65":-0.011215037666261196,"66":-0.023115232586860657,"67":-0.0717751681804657,"68":0.030409106984734535,"69":0.004379236605018377,"70":-0.05995938554406166,"71":-0.020623093470931053,"72":0.058307308703660965,"73":0.004481678828597069,"74":0.039263077080249786,"75":-0.03973978012800217,"76":-0.043427299708127975,"77":0.046469178050756454,"78":0.07043760269880295,"79":0.06366439908742905,"80":-0.037788115441799164,"81":-0.07716981321573257,"82":0.07683929055929184,"83":-0.004589490592479706,"84":0.004777258262038231,"85":0.03569263592362404,"86":0.03511570766568184,"87":-0.014924363233149052,"88":0.07097814232110977,"89":0.05320819467306137,"90":-0.06416701525449753,"91":-0.07285525649785995,"92":0.01264975406229496,"93":0.0031337731052190065,"94":0.00874987244606018,"95":0.048282548785209656,"96":-0.07503411173820496,"97":0.0624736063182354,"98":-0.0499158538877964,"99":0.06081204488873482,"100":-0.057738203555345535,"101":-0.07359462976455688,"102":-0.0008064559078775346,"103":0.046067044138908386,"104":-0.06634356081485748,"105":-0.05593078210949898,"106":-0.010700313374400139,"107":-0.0661642998456955,"108":0.02069818787276745,"109":0.045490775257349014,"110":-0.04515981674194336,"111":0.03507906571030617,"112":-0.0540589764714241,"113":0.057647522538900375,"114":0.06674977391958237,"115":0.0704469308257103,"116":-0.023762792348861694,"117":-0.04211881384253502,"118":0.0615067295730114,"119":-0.0028393182437866926,"120":-0.014452870935201645,"121":-0.06274957954883575,"122":0.04952186718583107,"123":0.04453783109784126,"124":0.027624620124697685,"125":0.058351781219244,"126":0.06251942366361618,"127":0.053231578320264816,"128":-0.04668008163571358,"129":-0.03286051005125046,"130":0.05297418311238289,"131":0.06000572443008423,"132":-0.02749200351536274,"133":0.07351475954055786,"134":-0.01619952730834484,"135":-0.06814908981323242,"136":-0.07234912365674973,"137":-0.07167468965053558,"138":-0.045915160328149796,"139":0.0538623183965683,"140":0.035861361771821976,"141":-0.06371131539344788,"142":-0.052750762552022934,"143":0.07255307585000992,"144":0.039983347058296204,"145":-0.04457179084420204,"146":-0.001497821882367134,"147":-0.05741334706544876,"148":-0.03759816661477089,"149":0.03397524729371071,"150":-0.07281748950481415,"151":-0.06738284975290298,"152":-0.05723769962787628,"153":-0.009271184913814068,"154":-0.03882614150643349,"155":-0.07732315361499786,"156":0.05928322672843933,"157":0.0033510345965623856,"158":-0.05639960244297981,"159":-0.0208127461373806,"160":-0.028363538905978203,"161":0.015303787775337696,"162":-0.06200708448886871,"163":0.06293211877346039,"164":-0.058757491409778595,"165":0.05679038166999817,"166":0.024820934981107712,"167":-0.011191719211637974,"168":-0.043893709778785706,"169":-0.03931218013167381,"170":-0.03747592493891716,"171":0.037556737661361694,"172":-0.005179328843951225,"173":0.031064413487911224,"174":0.039846695959568024,"175":0.005910445004701614,"176":0.0029867407865822315,"177":0.0204580370336771,"178":-0.03561856225132942,"179":0.002918063895776868,"180":0.004502329044044018,"181":-0.03887953236699104,"182":-0.06629495322704315,"183":0.026676328852772713,"184":-0.027199959382414818,"185":-0.059758253395557404,"186":-0.07455453276634216,"187":-0.0712171345949173,"188":-0.0693173035979271,"189":-0.013243643566966057,"190":-0.05242319405078888,"191":0.004435333888977766,"192":0.009991010650992393,"193":-0.06572162359952927,"194":0.060242243111133575,"195":-0.0699683129787445,"196":-0.01712115667760372,"197":-0.03262035548686981,"198":0.018343063071370125,"199":-0.023340068757534027,"200":-0.0047489977441728115,"201":0.024454563856124878,"202":0.01148352399468422,"203":-0.03373240306973457,"204":0.042919233441352844,"205":0.05982299894094467,"206":0.018730707466602325,"207":0.040486183017492294,"208":-0.05514528229832649,"209":0.03756086900830269,"210":-0.04384666681289673,"211":0.05062328651547432,"212":0.062457676976919174,"213":-0.0699392706155777,"214":0.005868356674909592,"215":-0.03817767649888992,"216":0.000011266927685937844,"217":0.019135259091854095,"218":0.07617496699094772,"219":-0.02807963825762272,"220":0.06531333178281784,"221":-0.07492098957300186,"222":-0.07493633031845093,"223":0.009096556343138218,"224":0.02385556884109974,"225":-0.061356619000434875,"226":-0.043446678668260574,"227":-0.0009132079430855811,"228":0.006595605984330177,"229":0.07928554713726044,"230":0.019262557849287987,"231":-0.024275269359350204,"232":0.03531326353549957,"233":-0.060441575944423676,"234":-0.03438274562358856,"235":-0.038285963237285614,"236":0.0729365199804306,"237":-0.01996590755879879,"238":-0.0014464155538007617,"239":-0.017554135993123055,"240":-0.033393241465091705,"241":0.03957322612404823,"242":0.050084326416254044,"243":-0.024591442197561264,"244":-0.06544964760541916,"245":-0.06681527197360992,"246":-0.02224905788898468,"247":0.034762389957904816,"248":-0.06684093922376633,"249":0.07393945008516312,"250":0.04793638363480568,"251":0.001198916113935411,"252":0.0020109026227146387,"253":0.06381987035274506,"254":0.06968079507350922,"255":0.06210699677467346,"256":0.04640663042664528,"257":-0.05311229079961777,"258":-0.011400832794606686,"259":0.010850228369235992,"260":-0.04329633712768555,"261":0.02596721611917019,"262":-0.047350067645311356,"263":-0.058258526027202606,"264":0.053017668426036835,"265":0.00994432158768177,"266":-0.011169904842972755,"267":-0.022098321467638016,"268":-0.06848013401031494,"269":0.06771240383386612,"270":0.03586738929152489,"271":0.012013697996735573,"272":0.02456728182733059,"273":-0.015798937529325485,"274":-0.04340323805809021,"275":0.07208612561225891,"276":-0.06771516054868698,"277":0.04308091104030609,"278":-0.06069431081414223,"279":-0.0562300831079483,"280":-0.04217059910297394,"281":0.02283340133726597,"282":-0.02888495661318302,"283":-0.01457863487303257,"284":-0.06426297873258591,"285":-0.07845699787139893,"286":-0.06775999069213867,"287":-0.06587465107440948,"288":0.016113655641674995,"289":-0.05476559326052666,"290":-0.0012162768980488181,"291":0.019994692876935005,"292":0.05409234017133713,"293":0.06541050970554352,"294":-0.005561096128076315,"295":0.03149993717670441,"296":-0.05189754441380501,"297":-0.07474777847528458,"298":-0.0036239505279809237,"299":0.05724688619375229,"300":-0.03171762451529503,"301":0.030042003840208054,"302":-0.048756685107946396,"303":-0.02889328822493553,"304":0.012602242641150951,"305":-0.017337491735816002,"306":-0.07702258229255676,"307":0.06593352556228638,"308":0.006233304273337126,"309":0.0684417262673378,"310":-0.042317576706409454,"311":-0.07618740200996399,"312":0.04749452322721481,"313":-0.01702255941927433,"314":-0.031459175050258636,"315":-0.0536995455622673,"316":0.014422421343624592,"317":0.035992059856653214,"318":0.07611821591854095,"319":-0.002196794142946601,"320":0.06199950352311134,"321":0.0075945304706692696,"322":-0.054575301706790924,"323":0.023531246930360794,"324":-0.06761746108531952,"325":-0.0570499487221241,"326":0.006402255967259407,"327":-0.017625542357563972,"328":0.05272851511836052,"329":-0.011064702644944191,"330":-0.059202890843153,"331":0.06456442177295685,"332":-0.024103544652462006,"333":-0.04488973319530487,"334":0.004416957031935453,"335":-0.036507055163383484,"336":-0.011747886426746845,"337":0.04037650302052498,"338":-0.01642528735101223,"339":0.017921147868037224,"340":0.003213892923668027,"341":-0.015322559513151646,"342":0.028286883607506752,"343":-0.07731030136346817,"344":-0.03954125940799713,"345":0.07309091091156006,"346":-0.02056100033223629,"347":-0.047601401805877686,"348":-0.05842554569244385,"349":-0.049794238060712814,"350":-0.06722711771726608,"351":0.0467318519949913,"352":0.027941342443227768,"353":-0.06613531708717346,"354":-0.07273212820291519,"355":-0.02395837940275669,"356":0.06845580041408539,"357":0.03300268575549126,"358":-0.07114866375923157,"359":0.015162978321313858,"360":0.07078474760055542,"361":0.041831906884908676,"362":0.03494003415107727,"363":-0.030746376141905785,"364":-0.014323029667139053,"365":-0.06663862615823746,"366":0.007284814491868019,"367":-0.04705384746193886,"368":0.04001091048121452,"369":-0.07881876826286316,"370":0.05658644437789917,"371":-0.0038834838196635246,"372":0.07847750931978226,"373":-0.060787174850702286,"374":-0.053403183817863464,"375":0.06773935258388519,"376":-0.07447443157434464,"377":0.017247172072529793,"378":-0.03486066311597824,"379":-0.015393441542983055,"380":0.043779920786619186,"381":-0.05296461656689644,"382":0.012938059866428375,"383":-0.024883612990379333,"384":0.04472362995147705,"385":-0.0011442365357652307,"386":-0.005918784067034721,"387":-0.023783991113305092,"388":-0.07457608729600906,"389":-0.05571289733052254,"390":-0.051796093583106995,"391":-0.0014830323634669185,"392":0.0567471981048584,"393":-0.012638624757528305,"394":-0.013519879430532455,"395":-0.0610046349465847,"396":0.027514463290572166,"397":0.07249130308628082,"398":0.02681582234799862,"399":-0.07490520924329758}},"cellActivationHidden":{"rows":20,"columns":20,"weights":{"0":0.027162719517946243,"1":-0.07364100962877274,"2":0.05970744043588638,"3":0.06639134883880615,"4":0.013474647887051105,"5":0.0522461012005806,"6":-0.03053889237344265,"7":-0.05503009259700775,"8":0.016332145780324936,"9":0.015148330479860306,"10":0.03012957237660885,"11":-0.0367567278444767,"12":-0.04844718053936958,"13":-0.07939425110816956,"14":0.004506041761487722,"15":-0.055202897638082504,"16":0.010962068103253841,"17":0.02558482624590397,"18":-0.07989048212766647,"19":-0.05092519894242287,"20":-0.06653240323066711,"21":-0.003420597407966852,"22":-0.0673401951789856,"23":0.05260773003101349,"24":-0.05555013194680214,"25":-0.0010548366699367762,"26":0.001974960323423147,"27":0.07581300288438797,"28":0.04328854754567146,"29":0.05583000183105469,"30":-0.054247528314590454,"31":0.003200277453288436,"32":0.04195106029510498,"33":0.04824582114815712,"34":0.005975198466330767,"35":0.037018243223428726,"36":-0.0510881245136261,"37":-0.06646464765071869,"38":-0.008525723591446877,"39":0.00955952238291502,"40":0.05100332945585251,"41":0.06163766235113144,"42":-0.060281772166490555,"43":-0.05169603228569031,"44":-0.053484342992305756,"45":-0.016354715451598167,"46":-0.0761762261390686,"47":0.013700505718588829,"48":0.05538499355316162,"49":-0.04244048520922661,"50":0.020481057465076447,"51":-0.04470448195934296,"52":-0.013709417544305325,"53":-0.07468119263648987,"54":0.023532066494226456,"55":0.0738915503025055,"56":-0.0017747344681993127,"57":0.07722807675600052,"58":0.05786141753196716,"59":0.005844489671289921,"60":0.021454697474837303,"61":0.0578138493001461,"62":0.06304315477609634,"63":-0.030267570167779922,"64":0.04598180204629898,"65":-0.05094774439930916,"66":-0.02449261024594307,"67":0.07946010679006577,"68":-0.03295668959617615,"69":-0.07965689152479172,"70":0.0775788277387619,"71":0.05494774132966995,"72":0.025985993444919586,"73":0.0020356732420623302,"74":-0.06833574920892715,"75":-0.04487994313240051,"76":0.06510191410779953,"77":-0.03263581171631813,"78":0.030088599771261215,"79":0.06602902710437775,"80":0.01341977808624506,"81":0.028518542647361755,"82":0.04152408987283707,"83":0.021804532036185265,"84":-0.04524550586938858,"85":0.017678948119282722,"86":0.012481586076319218,"87":0.06319276988506317,"88":-0.02789110131561756,"89":0.05165949463844299,"90":-0.019615022465586662,"91":-0.028636831790208817,"92":0.0138417212292552,"93":-0.03830644488334656,"94":0.04588685929775238,"95":0.029271604493260384,"96":0.07605403661727905,"97":-0.07933581620454788,"98":-0.006344745866954327,"99":-0.05352858826518059,"100":-0.05593273788690567,"101":0.07343744486570358,"102":-0.02248929813504219,"103":-0.009496022015810013,"104":-0.026641029864549637,"105":-0.0028358143754303455,"106":-0.07952510565519333,"107":-0.009425447322428226,"108":-0.0050253658555448055,"109":0.07266899198293686,"110":0.05950351059436798,"111":0.05278429761528969,"112":-0.046026811003685,"113":0.06836394220590591,"114":-0.056497808545827866,"115":0.029891900718212128,"116":0.046788040548563004,"117":-0.022877154871821404,"118":-0.034987084567546844,"119":0.010990984737873077,"120":-0.005748533643782139,"121":-0.05282457917928696,"122":-0.03722729533910751,"123":-0.072392538189888,"124":0.07370145618915558,"125":-0.03957846015691757,"126":-0.06689301133155823,"127":-0.03218953311443329,"128":0.05719801411032677,"129":0.035589758306741714,"130":0.04673603177070618,"131":0.01755155250430107,"132":0.04591205716133118,"133":0.049843162298202515,"134":0.07034427672624588,"135":0.011630276218056679,"136":-0.013630825094878674,"137":-0.065782330930233,"138":-0.02803574874997139,"139":0.01796077936887741,"140":0.036464907228946686,"141":0.07358266413211823,"142":0.0026725155767053366,"143":-0.05677228048443794,"144":0.000834080798085779,"145":-0.06291234493255615,"146":-0.02371136099100113,"147":-0.047907810658216476,"148":-0.03245171532034874,"149":0.030969789251685143,"150":0.05316311866044998,"151":-0.0658644437789917,"152":0.01918870210647583,"153":0.046892475336790085,"154":0.05700462684035301,"155":-0.04600946977734566,"156":0.04219597950577736,"157":0.007865676656365395,"158":0.058019962161779404,"159":0.04110356420278549,"160":-0.07819324731826782,"161":-0.06944181025028229,"162":-0.022969651967287064,"163":-0.07392281293869019,"164":-0.022875703871250153,"165":-0.019602851942181587,"166":0.0025152869056910276,"167":0.06263884156942368,"168":-0.00901729241013527,"169":0.07533427327871323,"170":0.04810365289449692,"171":-0.07286254316568375,"172":0.0557146891951561,"173":0.03050330840051174,"174":0.02195972204208374,"175":0.02138642966747284,"176":-0.0212762001901865,"177":-0.04941876605153084,"178":0.0372529961168766,"179":-0.05965758115053177,"180":0.06193897873163223,"181":0.006677212193608284,"182":-0.01997993141412735,"183":-0.07775233685970306,"184":-0.007784515153616667,"185":0.02075124718248844,"186":-0.023297032341361046,"187":0.06878755986690521,"188":-0.03989109769463539,"189":-0.003764012362807989,"190":0.05894383415579796,"191":0.04089052975177765,"192":0.011326042003929615,"193":0.06413205713033676,"194":0.020723510533571243,"195":-0.048036012798547745,"196":-0.03256351873278618,"197":0.013748807832598686,"198":-0.024524366483092308,"199":-0.05361331254243851,"200":0.07930043339729309,"201":-0.06903515011072159,"202":-0.0711803063750267,"203":-0.055948808789253235,"204":-0.020547954365611076,"205":0.06852056831121445,"206":-0.07638520002365112,"207":0.045555178076028824,"208":0.022826798260211945,"209":-0.04914753511548042,"210":0.01351972483098507,"211":-0.07775016129016876,"212":-0.02219543419778347,"213":0.0010425966465845704,"214":-0.03935402259230614,"215":-0.03316643834114075,"216":-0.04906100779771805,"217":0.07969507575035095,"218":-0.020073233172297478,"219":-0.029444506391882896,"220":0.07625959068536758,"221":-0.04770810157060623,"222":0.042479101568460464,"223":-0.0562923364341259,"224":0.07099433243274689,"225":0.0020575483795255423,"226":0.035311009734869,"227":-0.02017015591263771,"228":0.024812258780002594,"229":-0.05536408722400665,"230":0.06929288059473038,"231":-0.05089323967695236,"232":0.06813372671604156,"233":-0.0070938062854111195,"234":-0.02674522064626217,"235":-0.007938887923955917,"236":-0.013916021212935448,"237":-0.0628274604678154,"238":-0.015378594398498535,"239":-0.0713743194937706,"240":-0.03049027919769287,"241":-0.016313550993800163,"242":0.033646997064352036,"243":0.05712088569998741,"244":0.014736887067556381,"245":0.016259124502539635,"246":0.029240155592560768,"247":0.0362820141017437,"248":-0.06083511561155319,"249":0.0504501648247242,"250":0.061782609671354294,"251":-0.06891647726297379,"252":-0.041559915989637375,"253":0.00873546302318573,"254":0.0036408768501132727,"255":-0.009858446195721626,"256":-0.03756041079759598,"257":-0.03574103116989136,"258":0.01640433259308338,"259":-0.0058073680847883224,"260":0.02582012303173542,"261":-0.07258328050374985,"262":0.03159676119685173,"263":-0.07915306091308594,"264":0.06244086101651192,"265":-0.07233840227127075,"266":0.06839107722043991,"267":-0.04289385676383972,"268":-0.042492009699344635,"269":-0.03818179666996002,"270":-0.05943586677312851,"271":0.022800564765930176,"272":0.06756028532981873,"273":-0.06858868151903152,"274":0.06749235838651657,"275":-0.07524963468313217,"276":0.046235986053943634,"277":-0.010520098730921745,"278":0.009324971586465836,"279":0.019356966018676758,"280":-0.035541463643312454,"281":0.02286394126713276,"282":0.015561357140541077,"283":-0.07399751245975494,"284":0.017075326293706894,"285":-0.003254772862419486,"286":0.06730947643518448,"287":-0.0712570920586586,"288":0.06670244038105011,"289":-0.025556670501828194,"290":-0.05705076828598976,"291":0.04551875963807106,"292":-0.016988225281238556,"293":-0.031142335385084152,"294":-0.03536945953965187,"295":-0.04490436241030693,"296":-0.027977559715509415,"297":-0.03831695392727852,"298":0.035112470388412476,"299":0.07887040078639984,"300":0.040429964661598206,"301":0.043318118900060654,"302":-0.033113837242126465,"303":0.07371579110622406,"304":0.07401911914348602,"305":0.03342057019472122,"306":0.0630352720618248,"307":-0.06320863217115402,"308":0.03072488121688366,"309":0.059629637748003006,"310":-0.010286993347108364,"311":-0.00819648988544941,"312":0.0238322950899601,"313":0.0770476758480072,"314":-0.012138481251895428,"315":-0.02960788458585739,"316":0.04476069286465645,"317":-0.07693378627300262,"318":0.0298935417085886,"319":0.07923277467489243,"320":-0.0065190535970032215,"321":0.0017074787756428123,"322":-0.07360441237688065,"323":-0.02748175896704197,"324":-0.05891067534685135,"325":-0.006225809454917908,"326":0.05319685861468315,"327":-0.01825542375445366,"328":-0.03844010829925537,"329":0.027436479926109314,"330":0.05203564092516899,"331":0.03471611812710762,"332":-0.00892199482768774,"333":-0.020984183996915817,"334":0.04682476818561554,"335":0.06896853446960449,"336":-0.014627430588006973,"337":-0.07936745882034302,"338":-0.029647784307599068,"339":-0.06824743002653122,"340":0.025393730029463768,"341":-0.004139616619795561,"342":-0.04389825090765953,"343":-0.053435374051332474,"344":-0.04889813810586929,"345":-0.030896278098225594,"346":0.045040734112262726,"347":0.06472062319517136,"348":0.016403133049607277,"349":0.005058819893747568,"350":0.07138261944055557,"351":0.018101274967193604,"352":-0.0756024420261383,"353":0.07662947475910187,"354":-0.06928190588951111,"355":0.019651055335998535,"356":-0.03954753652215004,"357":0.00450020981952548,"358":-0.023518182337284088,"359":0.008988928981125355,"360":0.07040643692016602,"361":0.050803251564502716,"362":0.046640243381261826,"363":0.045404840260744095,"364":-0.029429061338305473,"365":-0.01769927702844143,"366":-0.0023510383907705545,"367":0.07005144655704498,"368":-0.021138817071914673,"369":-0.009478282183408737,"370":-0.023035995662212372,"371":-0.04845455661416054,"372":0.008131920360028744,"373":-0.06470578908920288,"374":-0.05941016599535942,"375":0.052013326436281204,"376":-0.03247556462883949,"377":0.06407991051673889,"378":0.011165586300194263,"379":-0.02685212343931198,"380":0.06988699734210968,"381":-0.051593806594610214,"382":-0.010249821469187737,"383":-0.049824945628643036,"384":-0.011443030089139938,"385":-0.01320395153015852,"386":0.040909770876169205,"387":-0.07076694816350937,"388":-0.013136298395693302,"389":0.053292568773031235,"390":0.047934893518686295,"391":-0.04400239512324333,"392":-0.019519977271556854,"393":0.013916650786995888,"394":0.0371348112821579,"395":-0.05636283755302429,"396":-0.031171459704637527,"397":-0.05677686631679535,"398":-0.014200180768966675,"399":0.013998476788401604}},"cellActivationBias":{"rows":20,"columns":1,"weights":{"0":0,"1":0,"2":0,"3":0,"4":0,"5":0,"6":0,"7":0,"8":0,"9":0,"10":0,"11":0,"12":0,"13":0,"14":0,"15":0,"16":0,"17":0,"18":0,"19":0}}},{"inputMatrix":{"rows":20,"columns":20,"weights":{"0":-0.030004270374774933,"1":0.01093767024576664,"2":-0.02675878256559372,"3":0.019736746326088905,"4":-0.03689655289053917,"5":0.008602019399404526,"6":-0.04570528119802475,"7":0.03577501326799393,"8":0.021964071318507195,"9":-0.02952435426414013,"10":0.061867278069257736,"11":-0.07301035523414612,"12":-0.020521093159914017,"13":0.07495978474617004,"14":-0.051063090562820435,"15":-0.025233527645468712,"16":0.04545563831925392,"17":0.0551898330450058,"18":-0.04449191316962242,"19":-0.07759905606508255,"20":0.004133192822337151,"21":0.027332361787557602,"22":0.05467183515429497,"23":0.03385663032531738,"24":-0.05664399638772011,"25":0.06560195237398148,"26":-0.025294693186879158,"27":-0.029505828395485878,"28":-0.04921424388885498,"29":-0.0011305545922368765,"30":-0.05905381962656975,"31":0.013129197061061859,"32":-0.031667280942201614,"33":-0.04663370922207832,"34":-0.053138215094804764,"35":-0.021494876593351364,"36":-0.003977382089942694,"37":-0.060153063386678696,"38":-0.04361831024289131,"39":0.0590599849820137,"40":0.07518132776021957,"41":0.07625528424978256,"42":-0.07274231314659119,"43":0.03473864868283272,"44":0.001079982495866716,"45":-0.0652986615896225,"46":-0.04367375001311302,"47":-0.0790666937828064,"48":0.05629987269639969,"49":-0.018408900126814842,"50":-0.005928863305598497,"51":0.0015869222115725279,"52":0.04970913380384445,"53":0.01791340485215187,"54":-0.061933040618896484,"55":0.029858624562621117,"56":0.007063599769026041,"57":0.0021367010194808245,"58":0.05682430416345596,"59":-0.015818245708942413,"60":0.041189044713974,"61":0.057781171053647995,"62":0.04319087788462639,"63":-0.03996949642896652,"64":0.028590360656380653,"65":-0.06499990820884705,"66":-0.05641886219382286,"67":-0.06790920346975327,"68":-0.061493098735809326,"69":-0.014856197871267796,"70":-0.04317384213209152,"71":0.03188256546854973,"72":-0.01077329646795988,"73":0.029238833114504814,"74":0.020397966727614403,"75":0.013275234960019588,"76":0.015481197275221348,"77":0.07925626635551453,"78":-0.05041446164250374,"79":-0.052538223564624786,"80":-0.07275070250034332,"81":0.041094113141298294,